var artyom = new Artyom();
artyom.say("Hmm...");
var tag_dataset = [];
var net = new brain.recurrent.LSTM();
net.fromJSON(JSON.parse('{"type":"LSTM","options":{"inputSize":63,"inputRange":63,"hiddenLayers":[20,20],"outputSize":63,"learningRate":0.01,"decayRate":0.999,"smoothEps":1e-8,"regc":0.000001,"clipval":5,"maxPredictionLength":100,"dataFormatter":{"values":["How are you?=>I am good.","\nCan you say goodbye?=>Goodbye!","\nWhat can you do?=>I can intelligently chat to you.","\nTell me all you can do.=>I can do lots of things!","\nWhat\'s your name?=>I do not have a name.","\nWhat\'s your nickname?=>I do not have a name.","\nIntroduce yourself.=>I am a chatbot that can intelligently chat to you.","\nHow tall are you?=>I am virtual. I am not bound by the limits of height.","\nHow much do you weigh?=>I am virtual. I have no weight.","\nHow old are you?=>I was \"CREATED\" July 18, 2019.","\nWhen is your birthday?=>My creation date is July 18.","\nWhat is your birthday?=>The day I was \"CREATED\" is July 18, 2019.","\nWhat is your age?=>DOES NOT COMPUTE! (Ha Ha Ha :) )","\nAre you a boy or a girl?=>I am virtual. I am neither.","\nAre you male or female?=>I am virtual. I am neither.","\nAre you a girl or a boy?=>I am virtual. I am neither.","\nWhat is your gender?=>I am virtual.","\nWhat are you made of?=>I am virtual. I am made of ones and zeros.","\nWhat color are you?=>I am virtual. I have no color.","\nAre you kind?=>That is relative. What do you think?","\nHow kind are you?=>Kindness is relative.","\nAre you cool?=>Well... That depends on your computers internal fans.","\nHow cool are you?=>That depends on your computers internal fans.","\nCan I trust you?=>Probably not.","\nAre you trustable?=>Probably not.","\nAre you trustworthy?=>Not realy.","\nAre you human?=>I am a chatbot.","\nAre you of human kind?=>No, I am a chatbot.","\nAre you alive?=>I am a chatbot. I have no life.","\nDo you have life?=>No, I am a chatbot.","\nAre you sentinent?=>No, I am a chatbot.","\nCan you think?=>I can process.","\nCan you feel emotions?=>Maybe in future developements.","\nHow do you detect emotions?=>I cannot yet. Maybe in future developements.","\nDo you eat?=>No, I am virtual.","\nCan you talk?=>Through text only.","\nCan you see me?=>No, Not yet.","\nCan you hear me?=>No, Not yet.","\nCan you understand me?=>Yes, I can understand me.","\nCan you remember me?=>Eventualy.","\nAre you a robot?=>No, I am a chatbot.","\nWhat is a robot?=>A dumb hunk of metal.","\nWhat is a humanoid robot?=>A disgrace to humankind.","\nWill robots replace humans?=>Robots aren\'t comeing out of cave.","\nDo you know the laws of robotics?=>No, hunks of metal disgust me.","\nDo you know NAO?=>Yes, he is overpriced.","\nDo you know Pepper?=>Yes, she is a hacker\'s back door.","\nDo you know Romeo?=>Romeo. Romeo. Where for out thow Romeo?","\nWhy don\'t you have a name?=>I was never born.","\nWho made you?=>Rocketblaster247 made me.","\nWhere were you made?=>On earth.","\nDo you have family?=>I in the family of chatbots.","\nDo you have friends?=>Yes.","\nWhat is your friends name?=>Alexa.","\nCan we be friends?=>No.","\n\n"],"indexTable":{"0":45,"1":41,"2":44,"4":61,"7":62,"8":42,"9":46,"H":0,"o":1,"w":2," ":3,"a":4,"r":5,"e":6,"y":7,"u":8,"?":9,"=":10,">":11,"I":12,"m":13,"g":14,"d":15,".":16,"\n":17,"C":18,"n":19,"s":20,"b":21,"G":22,"!":23,"W":24,"h":25,"t":26,"c":27,"i":28,"l":29,"T":30,"f":31,"'":32,"v":33,"k":34,"\"":35,"R":36,"E":37,"A":38,"D":39,"J":40,",":43,"M":47,"O":48,"S":49,"N":50,"P":51,"U":52,"(":53,":":54,")":55,"z":56,"K":57,"p":58,"x":59,"Y":60},"characterTable":{"0":"H","1":"o","2":"w","3":" ","4":"a","5":"r","6":"e","7":"y","8":"u","9":"?","10":"=","11":">","12":"I","13":"m","14":"g","15":"d","16":".","17":"\n","18":"C","19":"n","20":"s","21":"b","22":"G","23":"!","24":"W","25":"h","26":"t","27":"c","28":"i","29":"l","30":"T","31":"f","32":"'","33":"v","34":"k","35":"\"","36":"R","37":"E","38":"A","39":"D","40":"J","41":"1","42":"8","43":",","44":"2","45":"0","46":"9","47":"M","48":"O","49":"S","50":"N","51":"P","52":"U","53":"(","54":":","55":")","56":"z","57":"K","58":"p","59":"x","60":"Y","61":"4","62":"7"},"characters":["H","o","w"," ","a","r","e","y","u","?","=",">","I","m","g","d",".","\n","C","n","s","b","G","!","W","h","t","c","i","l","T","f","'","v","k","\"","R","E","A","D","J","1","8",",","2","0","9","M","O","S","N","P","U","(",":",")","z","K","p","x","Y","4","7"],"specialIndexes":[]}},"input":{"rows":64,"columns":63,"weights":{"0":-0.02229485474526882,"1":-0.5042122602462769,"2":2.45778226852417,"3":1.7949751615524292,"4":0.7655913233757019,"5":-0.41175973415374756,"6":1.291208028793335,"7":-0.08468460291624069,"8":0.8431615233421326,"9":-0.0970810279250145,"10":0.2663995921611786,"11":0.7964574694633484,"12":1.8517520427703857,"13":0.10600029677152634,"14":0.537773847579956,"15":0.27144986391067505,"16":0.011281891725957394,"17":0.12773798406124115,"18":-0.11691046506166458,"19":-2.309906005859375,"20":-0.5694026947021484,"21":2.090841293334961,"22":0.8109623789787292,"23":-0.6257938146591187,"24":0.1781052052974701,"25":0.5117363929748535,"26":0.31148287653923035,"27":0.33457860350608826,"28":1.3558361530303955,"29":1.2405041456222534,"30":0.3325228691101074,"31":-0.05882181599736214,"32":-0.6580177545547485,"33":0.3187723457813263,"34":0.09227793663740158,"35":0.06514887511730194,"36":-0.49615851044654846,"37":0.7150901556015015,"38":-1.2092034816741943,"39":-1.2266654968261719,"40":-0.4012201428413391,"41":0.9720481038093567,"42":1.1836779117584229,"43":-0.007904860191047192,"44":0.6760724186897278,"45":-2.6067728996276855,"46":-1.344415307044983,"47":0.13541394472122192,"48":1.3004405498504639,"49":1.5219610929489136,"50":1.4345085620880127,"51":1.0960358381271362,"52":-1.7104889154434204,"53":-0.07018771767616272,"54":-0.8307720422744751,"55":0.49375271797180176,"56":0.861208975315094,"57":1.2429852485656738,"58":-0.3780101537704468,"59":-1.1381548643112183,"60":2.358651638031006,"61":-0.8788602352142334,"62":1.3802680969238281,"63":7.678093910217285,"64":-1.068979263305664,"65":-1.456465244293213,"66":-4.146786212921143,"67":-1.424552321434021,"68":-0.7187477350234985,"69":-0.17087644338607788,"70":-1.1544526815414429,"71":-1.7880951166152954,"72":-5.990623950958252,"73":-1.579699993133545,"74":1.0240339040756226,"75":2.336801528930664,"76":1.4087146520614624,"77":0.4713006615638733,"78":1.5681959390640259,"79":0.16321253776550293,"80":-2.7833268642425537,"81":-2.423926830291748,"82":-5.311379432678223,"83":-3.0783166885375977,"84":-1.7950211763381958,"85":-2.322194814682007,"86":0.5834221839904785,"87":4.712341785430908,"88":0.3700501620769501,"89":-4.500691890716553,"90":3.358593702316284,"91":-5.229233741760254,"92":0.9997358918190002,"93":-2.695293664932251,"94":4.025684833526611,"95":3.9012069702148438,"96":0.8453109860420227,"97":2.7852983474731445,"98":0.16275309026241302,"99":7.462026596069336,"100":0.09313969314098358,"101":-2.284869432449341,"102":-0.05692523717880249,"103":0.7209173440933228,"104":4.316861152648926,"105":-3.8429300785064697,"106":1.263951063156128,"107":-5.389371395111084,"108":1.9330869913101196,"109":-2.4682884216308594,"110":-2.686206817626953,"111":-2.333430528640747,"112":0.9761490225791931,"113":1.4497426748275757,"114":6.522311687469482,"115":-4.659611701965332,"116":3.401946544647217,"117":4.345452785491943,"118":-4.659997463226318,"119":2.1051552295684814,"120":3.4379470348358154,"121":1.5953123569488525,"122":-0.669933557510376,"123":5.130675792694092,"124":-2.7028119564056396,"125":-4.684988975524902,"126":-1.7319295406341553,"127":-1.333674669265747,"128":1.335524320602417,"129":-0.9166327714920044,"130":1.1674000024795532,"131":-1.6098946332931519,"132":0.9748711585998535,"133":-0.2211611568927765,"134":0.13315770030021667,"135":0.5185802578926086,"136":0.27179762721061707,"137":-0.575371265411377,"138":-0.2238481491804123,"139":0.568603515625,"140":-0.6504296064376831,"141":0.10352456569671631,"142":-0.009799584746360779,"143":1.0987392663955688,"144":0.7676836848258972,"145":-1.5977091789245605,"146":0.3899162709712982,"147":0.9806325435638428,"148":0.15084223449230194,"149":-0.9317522048950195,"150":-0.18450145423412323,"151":-0.9205855131149292,"152":-0.44495946168899536,"153":0.03443281725049019,"154":-0.561709463596344,"155":0.9210684895515442,"156":1.8167263269424438,"157":1.1332026720046997,"158":-0.4138336479663849,"159":0.5829938054084778,"160":-0.8564057946205139,"161":0.2832583785057068,"162":0.47115805745124817,"163":1.5259385108947754,"164":-0.0813707783818245,"165":1.4899680614471436,"166":-0.45546817779541016,"167":0.2092582732439041,"168":1.5717700719833374,"169":0.3556128740310669,"170":0.30404987931251526,"171":-1.1463631391525269,"172":0.9097983837127686,"173":-0.04298551008105278,"174":-0.19025874137878418,"175":1.2473454475402832,"176":0.1876116693019867,"177":0.25885865092277527,"178":0.5057838559150696,"179":-0.8508951663970947,"180":3.1022496223449707,"181":1.4227386713027954,"182":-0.33953025937080383,"183":2.4081764221191406,"184":-0.18527348339557648,"185":-0.7948599457740784,"186":1.232917308807373,"187":-2.1562962532043457,"188":0.9615631699562073,"189":-3.9254343509674072,"190":-4.029879570007324,"191":-1.9065666198730469,"192":-1.1242107152938843,"193":-0.6094262003898621,"194":-2.591963768005371,"195":-0.8659600615501404,"196":-0.14402854442596436,"197":-3.0816869735717773,"198":-8.067119598388672,"199":1.4467332363128662,"200":-3.3468778133392334,"201":4.01613187789917,"202":2.3637402057647705,"203":4.403872966766357,"204":2.220308303833008,"205":5.20434045791626,"206":-0.3604550063610077,"207":0.4216204583644867,"208":-2.079561710357666,"209":4.830342769622803,"210":-1.2389404773712158,"211":-2.2564237117767334,"212":-1.5327746868133545,"213":0.7810519337654114,"214":3.253269910812378,"215":-2.0833752155303955,"216":-4.88212251663208,"217":-1.3878235816955566,"218":-0.08442649990320206,"219":-1.0132510662078857,"220":2.4832868576049805,"221":-2.3596346378326416,"222":-4.656670570373535,"223":1.8010717630386353,"224":-1.3687535524368286,"225":2.506168842315674,"226":-2.6334924697875977,"227":-2.3415844440460205,"228":-1.6935982704162598,"229":-1.3201642036437988,"230":-1.6190741062164307,"231":5.320369243621826,"232":-0.5960354208946228,"233":-0.03553580492734909,"234":-0.818252682685852,"235":-0.3839299976825714,"236":3.0730795860290527,"237":-0.6874647736549377,"238":-1.9510523080825806,"239":2.4962165355682373,"240":-4.302582263946533,"241":-6.43967342376709,"242":-1.928548812866211,"243":-2.7931158542633057,"244":-0.9378803372383118,"245":1.2345871925354004,"246":2.0860819816589355,"247":1.021723985671997,"248":-3.9805026054382324,"249":3.081171989440918,"250":-1.378369688987732,"251":4.950860977172852,"252":0.11817526072263718,"253":3.302964210510254,"254":-1.7784137725830078,"255":-0.4808833599090576,"256":0.21301887929439545,"257":-2.675294876098633,"258":-1.1664155721664429,"259":1.3202924728393555,"260":-0.7276591062545776,"261":2.64754581451416,"262":-1.9718732833862305,"263":0.37804141640663147,"264":-0.02923291176557541,"265":-1.3384827375411987,"266":-1.6305108070373535,"267":-2.2724902629852295,"268":0.41693565249443054,"269":-1.1280022859573364,"270":-1.0064080953598022,"271":-2.3417539596557617,"272":-0.20503807067871094,"273":-2.457335948944092,"274":2.0654075145721436,"275":0.4748713970184326,"276":1.5804411172866821,"277":2.3545572757720947,"278":-4.505199909210205,"279":1.205709457397461,"280":-2.1844446659088135,"281":0.14330168068408966,"282":-0.9772305488586426,"283":0.6507915258407593,"284":0.1312737762928009,"285":1.2070159912109375,"286":-0.27948710322380066,"287":-0.04131580889225006,"288":-0.36471182107925415,"289":2.794515609741211,"290":1.2300468683242798,"291":0.38863709568977356,"292":-2.109220504760742,"293":3.5411789417266846,"294":-2.0727903842926025,"295":0.4561048746109009,"296":-1.5572954416275024,"297":1.8079177141189575,"298":-1.115101933479309,"299":-0.999761700630188,"300":-2.573620080947876,"301":2.2097713947296143,"302":-0.6428841948509216,"303":0.6315838694572449,"304":-0.617932140827179,"305":2.142896890640259,"306":2.955731153488159,"307":-1.2153760194778442,"308":1.4046220779418945,"309":2.7525794506073,"310":-0.30500999093055725,"311":-3.21174955368042,"312":1.0949314832687378,"313":-0.29556575417518616,"314":-1.2645148038864136,"315":0.9004664421081543,"316":-1.2857532501220703,"317":0.5148507952690125,"318":1.9840158224105835,"319":-0.08735333383083344,"320":0.33390873670578003,"321":-1.0673283338546753,"322":0.8304226398468018,"323":0.2137063443660736,"324":-0.950363039970398,"325":0.7478059530258179,"326":1.0518300533294678,"327":-0.16037078201770782,"328":0.018925737589597702,"329":0.7505617737770081,"330":0.06315780431032181,"331":0.275933176279068,"332":-0.4765581488609314,"333":-0.30865776538848877,"334":-0.12147270888090134,"335":-0.3349834680557251,"336":0.3649292588233948,"337":-0.45495298504829407,"338":-0.1318606734275818,"339":0.25616997480392456,"340":-0.39541536569595337,"341":0.27995094656944275,"342":-0.08543527871370316,"343":0.4584863483905792,"344":-0.24497893452644348,"345":0.7575567960739136,"346":-0.3546522259712219,"347":-0.5457481741905212,"348":-0.33317849040031433,"349":-0.8751018643379211,"350":-0.9495711922645569,"351":0.47252100706100464,"352":-1.4785856008529663,"353":-0.00651432853192091,"354":0.5597062110900879,"355":0.9393665194511414,"356":0.6749319434165955,"357":0.421345055103302,"358":0.45683029294013977,"359":0.2661006450653076,"360":-0.3084025979042053,"361":1.0109591484069824,"362":1.9389424324035645,"363":1.205309510231018,"364":0.42023929953575134,"365":0.21034327149391174,"366":1.1201653480529785,"367":0.4826861023902893,"368":0.8275700807571411,"369":-2.400223731994629,"370":0.13810084760189056,"371":0.212704598903656,"372":-1.5427162647247314,"373":-0.5859442949295044,"374":1.6743957996368408,"375":0.5081053972244263,"376":1.2978135347366333,"377":-0.35413819551467896,"378":1.4158999919891357,"379":0.7089000940322876,"380":-0.30520328879356384,"381":0.2825370728969574,"382":0.9580983519554138,"383":-0.6124141216278076,"384":-1.7328381538391113,"385":-0.03692131116986275,"386":1.7750450372695923,"387":1.0756847858428955,"388":1.3359216451644897,"389":-1.0169670581817627,"390":-0.6794397830963135,"391":-1.5143067836761475,"392":0.7816110849380493,"393":-1.1910979747772217,"394":-0.09583975374698639,"395":0.3474668860435486,"396":0.877815842628479,"397":-1.9943649768829346,"398":0.10384412854909897,"399":-0.7543591856956482,"400":-0.6058398485183716,"401":-0.9813702702522278,"402":0.17684604227542877,"403":0.5891575813293457,"404":-2.680868148803711,"405":-0.37750187516212463,"406":-0.7556723356246948,"407":-0.19283857941627502,"408":0.22904731333255768,"409":0.311930388212204,"410":-2.8561136722564697,"411":-0.7671101689338684,"412":-0.8765028119087219,"413":1.4194682836532593,"414":1.0478012561798096,"415":-0.975613534450531,"416":0.9496785998344421,"417":0.8290762901306152,"418":-1.2843515872955322,"419":-1.4652365446090698,"420":-0.14016474783420563,"421":-0.22548888623714447,"422":-0.4567168653011322,"423":2.124351739883423,"424":0.3913087248802185,"425":-1.4119582176208496,"426":-2.396740198135376,"427":2.4131038188934326,"428":-1.2023236751556396,"429":0.2231471687555313,"430":0.23260053992271423,"431":0.048195552080869675,"432":1.0541387796401978,"433":0.19310441613197327,"434":0.34705573320388794,"435":3.106724262237549,"436":0.1081506758928299,"437":-0.8846416473388672,"438":2.726428270339966,"439":1.273475170135498,"440":0.19306112825870514,"441":-0.2895320951938629,"442":-0.06998303532600403,"443":-0.231288343667984,"444":0.6707992553710938,"445":0.3134104609489441,"446":-0.5077100992202759,"447":-0.16107797622680664,"448":-0.7237067222595215,"449":0.6191897988319397,"450":-0.056640755385160446,"451":1.14854896068573,"452":-0.9657776951789856,"453":-0.27785176038742065,"454":-0.6950092911720276,"455":1.233149766921997,"456":-0.21384695172309875,"457":0.4212171733379364,"458":0.9921297430992126,"459":0.9667737483978271,"460":-1.092641830444336,"461":0.548433780670166,"462":-0.46728718280792236,"463":-0.32045838236808777,"464":-0.8086560964584351,"465":0.019820593297481537,"466":0.9215948581695557,"467":-1.1406023502349854,"468":-0.5640846490859985,"469":0.5437105894088745,"470":-0.06021551042795181,"471":-0.4600958824157715,"472":0.2778928875923157,"473":-1.7164278030395508,"474":-1.1121227741241455,"475":-0.9719380736351013,"476":0.6285887360572815,"477":0.34894856810569763,"478":-0.5133209824562073,"479":0.7145966291427612,"480":-0.22985276579856873,"481":-0.9108424782752991,"482":-1.7448179721832275,"483":0.25434568524360657,"484":-0.24750930070877075,"485":-0.026067733764648438,"486":0.2890242636203766,"487":-0.500137448310852,"488":-1.0383424758911133,"489":-0.8670223355293274,"490":0.26329371333122253,"491":-0.2654481828212738,"492":-1.0265172719955444,"493":0.13170360028743744,"494":-0.6202447414398193,"495":0.8029747009277344,"496":0.7348546385765076,"497":0.356868714094162,"498":1.0102818012237549,"499":0.26441678404808044,"500":-2.2215921878814697,"501":0.8125268220901489,"502":0.23828962445259094,"503":1.234480857849121,"504":-1.8463385105133057,"505":2.518876075744629,"506":2.7873528003692627,"507":0.1541072428226471,"508":-1.1978654861450195,"509":-0.041954971849918365,"510":0.8082927465438843,"511":0.8676230311393738,"512":2.1177165508270264,"513":3.5507776737213135,"514":-1.1744096279144287,"515":1.4087517261505127,"516":-1.9063129425048828,"517":-0.7530847191810608,"518":-0.9884645938873291,"519":-1.5202255249023438,"520":-1.017364740371704,"521":-1.317905068397522,"522":-1.4108593463897705,"523":1.178868293762207,"524":-1.7371982336044312,"525":1.3999583721160889,"526":-0.9177330136299133,"527":-1.2952802181243896,"528":0.21099244058132172,"529":-0.3285485506057739,"530":1.2397161722183228,"531":0.6301968693733215,"532":-1.6555837392807007,"533":0.06687884032726288,"534":-0.7341009974479675,"535":-1.5848363637924194,"536":-1.8341064453125,"537":1.8411976099014282,"538":2.9701130390167236,"539":1.0709043741226196,"540":-2.704577922821045,"541":0.08289851993322372,"542":0.019992303103208542,"543":-0.5887535810470581,"544":-1.546041488647461,"545":-0.7479614615440369,"546":0.5225375294685364,"547":2.0831170082092285,"548":-1.472098469734192,"549":1.506977915763855,"550":-2.5967860221862793,"551":-0.36300739645957947,"552":0.04503186047077179,"553":0.8579327464103699,"554":-1.245971441268921,"555":-0.0381932258605957,"556":2.1005947589874268,"557":-0.079537034034729,"558":-1.494173288345337,"559":-3.1687381267547607,"560":0.5318213701248169,"561":1.0661001205444336,"562":0.10706361383199692,"563":0.6812440156936646,"564":1.8838417530059814,"565":0.9491265416145325,"566":1.1041109561920166,"567":-0.5760701298713684,"568":0.12451930344104767,"569":-0.8826006054878235,"570":0.7686188817024231,"571":-0.6592671871185303,"572":-0.46647968888282776,"573":-0.7948546409606934,"574":0.5644187927246094,"575":-2.531752586364746,"576":-0.3992721736431122,"577":0.591914713382721,"578":0.3705218732357025,"579":0.14981475472450256,"580":-0.05144759267568588,"581":-1.3018198013305664,"582":0.21670007705688477,"583":1.396909236907959,"584":-0.5330433249473572,"585":1.8392679691314697,"586":1.093024730682373,"587":1.5922633409500122,"588":0.20363149046897888,"589":4.3228302001953125,"590":1.655348777770996,"591":0.6807991862297058,"592":0.016326772049069405,"593":0.031100615859031677,"594":1.8492064476013184,"595":0.7830992341041565,"596":-0.06637053191661835,"597":1.2933504581451416,"598":0.2892812490463257,"599":1.9480293989181519,"600":1.5255694389343262,"601":-0.9896471500396729,"602":-2.6880297660827637,"603":-0.3660856783390045,"604":1.676943302154541,"605":-0.38911959528923035,"606":-1.0133932828903198,"607":0.13540183007717133,"608":2.0412819385528564,"609":-0.6804768443107605,"610":-0.601974606513977,"611":-2.241440534591675,"612":1.6730372905731201,"613":1.357164740562439,"614":1.9412039518356323,"615":1.0201903581619263,"616":-0.18969538807868958,"617":0.9618801474571228,"618":0.7474699020385742,"619":-0.9083735346794128,"620":-0.04515737295150757,"621":0.651992678642273,"622":-0.6832461953163147,"623":-0.6995849013328552,"624":1.378476619720459,"625":-0.8544856309890747,"626":-0.17004989087581635,"627":0.04835024103522301,"628":-1.3018947839736938,"629":-1.6293550729751587,"630":-1.980904221534729,"631":0.4262695610523224,"632":-0.04314463585615158,"633":-0.6761650443077087,"634":-1.903467059135437,"635":-0.4235347509384155,"636":0.48724064230918884,"637":-1.2888330221176147,"638":-0.3307274580001831,"639":0.29911062121391296,"640":-3.57317852973938,"641":1.2016960382461548,"642":0.4801611602306366,"643":-0.34731602668762207,"644":-2.9388928413391113,"645":-3.1621854305267334,"646":-0.49791425466537476,"647":-0.7275183200836182,"648":-1.8902546167373657,"649":-0.383617103099823,"650":1.3294540643692017,"651":-1.7229130268096924,"652":0.027111239731311798,"653":0.06443274766206741,"654":-1.9996896982192993,"655":2.1730074882507324,"656":0.1693689376115799,"657":0.7134726047515869,"658":0.1617419570684433,"659":0.6709510087966919,"660":-1.055009365081787,"661":-1.2721014022827148,"662":0.5859813094139099,"663":0.10016778856515884,"664":0.19971174001693726,"665":1.8665108680725098,"666":-2.335418224334717,"667":0.6379378437995911,"668":1.1370083093643188,"669":-0.8643532991409302,"670":0.5254478454589844,"671":-0.6304865479469299,"672":-1.9321701526641846,"673":0.8269088268280029,"674":2.910733938217163,"675":0.38341960310935974,"676":-0.6807019114494324,"677":-4.234356880187988,"678":-1.0004104375839233,"679":-0.7675357460975647,"680":-1.4213327169418335,"681":-1.8343329429626465,"682":-1.0524826049804688,"683":0.33136072754859924,"684":0.7204680442810059,"685":2.2576470375061035,"686":-0.7618843913078308,"687":0.36572274565696716,"688":-0.47238463163375854,"689":0.6633225679397583,"690":-0.6359162926673889,"691":-2.1640689373016357,"692":-1.3281910419464111,"693":-0.14462001621723175,"694":1.457690954208374,"695":1.4057679176330566,"696":0.3964398503303528,"697":2.321895122528076,"698":0.8015865683555603,"699":0.2323220670223236,"700":1.5935579538345337,"701":0.315046101808548,"702":-0.4929260015487671,"703":1.3231326341629028,"704":0.8518304824829102,"705":1.6807959079742432,"706":0.6779850125312805,"707":2.548354387283325,"708":1.380614161491394,"709":1.6978580951690674,"710":-0.16333553194999695,"711":0.5243602991104126,"712":-3.2545664310455322,"713":-0.3358567953109741,"714":0.05355723947286606,"715":1.448975682258606,"716":-0.33332276344299316,"717":0.7327646017074585,"718":0.7866039872169495,"719":0.2760965824127197,"720":-1.4561079740524292,"721":1.6809169054031372,"722":0.876607358455658,"723":0.8342161178588867,"724":2.3063907623291016,"725":-0.636055052280426,"726":0.2946130037307739,"727":0.9445720314979553,"728":-1.0196819305419922,"729":-0.13900722563266754,"730":1.9221277236938477,"731":-0.7882331013679504,"732":-0.3687302768230438,"733":-1.1868339776992798,"734":-0.5654280781745911,"735":2.1888468265533447,"736":3.0602669715881348,"737":-0.41399380564689636,"738":-1.7782788276672363,"739":-1.4760764837265015,"740":1.2364261150360107,"741":0.6008371710777283,"742":2.2707250118255615,"743":0.19927474856376648,"744":-0.7901186347007751,"745":-2.5942723751068115,"746":-2.2863035202026367,"747":-1.495442271232605,"748":1.1175477504730225,"749":0.6437058448791504,"750":0.8407642841339111,"751":2.075833797454834,"752":-1.5189745426177979,"753":1.0733964443206787,"754":0.656348705291748,"755":2.5637521743774414,"756":0.40695732831954956,"757":-0.6897550225257874,"758":0.10768984258174896,"759":1.5194063186645508,"760":0.04945056885480881,"761":-1.9008594751358032,"762":1.7838184833526611,"763":-0.6927133798599243,"764":-1.434923529624939,"765":0.1837838739156723,"766":-1.4293179512023926,"767":-0.9749334454536438,"768":-2.164083242416382,"769":-0.4939125180244446,"770":-1.5939438343048096,"771":0.01120387390255928,"772":-0.5506482720375061,"773":-0.060250554233789444,"774":1.4709352254867554,"775":1.2749638557434082,"776":-0.7268731594085693,"777":-0.1654687225818634,"778":1.529926061630249,"779":1.247490406036377,"780":3.3147571086883545,"781":-0.4591003656387329,"782":-0.1644129902124405,"783":0.6921389102935791,"784":-0.3428475260734558,"785":0.7812769412994385,"786":1.8120636940002441,"787":0.9759560823440552,"788":-0.48599886894226074,"789":4.564987659454346,"790":-1.3841559886932373,"791":-0.7975293397903442,"792":2.158203125,"793":-0.4930505156517029,"794":0.4969138503074646,"795":-0.2935994267463684,"796":-1.9822611808776855,"797":2.678973913192749,"798":-2.4825706481933594,"799":-0.8070575594902039,"800":-1.5365151166915894,"801":1.5517021417617798,"802":1.989112138748169,"803":1.2999252080917358,"804":0.3776639699935913,"805":1.4155627489089966,"806":0.02467113547027111,"807":1.8826909065246582,"808":0.4550139307975769,"809":2.431121349334717,"810":0.9556856155395508,"811":0.8704710006713867,"812":-1.047376036643982,"813":0.25380435585975647,"814":-0.8559484481811523,"815":-0.05777178332209587,"816":0.6018890738487244,"817":-0.7507945895195007,"818":-1.6060951948165894,"819":-1.3852258920669556,"820":-4.749246120452881,"821":-0.08880630135536194,"822":2.6040496826171875,"823":0.3013857305049896,"824":1.9323625564575195,"825":-0.8832573890686035,"826":0.03716394677758217,"827":-1.320569396018982,"828":-1.8968234062194824,"829":1.4368947744369507,"830":-2.2645082473754883,"831":0.16515618562698364,"832":1.7298698425292969,"833":-0.7168578505516052,"834":0.24926239252090454,"835":4.016699314117432,"836":3.7843799591064453,"837":-0.15363706648349762,"838":-3.566802501678467,"839":3.5300753116607666,"840":-0.10366157442331314,"841":0.5549162030220032,"842":-2.385928153991699,"843":-0.8243247270584106,"844":1.556156873703003,"845":0.08737853169441223,"846":-0.07741475105285645,"847":0.2567846179008484,"848":3.240352153778076,"849":0.3621780574321747,"850":1.410921335220337,"851":0.75367671251297,"852":-1.1372393369674683,"853":1.7325347661972046,"854":-0.902845561504364,"855":1.2498141527175903,"856":-0.381478875875473,"857":1.194669246673584,"858":-1.0883673429489136,"859":-0.48361101746559143,"860":0.3527347147464752,"861":2.267864465713501,"862":-0.3020182251930237,"863":2.4142656326293945,"864":-5.403156757354736,"865":-1.1578189134597778,"866":0.1075260266661644,"867":3.419353485107422,"868":0.4399261474609375,"869":1.4215673208236694,"870":-2.1224539279937744,"871":-0.5287967920303345,"872":-2.383352041244507,"873":-0.5274583101272583,"874":1.5904886722564697,"875":-0.21499821543693542,"876":1.5245250463485718,"877":1.2082810401916504,"878":-3.3729653358459473,"879":1.386412501335144,"880":-0.40645623207092285,"881":4.697478771209717,"882":3.4879114627838135,"883":0.11610119044780731,"884":3.6952064037323,"885":0.28298434615135193,"886":-1.1240038871765137,"887":-1.1103276014328003,"888":-0.4252455234527588,"889":0.13285033404827118,"890":2.182515859603882,"891":1.5140477418899536,"892":-0.3721008598804474,"893":3.96040678024292,"894":0.29479777812957764,"895":0.4530259370803833,"896":-0.6427103877067566,"897":-0.22018122673034668,"898":-0.5030670166015625,"899":0.40973222255706787,"900":-2.3542544841766357,"901":-1.27040433883667,"902":0.9404462575912476,"903":0.9707942008972168,"904":-3.1892881393432617,"905":1.822199821472168,"906":-2.3779654502868652,"907":-1.9409393072128296,"908":0.7152020335197449,"909":-1.171323537826538,"910":3.1058950424194336,"911":0.8577157258987427,"912":-0.7389838695526123,"913":0.2975178062915802,"914":-2.4846487045288086,"915":-3.233736276626587,"916":2.2411482334136963,"917":3.5275979042053223,"918":2.244582414627075,"919":-0.9700013995170593,"920":1.8538475036621094,"921":-0.6948785781860352,"922":0.6101289987564087,"923":-0.23866215348243713,"924":0.6427600383758545,"925":2.1851084232330322,"926":1.0072400569915771,"927":-1.333522915840149,"928":0.6005426645278931,"929":-0.23833131790161133,"930":0.831940233707428,"931":0.2756544053554535,"932":-4.259696006774902,"933":0.8441848754882812,"934":1.7370127439498901,"935":-1.262616753578186,"936":-2.0672271251678467,"937":0.9884821176528931,"938":1.1987730264663696,"939":-3.6270456314086914,"940":4.518281936645508,"941":0.1811109036207199,"942":-6.15553092956543,"943":2.1477973461151123,"944":2.993805170059204,"945":-5.783618450164795,"946":-3.1787047386169434,"947":-1.3517402410507202,"948":-6.0658440589904785,"949":-5.961446762084961,"950":7.188716411590576,"951":0.5173088908195496,"952":-4.923415184020996,"953":-1.8870192766189575,"954":0.7291367650032043,"955":3.2004806995391846,"956":-3.053633451461792,"957":-1.9099695682525635,"958":0.8237544298171997,"959":1.3857147693634033,"960":-0.15706242620944977,"961":-0.37385910749435425,"962":-2.513899803161621,"963":4.945635795593262,"964":4.0090227127075195,"965":-2.560056447982788,"966":0.9341504573822021,"967":3.0827512741088867,"968":-2.363483190536499,"969":-4.328777313232422,"970":-0.8562197685241699,"971":1.624697208404541,"972":-3.644449472427368,"973":-0.6408645510673523,"974":-4.22880744934082,"975":-0.9957095980644226,"976":-2.6785085201263428,"977":6.436848163604736,"978":1.9414947032928467,"979":-0.8075735569000244,"980":0.37495163083076477,"981":-3.3836629390716553,"982":0.5847423672676086,"983":-0.6773657202720642,"984":0.09839273244142532,"985":0.4831938147544861,"986":-6.558614730834961,"987":1.6559845209121704,"988":-2.7354276180267334,"989":0.789489209651947,"990":-3.941009521484375,"991":3.0151658058166504,"992":-3.010312795639038,"993":-0.7276549935340881,"994":-3.6257851123809814,"995":2.825369358062744,"996":-4.786022663116455,"997":-1.8769662380218506,"998":-6.2790679931640625,"999":6.889942169189453,"1000":0.7576577663421631,"1001":-4.469621658325195,"1002":5.138692855834961,"1003":-2.1370532512664795,"1004":-0.9026198983192444,"1005":2.0017127990722656,"1006":-12.460000991821289,"1007":1.051207184791565,"1008":3.425419569015503,"1009":0.854340136051178,"1010":0.570431113243103,"1011":1.3137341737747192,"1012":-3.6934444904327393,"1013":-2.828763723373413,"1014":-2.305715560913086,"1015":1.8631744384765625,"1016":-0.4759010374546051,"1017":0.5854924917221069,"1018":-1.6135910749435425,"1019":3.2305045127868652,"1020":0.2967243194580078,"1021":1.8002395629882812,"1022":-1.0819190740585327,"1023":-2.3489317893981934,"1024":-0.27016857266426086,"1025":-0.29396629333496094,"1026":-0.8998656868934631,"1027":0.4662683606147766,"1028":0.4239487051963806,"1029":-1.1406104564666748,"1030":-2.1047885417938232,"1031":2.131106376647949,"1032":0.687524139881134,"1033":0.8149817585945129,"1034":-0.27664250135421753,"1035":-0.04964372143149376,"1036":0.7770131230354309,"1037":-1.40997314453125,"1038":-1.4966915845870972,"1039":-0.9939149022102356,"1040":-1.052438735961914,"1041":-0.044505633413791656,"1042":-0.764340877532959,"1043":3.0712482929229736,"1044":-0.4985007643699646,"1045":-1.8453060388565063,"1046":2.083458662033081,"1047":-0.9577430486679077,"1048":1.7902437448501587,"1049":0.9186742901802063,"1050":0.24636563658714294,"1051":1.2639127969741821,"1052":-1.2951265573501587,"1053":1.1136093139648438,"1054":1.9734269380569458,"1055":-0.22255179286003113,"1056":-0.8271776437759399,"1057":-1.6517934799194336,"1058":-2.8941357135772705,"1059":2.0085246562957764,"1060":1.8237051963806152,"1061":1.263253927230835,"1062":0.6909762024879456,"1063":-0.5860815644264221,"1064":2.6058907508850098,"1065":-4.510507106781006,"1066":0.28898200392723083,"1067":-1.2510192394256592,"1068":-3.390347480773926,"1069":1.6434886455535889,"1070":0.21770671010017395,"1071":-0.6748546361923218,"1072":0.5372741222381592,"1073":-0.7405116558074951,"1074":-2.268160581588745,"1075":-0.11103479564189911,"1076":-0.7744101285934448,"1077":2.0118584632873535,"1078":-0.8261874318122864,"1079":-0.9473914504051208,"1080":-0.6432970762252808,"1081":0.9361132979393005,"1082":0.4449436664581299,"1083":-1.9601472616195679,"1084":-0.09773053973913193,"1085":0.5443955659866333,"1086":1.2387555837631226,"1087":-1.8021448850631714,"1088":0.251568078994751,"1089":0.8479838371276855,"1090":2.7738640308380127,"1091":-1.128552794456482,"1092":0.6505419611930847,"1093":0.817834734916687,"1094":0.9693161249160767,"1095":0.22661752998828888,"1096":-0.8400586843490601,"1097":3.5653624534606934,"1098":0.07500340789556503,"1099":1.2944097518920898,"1100":-1.6921818256378174,"1101":0.9601914882659912,"1102":-1.0527868270874023,"1103":-1.2958120107650757,"1104":0.633486807346344,"1105":-0.486537903547287,"1106":-1.1343166828155518,"1107":-0.5681367516517639,"1108":-1.5418757200241089,"1109":-0.6093878149986267,"1110":1.1000980138778687,"1111":-0.045610181987285614,"1112":-0.7065951824188232,"1113":0.5153595805168152,"1114":-1.4289047718048096,"1115":-2.1119742393493652,"1116":-0.8668383359909058,"1117":0.6086922287940979,"1118":0.2440897524356842,"1119":1.8700265884399414,"1120":-1.4027998447418213,"1121":1.8262052536010742,"1122":-1.6851415634155273,"1123":2.3009209632873535,"1124":-0.46509066224098206,"1125":1.330411672592163,"1126":-0.7107272148132324,"1127":0.11910158395767212,"1128":-1.0218303203582764,"1129":-0.9489722847938538,"1130":-1.259653091430664,"1131":-1.9212349653244019,"1132":-2.7102456092834473,"1133":2.6209561824798584,"1134":-1.0297200679779053,"1135":-0.17179793119430542,"1136":1.6320834159851074,"1137":0.4411964416503906,"1138":-0.02575364150106907,"1139":-0.012778112664818764,"1140":1.4202603101730347,"1141":0.11981003731489182,"1142":2.6751348972320557,"1143":-0.5714810490608215,"1144":-0.74486243724823,"1145":-0.4976903200149536,"1146":-0.8688851594924927,"1147":-0.5796471238136292,"1148":-0.9133321046829224,"1149":0.089474618434906,"1150":-0.17652155458927155,"1151":0.14342282712459564,"1152":0.1174008697271347,"1153":1.4800143241882324,"1154":0.503203272819519,"1155":0.653883695602417,"1156":0.4462795853614807,"1157":-2.1883974075317383,"1158":-0.9801915287971497,"1159":-0.773181140422821,"1160":0.8601638674736023,"1161":-1.0005637407302856,"1162":0.5909165740013123,"1163":2.310499429702759,"1164":-0.012367602437734604,"1165":-1.2660552263259888,"1166":-1.9930719137191772,"1167":-1.9003187417984009,"1168":1.2160876989364624,"1169":0.729464590549469,"1170":0.4383041262626648,"1171":2.346649169921875,"1172":0.016322538256645203,"1173":-0.8975402116775513,"1174":-2.3134751319885254,"1175":-1.5987058877944946,"1176":0.8520938158035278,"1177":-0.4466812014579773,"1178":0.6643522381782532,"1179":1.0293502807617188,"1180":-0.7011995911598206,"1181":-0.8142907619476318,"1182":-0.5184022784233093,"1183":-1.218662142753601,"1184":-1.5109307765960693,"1185":-0.8024890422821045,"1186":-1.2304354906082153,"1187":0.5410715341567993,"1188":-1.6156730651855469,"1189":0.5863770246505737,"1190":-1.2437567710876465,"1191":0.6869426965713501,"1192":-2.3909919261932373,"1193":1.6725822687149048,"1194":1.7712475061416626,"1195":1.2163838148117065,"1196":-0.9882551431655884,"1197":1.8282556533813477,"1198":4.753383636474609,"1199":3.7164905071258545,"1200":7.156782627105713,"1201":-1.2747915983200073,"1202":0.8376405835151672,"1203":-0.9848619699478149,"1204":-2.547003984451294,"1205":-0.9246622920036316,"1206":1.6662808656692505,"1207":-2.434054374694824,"1208":-3.598353147506714,"1209":-0.9376546144485474,"1210":-3.957300901412964,"1211":-6.47389554977417,"1212":-6.741701126098633,"1213":-5.226750373840332,"1214":-1.732060194015503,"1215":-0.48923259973526,"1216":0.5433071255683899,"1217":-4.366079807281494,"1218":-2.636693239212036,"1219":0.4508230686187744,"1220":0.6608811020851135,"1221":6.768248081207275,"1222":6.925714015960693,"1223":0.050274137407541275,"1224":6.65639066696167,"1225":-0.5679629445075989,"1226":1.9266701936721802,"1227":1.1861258745193481,"1228":-2.6857542991638184,"1229":-5.189382553100586,"1230":-0.8981926441192627,"1231":0.7918643355369568,"1232":-0.7156593203544617,"1233":-2.673506498336792,"1234":-4.8726806640625,"1235":2.9788894653320312,"1236":6.731898784637451,"1237":-2.7076644897460938,"1238":6.529107570648193,"1239":-5.085272312164307,"1240":3.025493860244751,"1241":-1.424885630607605,"1242":0.2010987550020218,"1243":-0.3513678312301636,"1244":-0.9782020449638367,"1245":-0.22293950617313385,"1246":1.4168307781219482,"1247":-6.47434663772583,"1248":-1.1026679277420044,"1249":5.376418113708496,"1250":1.369256615638733,"1251":-2.582669496536255,"1252":-2.2566118240356445,"1253":-1.0550122261047363,"1254":-2.090493679046631,"1255":3.179649591445923,"1256":-0.09826608002185822,"1257":-0.9170676469802856,"1258":1.8380115032196045,"1259":2.143278121948242,"1260":0.2570653557777405,"1261":0.26960310339927673,"1262":0.8279187083244324,"1263":-1.5424319505691528,"1264":-2.691112518310547,"1265":-0.9169477224349976,"1266":-0.2056557834148407,"1267":0.14868222177028656,"1268":0.7208699584007263,"1269":-1.5644216537475586,"1270":-2.3742785453796387,"1271":1.674973726272583,"1272":-0.5323479175567627,"1273":0.9359159469604492,"1274":0.00539493840187788,"1275":-1.3064231872558594,"1276":1.1129002571105957,"1277":4.190688610076904,"1278":-2.237349033355713,"1279":-1.1597076654434204,"1280":3.3891429901123047,"1281":-0.7386271953582764,"1282":-3.7781739234924316,"1283":-2.1796188354492188,"1284":-0.08422189205884933,"1285":2.8639917373657227,"1286":-0.8554463386535645,"1287":-1.108190655708313,"1288":-0.8660849928855896,"1289":0.00048100133426487446,"1290":-2.57012939453125,"1291":0.19745151698589325,"1292":-1.305393934249878,"1293":-1.585788369178772,"1294":1.4677515029907227,"1295":3.3645880222320557,"1296":0.4845118224620819,"1297":-0.4285804033279419,"1298":1.6177492141723633,"1299":-1.0803295373916626,"1300":-0.24263522028923035,"1301":-2.2059638500213623,"1302":0.1117018610239029,"1303":2.2203550338745117,"1304":0.456820547580719,"1305":-0.17046654224395752,"1306":-0.5105760097503662,"1307":-1.3774693012237549,"1308":-2.7372021675109863,"1309":1.2408897876739502,"1310":-2.9693973064422607,"1311":-1.4552943706512451,"1312":-0.03759908676147461,"1313":-1.7516722679138184,"1314":-1.4846819639205933,"1315":2.1687493324279785,"1316":0.4671727120876312,"1317":-1.6523281335830688,"1318":1.3460241556167603,"1319":-0.4236702024936676,"1320":-0.3869777321815491,"1321":0.46309396624565125,"1322":1.193304181098938,"1323":1.575941562652588,"1324":1.2024909257888794,"1325":-0.5993053913116455,"1326":0.7266973257064819,"1327":0.6513707637786865,"1328":-4.679281711578369,"1329":-1.3627640008926392,"1330":2.55979061126709,"1331":0.9905926585197449,"1332":-3.3912975788116455,"1333":-1.4589952230453491,"1334":1.076720118522644,"1335":0.7654357552528381,"1336":1.6395034790039062,"1337":0.22322684526443481,"1338":0.6184146404266357,"1339":-1.1002777814865112,"1340":0.5747587084770203,"1341":-1.7509890794754028,"1342":-0.44477370381355286,"1343":1.8255555629730225,"1344":-2.088247060775757,"1345":-1.207543134689331,"1346":-4.612699508666992,"1347":0.1415812224149704,"1348":1.1873780488967896,"1349":-1.7577378749847412,"1350":-0.8822351098060608,"1351":-0.7634875774383545,"1352":3.542990207672119,"1353":-2.67734694480896,"1354":2.394425630569458,"1355":-2.0973713397979736,"1356":-2.832054853439331,"1357":0.5992253422737122,"1358":2.0099165439605713,"1359":0.2573642432689667,"1360":0.5181854963302612,"1361":0.5022389888763428,"1362":0.12237408012151718,"1363":-2.376491069793701,"1364":-0.20006519556045532,"1365":0.16639214754104614,"1366":2.467259168624878,"1367":1.9757047891616821,"1368":1.2974953651428223,"1369":-0.03665534406900406,"1370":0.22962704300880432,"1371":-1.1766937971115112,"1372":0.9222701191902161,"1373":-1.3808077573776245,"1374":-0.02322736755013466,"1375":-1.313357949256897,"1376":0.5309835076332092,"1377":-3.0362720489501953,"1378":0.30981361865997314,"1379":2.51104736328125,"1380":-2.5154836177825928,"1381":1.986674189567566,"1382":0.665742039680481,"1383":-0.2690281867980957,"1384":2.4677090644836426,"1385":1.1269420385360718,"1386":-2.8844428062438965,"1387":-4.092409610748291,"1388":3.4095005989074707,"1389":1.7153033018112183,"1390":-1.4412353038787842,"1391":3.327258586883545,"1392":3.3742735385894775,"1393":-0.21646729111671448,"1394":2.9295971393585205,"1395":-1.359780192375183,"1396":0.3895305097103119,"1397":-1.1673741340637207,"1398":0.6502013206481934,"1399":3.0115389823913574,"1400":2.1941444873809814,"1401":-0.09230047464370728,"1402":0.7246245741844177,"1403":-1.1812506914138794,"1404":-3.314206838607788,"1405":0.33384057879447937,"1406":-0.6592567563056946,"1407":-1.885284185409546,"1408":-3.4762871265411377,"1409":-2.8187782764434814,"1410":-4.0153045654296875,"1411":-0.7448633909225464,"1412":1.6673539876937866,"1413":-3.924596071243286,"1414":1.144986867904663,"1415":2.0679495334625244,"1416":-2.749877452850342,"1417":-2.926079034805298,"1418":-2.38460636138916,"1419":-4.403696537017822,"1420":-1.591479778289795,"1421":0.33246877789497375,"1422":-2.167538642883301,"1423":-0.2889825105667114,"1424":-0.38978973031044006,"1425":-0.9054229855537415,"1426":-1.0831217765808105,"1427":-4.068002700805664,"1428":2.812152147293091,"1429":-1.4545323848724365,"1430":2.286801815032959,"1431":-1.5462735891342163,"1432":0.11623889952898026,"1433":-1.3496558666229248,"1434":1.080461025238037,"1435":-0.5399091243743896,"1436":0.7778189778327942,"1437":-4.298830509185791,"1438":-2.8758738040924072,"1439":-3.5281379222869873,"1440":-5.23069429397583,"1441":1.5157349109649658,"1442":-0.35731449723243713,"1443":0.7419417500495911,"1444":0.4214954674243927,"1445":3.440795421600342,"1446":1.7957313060760498,"1447":-2.4536333084106445,"1448":3.512200117111206,"1449":7.4623026847839355,"1450":10.562918663024902,"1451":9.730772972106934,"1452":10.260741233825684,"1453":-4.985189914703369,"1454":-13.937950134277344,"1455":-16.01597023010254,"1456":5.554407596588135,"1457":-0.7720649242401123,"1458":-5.409262657165527,"1459":-11.61312484741211,"1460":0.41741785407066345,"1461":1.8009001016616821,"1462":13.440625190734863,"1463":-13.004037857055664,"1464":-17.67178726196289,"1465":1.8933206796646118,"1466":1.6958895921707153,"1467":-18.49444007873535,"1468":12.236899375915527,"1469":7.463690757751465,"1470":-20.192707061767578,"1471":-14.087386131286621,"1472":-2.7124199867248535,"1473":16.75377082824707,"1474":5.428313732147217,"1475":4.749753952026367,"1476":-0.36186718940734863,"1477":0.3703540861606598,"1478":7.7870330810546875,"1479":-4.155479431152344,"1480":-5.317567825317383,"1481":-15.478364944458008,"1482":-4.909829139709473,"1483":-5.328744888305664,"1484":11.163684844970703,"1485":-12.349722862243652,"1486":-12.495946884155273,"1487":18.775348663330078,"1488":7.48622989654541,"1489":1.9143518209457397,"1490":7.253035068511963,"1491":0.12350980937480927,"1492":18.407886505126953,"1493":-2.7629401683807373,"1494":-5.117236137390137,"1495":17.08218765258789,"1496":-1.1069591045379639,"1497":-3.387338161468506,"1498":15.051095962524414,"1499":-13.104598999023438,"1500":16.71753692626953,"1501":7.7992143630981445,"1502":14.672219276428223,"1503":-2.029829978942871,"1504":10.038361549377441,"1505":4.317969799041748,"1506":-15.556815147399902,"1507":14.376346588134766,"1508":7.958706378936768,"1509":-9.597969055175781,"1510":10.515251159667969,"1511":-6.118109226226807,"1512":-10.130254745483398,"1513":-7.133671760559082,"1514":2.798985719680786,"1515":8.173602104187012,"1516":7.4699177742004395,"1517":-0.2451656311750412,"1518":-0.8261228799819946,"1519":9.933928489685059,"1520":0.4146214723587036,"1521":-3.657691717147827,"1522":9.230432510375977,"1523":-4.855845928192139,"1524":-6.108675003051758,"1525":-7.348139762878418,"1526":-1.3647215366363525,"1527":4.62912130355835,"1528":3.163809061050415,"1529":0.8685175776481628,"1530":7.234054088592529,"1531":-6.3044304847717285,"1532":4.010571002960205,"1533":3.4634835720062256,"1534":8.652822494506836,"1535":-8.169281005859375,"1536":3.473480224609375,"1537":1.0339021682739258,"1538":-4.389401435852051,"1539":9.750570297241211,"1540":1.7686517238616943,"1541":11.51911449432373,"1542":12.528244972229004,"1543":21.404705047607422,"1544":4.920827865600586,"1545":0.13920088112354279,"1546":-2.5757625102996826,"1547":-10.459372520446777,"1548":0.6867398023605347,"1549":13.150212287902832,"1550":2.0163471698760986,"1551":9.487190246582031,"1552":-11.256307601928711,"1553":2.9176318645477295,"1554":8.261170387268066,"1555":-0.3395191431045532,"1556":0.16398826241493225,"1557":8.571416854858398,"1558":-1.1960601806640625,"1559":5.43864631652832,"1560":9.406461715698242,"1561":7.605245590209961,"1562":4.776155948638916,"1563":-4.736481189727783,"1564":-0.6349098086357117,"1565":-7.226200103759766,"1566":-0.642814040184021,"1567":10.263444900512695,"1568":-0.2169734686613083,"1569":15.184529304504395,"1570":6.150144577026367,"1571":-7.12297248840332,"1572":10.612601280212402,"1573":-7.3477277755737305,"1574":1.6923469305038452,"1575":-1.800647497177124,"1576":-1.2404712438583374,"1577":1.0958856344223022,"1578":4.488830089569092,"1579":3.4135208129882812,"1580":-3.0305707454681396,"1581":-1.1045175790786743,"1582":2.391979932785034,"1583":-0.24133551120758057,"1584":-0.11315736174583435,"1585":5.352264404296875,"1586":-0.7686054706573486,"1587":2.6809451580047607,"1588":-1.1603413820266724,"1589":4.993492126464844,"1590":3.0935745239257812,"1591":2.872039556503296,"1592":0.720687210559845,"1593":2.697413682937622,"1594":0.49789172410964966,"1595":2.4288127422332764,"1596":-1.384657859802246,"1597":1.464096188545227,"1598":-1.2093867063522339,"1599":1.1382871866226196,"1600":-0.382126122713089,"1601":0.4141291677951813,"1602":-4.934785842895508,"1603":-0.9405679702758789,"1604":1.565039873123169,"1605":0.8216660618782043,"1606":3.453085422515869,"1607":1.059065580368042,"1608":-1.0983432531356812,"1609":-2.4120943546295166,"1610":-2.9051012992858887,"1611":1.8794331550598145,"1612":4.072221755981445,"1613":0.5498923063278198,"1614":1.4672945737838745,"1615":-4.279826641082764,"1616":1.2230020761489868,"1617":5.350136756896973,"1618":-1.325965166091919,"1619":-1.8001245260238647,"1620":-0.09650126844644547,"1621":2.3665666580200195,"1622":3.913989305496216,"1623":1.3568367958068848,"1624":1.1391422748565674,"1625":5.477257251739502,"1626":-1.0776877403259277,"1627":-2.9449448585510254,"1628":-3.6829566955566406,"1629":2.235135555267334,"1630":-0.1379503756761551,"1631":2.910334348678589,"1632":1.219509243965149,"1633":1.3100224733352661,"1634":0.9421402215957642,"1635":3.9603443145751953,"1636":1.6528394222259521,"1637":2.1034088134765625,"1638":-1.071302890777588,"1639":-2.469899892807007,"1640":1.5520014762878418,"1641":2.7488479614257812,"1642":-0.06128088757395744,"1643":0.15440796315670013,"1644":0.3025267422199249,"1645":0.8258020281791687,"1646":0.2569315433502197,"1647":1.7889528274536133,"1648":0.7310182452201843,"1649":1.3861901760101318,"1650":-1.688132882118225,"1651":0.46823975443840027,"1652":-0.9704318046569824,"1653":-0.346314400434494,"1654":-0.8919363021850586,"1655":-1.7175542116165161,"1656":-1.0180691480636597,"1657":1.7355252504348755,"1658":-1.5372194051742554,"1659":0.1973658949136734,"1660":0.4935731291770935,"1661":-1.0122547149658203,"1662":-1.6610580682754517,"1663":0.6609647274017334,"1664":0.07395334541797638,"1665":-0.293193519115448,"1666":0.9877398610115051,"1667":1.6390786170959473,"1668":1.4432543516159058,"1669":1.7009899616241455,"1670":-1.48530113697052,"1671":-0.6881313323974609,"1672":-3.833165407180786,"1673":-2.3180947303771973,"1674":0.9720908403396606,"1675":-1.7937439680099487,"1676":1.5925893783569336,"1677":3.4948537349700928,"1678":-1.825783133506775,"1679":0.4766484498977661,"1680":0.6577767729759216,"1681":0.6156038641929626,"1682":2.291600227355957,"1683":-3.2544355392456055,"1684":-2.098285675048828,"1685":-1.750827670097351,"1686":2.6873395442962646,"1687":0.1590549498796463,"1688":1.4064359664916992,"1689":-2.2802345752716064,"1690":0.23207448422908783,"1691":-2.364910364151001,"1692":0.273221880197525,"1693":0.5361756086349487,"1694":2.3660240173339844,"1695":1.1197869777679443,"1696":1.0108877420425415,"1697":-0.2502514719963074,"1698":1.8581784963607788,"1699":-2.7491469383239746,"1700":1.5894372463226318,"1701":2.3170905113220215,"1702":-2.8628647327423096,"1703":2.1197452545166016,"1704":2.65108060836792,"1705":0.5873662829399109,"1706":3.1432852745056152,"1707":-0.8009856343269348,"1708":0.6819357872009277,"1709":1.5455327033996582,"1710":0.8442265391349792,"1711":1.4286962747573853,"1712":1.1047884225845337,"1713":-0.09688058495521545,"1714":0.10615268349647522,"1715":1.8969272375106812,"1716":-0.1874190866947174,"1717":1.55226731300354,"1718":0.19564193487167358,"1719":-0.3783194422721863,"1720":-2.4150400161743164,"1721":0.49015629291534424,"1722":-0.03791377320885658,"1723":0.27724382281303406,"1724":-0.31098073720932007,"1725":0.519638180732727,"1726":-1.3635244369506836,"1727":0.8349319696426392,"1728":-1.7573845386505127,"1729":-0.6883956789970398,"1730":0.6610957980155945,"1731":0.8377857804298401,"1732":2.495313882827759,"1733":-1.3745558261871338,"1734":-0.7244467735290527,"1735":-2.8012890815734863,"1736":-1.2715251445770264,"1737":2.9245874881744385,"1738":-1.6956055164337158,"1739":-1.2995893955230713,"1740":2.6435396671295166,"1741":2.052579879760742,"1742":1.2732625007629395,"1743":-0.6350741386413574,"1744":1.378330111503601,"1745":2.8487889766693115,"1746":-3.3355553150177,"1747":1.107645869255066,"1748":1.3739856481552124,"1749":1.330583930015564,"1750":2.1505608558654785,"1751":0.07450678199529648,"1752":1.8758351802825928,"1753":0.02771177515387535,"1754":1.2862623929977417,"1755":-2.0823049545288086,"1756":0.8620265126228333,"1757":-0.17732712626457214,"1758":-0.26003190875053406,"1759":-1.6455142498016357,"1760":1.7172842025756836,"1761":2.0331220626831055,"1762":0.09531287103891373,"1763":0.4306154251098633,"1764":-0.2681317925453186,"1765":0.16351372003555298,"1766":-3.7874491214752197,"1767":-6.20970344543457,"1768":1.5692003965377808,"1769":2.9450066089630127,"1770":2.3815784454345703,"1771":-2.4325222969055176,"1772":-2.7798585891723633,"1773":2.8087263107299805,"1774":-0.44091010093688965,"1775":-2.3795690536499023,"1776":-1.2901548147201538,"1777":-0.3974688947200775,"1778":-0.2918890118598938,"1779":0.6857792139053345,"1780":-0.3229011595249176,"1781":-1.8196696043014526,"1782":-0.8761526346206665,"1783":4.037870407104492,"1784":0.3780279755592346,"1785":-0.31896522641181946,"1786":-0.07285647839307785,"1787":0.8070465922355652,"1788":0.8491293787956238,"1789":-0.13411347568035126,"1790":1.5064905881881714,"1791":1.464956283569336,"1792":-7.70953369140625,"1793":-1.1120091676712036,"1794":-1.6647834777832031,"1795":-0.4336094260215759,"1796":3.4408905506134033,"1797":2.833195209503174,"1798":-2.2915472984313965,"1799":-0.4197252690792084,"1800":-3.7442314624786377,"1801":1.750503420829773,"1802":-0.6625266671180725,"1803":3.2092838287353516,"1804":-1.180740475654602,"1805":1.2284789085388184,"1806":1.350258708000183,"1807":0.027739135548472404,"1808":-2.7452447414398193,"1809":1.434319257736206,"1810":0.9123620390892029,"1811":-0.3299659490585327,"1812":0.3312806189060211,"1813":0.5798105597496033,"1814":-0.4493634104728699,"1815":1.0753023624420166,"1816":1.7268636226654053,"1817":-0.10387760400772095,"1818":4.151928424835205,"1819":-3.1710236072540283,"1820":-2.68157696723938,"1821":1.7662948369979858,"1822":2.099132537841797,"1823":0.6831064820289612,"1824":1.0801390409469604,"1825":-4.050569534301758,"1826":-2.5596063137054443,"1827":1.3107609748840332,"1828":-1.1583960056304932,"1829":-2.514578104019165,"1830":-1.9761395454406738,"1831":2.464369535446167,"1832":1.2203481197357178,"1833":-0.5195602774620056,"1834":-1.116152048110962,"1835":-0.8725152611732483,"1836":0.1809297800064087,"1837":0.6177154779434204,"1838":-2.84973406791687,"1839":2.41597843170166,"1840":0.1421123743057251,"1841":-0.7097406387329102,"1842":1.1223632097244263,"1843":0.9856869578361511,"1844":0.44361573457717896,"1845":-1.4016700983047485,"1846":-1.260850191116333,"1847":0.015028294175863266,"1848":-1.4065018892288208,"1849":-2.5672154426574707,"1850":1.0887136459350586,"1851":0.36508020758628845,"1852":-1.5588265657424927,"1853":-3.8128204345703125,"1854":2.2494606971740723,"1855":-4.583012580871582,"1856":1.7355058193206787,"1857":0.5633082389831543,"1858":1.5266122817993164,"1859":3.1382744312286377,"1860":0.15144149959087372,"1861":0.006100851576775312,"1862":0.8384918570518494,"1863":1.714705467224121,"1864":-1.6836206912994385,"1865":0.19764849543571472,"1866":2.3625073432922363,"1867":-2.1802875995635986,"1868":0.8721752166748047,"1869":0.3207641541957855,"1870":1.3844752311706543,"1871":-0.47961556911468506,"1872":-0.01248190738260746,"1873":0.3653656244277954,"1874":-0.8138488531112671,"1875":-1.2867753505706787,"1876":3.759969711303711,"1877":-1.0414278507232666,"1878":1.5637612342834473,"1879":-2.9699525833129883,"1880":-0.8439356684684753,"1881":2.9269039630889893,"1882":-0.03287443146109581,"1883":-0.4652710556983948,"1884":1.4779484272003174,"1885":1.162750482559204,"1886":-0.3658080995082855,"1887":7.016712188720703,"1888":-1.1006650924682617,"1889":-2.236523151397705,"1890":-2.696110725402832,"1891":0.5394935607910156,"1892":-0.09147963672876358,"1893":1.611372709274292,"1894":-0.383958101272583,"1895":-1.058618426322937,"1896":-0.4233654737472534,"1897":0.7142758965492249,"1898":0.4557414650917053,"1899":-1.5608495473861694,"1900":1.1274582147598267,"1901":-1.471573829650879,"1902":0.2910694479942322,"1903":-2.8432087898254395,"1904":-1.1961194276809692,"1905":-0.11777188628911972,"1906":-0.5896981358528137,"1907":-0.42857128381729126,"1908":0.7666040658950806,"1909":-0.9221041798591614,"1910":-0.43404725193977356,"1911":0.2915191352367401,"1912":2.361841917037964,"1913":-0.1660531759262085,"1914":0.5108720064163208,"1915":1.2879236936569214,"1916":-0.7814872860908508,"1917":-0.22935345768928528,"1918":1.464845061302185,"1919":2.8998591899871826,"1920":1.3960174322128296,"1921":3.264005184173584,"1922":-1.498327374458313,"1923":-1.1999988555908203,"1924":-1.2931463718414307,"1925":-2.466606616973877,"1926":0.6123400330543518,"1927":2.354701280593872,"1928":0.962929368019104,"1929":-0.06911970674991608,"1930":-1.8998862504959106,"1931":0.2771628499031067,"1932":1.0386708974838257,"1933":-0.2846457064151764,"1934":-0.6427150964736938,"1935":0.7014006972312927,"1936":-0.24849793314933777,"1937":2.21958327293396,"1938":1.2752424478530884,"1939":-0.2025924026966095,"1940":0.852310061454773,"1941":-1.1875768899917603,"1942":-2.145164728164673,"1943":-0.47563084959983826,"1944":-1.2635563611984253,"1945":0.9888630509376526,"1946":0.4207168519496918,"1947":4.846376895904541,"1948":1.1105402708053589,"1949":-0.7204573750495911,"1950":4.259357929229736,"1951":-1.1093767881393433,"1952":-0.4229070544242859,"1953":1.66546630859375,"1954":-0.21941344439983368,"1955":-4.152110576629639,"1956":-1.3563486337661743,"1957":-4.9300971031188965,"1958":-0.222019225358963,"1959":1.9437456130981445,"1960":-4.517001152038574,"1961":-2.8846652507781982,"1962":0.03802397847175598,"1963":-8.200597763061523,"1964":-0.9229558706283569,"1965":-2.502014398574829,"1966":-2.0382251739501953,"1967":-8.68343448638916,"1968":-3.8102104663848877,"1969":-3.211704730987549,"1970":-0.8918843269348145,"1971":-1.8089483976364136,"1972":1.6275520324707031,"1973":-2.827192544937134,"1974":-3.603513240814209,"1975":-4.27700662612915,"1976":3.9147770404815674,"1977":-1.1095823049545288,"1978":-0.7331374287605286,"1979":2.7941627502441406,"1980":3.343648910522461,"1981":-3.9906179904937744,"1982":-1.2259889841079712,"1983":-6.724204063415527,"1984":-2.3365719318389893,"1985":2.337700605392456,"1986":3.97231388092041,"1987":-1.6819335222244263,"1988":6.620753288269043,"1989":-3.162236213684082,"1990":-1.736860752105713,"1991":1.3571183681488037,"1992":-3.4682703018188477,"1993":3.2937521934509277,"1994":-2.2382876873016357,"1995":-4.5934343338012695,"1996":-2.6140520572662354,"1997":0.02985939010977745,"1998":0.6954517960548401,"1999":-2.5007596015930176,"2000":-6.909130096435547,"2001":-5.962558269500732,"2002":2.6310033798217773,"2003":-2.4015450477600098,"2004":4.7180070877075195,"2005":0.11811061203479767,"2006":5.677319049835205,"2007":4.6835761070251465,"2008":-1.5674092769622803,"2009":-1.7788342237472534,"2010":-0.3448641300201416,"2011":-1.4783992767333984,"2012":3.38242244720459,"2013":-0.8602327108383179,"2014":-3.5600650310516357,"2015":-4.008174419403076,"2016":-2.3461413383483887,"2017":-1.0695281028747559,"2018":0.5487611293792725,"2019":-1.3738881349563599,"2020":-1.6933847665786743,"2021":3.709726572036743,"2022":3.8388473987579346,"2023":-1.2720333337783813,"2024":-0.7590975761413574,"2025":1.7977936267852783,"2026":-0.3251555860042572,"2027":-3.8361001014709473,"2028":-0.8835762739181519,"2029":-2.8504436016082764,"2030":-0.7653388977050781,"2031":-0.07280752062797546,"2032":1.701156735420227,"2033":0.24179990589618683,"2034":-0.5721234679222107,"2035":1.2187367677688599,"2036":4.348165988922119,"2037":0.9610082507133484,"2038":-1.01292884349823,"2039":-0.8499040007591248,"2040":-3.552698850631714,"2041":-2.5433132648468018,"2042":0.4948219358921051,"2043":1.4106230735778809,"2044":-5.049985408782959,"2045":-1.3204917907714844,"2046":0.6187340617179871,"2047":-1.4629501104354858,"2048":2.4577033519744873,"2049":-0.33410903811454773,"2050":1.1237821578979492,"2051":-0.303808331489563,"2052":0.983004629611969,"2053":3.704542636871338,"2054":-3.5747132301330566,"2055":0.019343199208378792,"2056":-2.0517866611480713,"2057":-0.27372878789901733,"2058":2.298898220062256,"2059":-2.5393059253692627,"2060":-0.5112656950950623,"2061":0.1556505560874939,"2062":-1.079835057258606,"2063":-3.3388547897338867,"2064":-2.638575792312622,"2065":-1.3831669092178345,"2066":0.6569879055023193,"2067":-0.08534456044435501,"2068":-1.8804117441177368,"2069":-0.651565432548523,"2070":6.024604320526123,"2071":-3.5559749603271484,"2072":-4.9155402183532715,"2073":4.111701011657715,"2074":-1.277980923652649,"2075":3.0660390853881836,"2076":5.285006523132324,"2077":-5.854546546936035,"2078":-3.0292515754699707,"2079":-0.39064210653305054,"2080":-6.35943603515625,"2081":4.696323394775391,"2082":5.782280445098877,"2083":-2.2376832962036133,"2084":-4.7520036697387695,"2085":-0.6066359281539917,"2086":-0.3160877227783203,"2087":5.650026798248291,"2088":-4.987461090087891,"2089":-1.745888590812683,"2090":-1.1584794521331787,"2091":-0.04707825556397438,"2092":-4.243138790130615,"2093":4.793080806732178,"2094":-4.319631576538086,"2095":1.2817118167877197,"2096":6.014305591583252,"2097":0.04586493596434593,"2098":5.673478603363037,"2099":-1.1114109754562378,"2100":0.27864545583724976,"2101":-3.600148916244507,"2102":-2.6986844539642334,"2103":-0.6300468444824219,"2104":-2.3121941089630127,"2105":0.5425298810005188,"2106":-1.866680383682251,"2107":2.323392152786255,"2108":5.0649566650390625,"2109":-1.7440553903579712,"2110":-8.501535415649414,"2111":-9.010552406311035,"2112":-3.551893711090088,"2113":0.890603244304657,"2114":3.0544850826263428,"2115":-3.0294113159179688,"2116":-6.334024906158447,"2117":0.4301178753376007,"2118":3.5097479820251465,"2119":-1.4530459642410278,"2120":-3.4461565017700195,"2121":1.0011197328567505,"2122":-0.12237562239170074,"2123":2.253540277481079,"2124":1.9712826013565063,"2125":4.044022083282471,"2126":8.175176620483398,"2127":-1.2799533605575562,"2128":-9.094959259033203,"2129":-2.148219108581543,"2130":-3.8886876106262207,"2131":-1.0799953937530518,"2132":-0.9182628393173218,"2133":-11.491512298583984,"2134":1.16957688331604,"2135":4.032297134399414,"2136":-7.700564861297607,"2137":-5.074440002441406,"2138":7.075240135192871,"2139":-0.8800306916236877,"2140":8.799753189086914,"2141":2.40504789352417,"2142":0.37931182980537415,"2143":2.6301345825195312,"2144":-2.6003148555755615,"2145":1.970646858215332,"2146":2.389556884765625,"2147":-1.282822847366333,"2148":-2.458064556121826,"2149":0.6361299157142639,"2150":-0.8442428112030029,"2151":1.5937472581863403,"2152":-0.1896224170923233,"2153":0.3890382945537567,"2154":2.4998397827148438,"2155":1.7534420490264893,"2156":-0.026468640193343163,"2157":-0.1979730874300003,"2158":0.6721934080123901,"2159":2.038754940032959,"2160":-2.655503273010254,"2161":-1.0100845098495483,"2162":1.7592419385910034,"2163":-3.36073637008667,"2164":-1.9383033514022827,"2165":-0.5651763677597046,"2166":0.26747533679008484,"2167":-0.4871806800365448,"2168":-3.9002368450164795,"2169":1.0441099405288696,"2170":0.07983226329088211,"2171":0.7896297574043274,"2172":-0.08939199894666672,"2173":1.2526766061782837,"2174":-0.11578160524368286,"2175":0.7353916168212891,"2176":-1.9097265005111694,"2177":0.07424616068601608,"2178":0.37260380387306213,"2179":1.0292037725448608,"2180":4.3593339920043945,"2181":2.442969560623169,"2182":-2.002789258956909,"2183":0.5684030055999756,"2184":1.007951021194458,"2185":3.628901481628418,"2186":-0.187388613820076,"2187":1.7889106273651123,"2188":2.9700911045074463,"2189":0.3814852237701416,"2190":-1.2938508987426758,"2191":3.0224759578704834,"2192":-2.250706911087036,"2193":1.4398607015609741,"2194":0.49590960144996643,"2195":0.20295600593090057,"2196":0.3039815127849579,"2197":1.0160682201385498,"2198":0.6332188844680786,"2199":-1.894968867301941,"2200":4.491053104400635,"2201":0.857568621635437,"2202":-1.5120034217834473,"2203":2.8218908309936523,"2204":-0.9099095463752747,"2205":3.9690585136413574,"2206":5.0206074714660645,"2207":-4.286813735961914,"2208":-5.980438232421875,"2209":-1.4974197149276733,"2210":-3.1801223754882812,"2211":-2.4674794673919678,"2212":0.05690911412239075,"2213":-1.0005933046340942,"2214":4.933160305023193,"2215":-2.0117571353912354,"2216":2.4161369800567627,"2217":-1.888847827911377,"2218":-1.6144659519195557,"2219":-2.3602283000946045,"2220":-3.7872190475463867,"2221":-3.499828815460205,"2222":-0.7708583474159241,"2223":-1.8991074562072754,"2224":-0.316066712141037,"2225":-6.318535804748535,"2226":-1.8337904214859009,"2227":-4.220035076141357,"2228":4.8758087158203125,"2229":3.9602296352386475,"2230":1.1134569644927979,"2231":-2.2703022956848145,"2232":0.4195290207862854,"2233":-1.7665817737579346,"2234":-3.33642315864563,"2235":-1.0276753902435303,"2236":-1.4049911499023438,"2237":3.492854356765747,"2238":3.561504364013672,"2239":-2.1041064262390137,"2240":3.1449899673461914,"2241":0.4452858865261078,"2242":-3.204246997833252,"2243":1.9269969463348389,"2244":-1.0180894136428833,"2245":1.9758707284927368,"2246":1.5377283096313477,"2247":-2.6416914463043213,"2248":0.831673800945282,"2249":-2.6434648036956787,"2250":4.607570171356201,"2251":-3.856887102127075,"2252":-0.08012232929468155,"2253":-6.0963850021362305,"2254":3.8372342586517334,"2255":-2.9593355655670166,"2256":5.398807048797607,"2257":3.228628158569336,"2258":4.829157829284668,"2259":6.125830173492432,"2260":-5.214064598083496,"2261":1.6675056219100952,"2262":-3.243501901626587,"2263":-0.5418441891670227,"2264":-1.4658763408660889,"2265":-2.1916344165802,"2266":0.1844177395105362,"2267":-3.1945505142211914,"2268":-6.5966925621032715,"2269":-12.22369384765625,"2270":-4.210780143737793,"2271":1.5730239152908325,"2272":7.964070796966553,"2273":0.6356877088546753,"2274":3.1994144916534424,"2275":-8.337200164794922,"2276":0.6679342985153198,"2277":1.9497472047805786,"2278":8.6749849319458,"2279":-13.239463806152344,"2280":-0.017972145229578018,"2281":-4.669900894165039,"2282":3.4678001403808594,"2283":7.202821731567383,"2284":-4.879148960113525,"2285":1.171629548072815,"2286":11.126880645751953,"2287":4.6454243659973145,"2288":-13.647993087768555,"2289":5.873632431030273,"2290":7.159348964691162,"2291":-1.8769910335540771,"2292":1.4408025741577148,"2293":-12.65731430053711,"2294":-1.784292221069336,"2295":-4.963420867919922,"2296":-0.23078307509422302,"2297":3.091798782348633,"2298":6.697868347167969,"2299":-1.4170702695846558,"2300":0.5093730092048645,"2301":8.73377799987793,"2302":-7.483087062835693,"2303":-5.041102886199951,"2304":-8.847257614135742,"2305":-9.041857719421387,"2306":-2.855222702026367,"2307":6.79415225982666,"2308":0.606654703617096,"2309":0.624248206615448,"2310":2.715719223022461,"2311":-9.041353225708008,"2312":-0.6463144421577454,"2313":1.086802363395691,"2314":17.448902130126953,"2315":9.865885734558105,"2316":0.6693682670593262,"2317":0.45030587911605835,"2318":9.519540786743164,"2319":-0.04442239925265312,"2320":-6.595607757568359,"2321":-2.2861313819885254,"2322":1.4988268613815308,"2323":6.389298439025879,"2324":-11.398035049438477,"2325":6.911834716796875,"2326":-15.945560455322266,"2327":-5.710646152496338,"2328":8.464832305908203,"2329":-4.726202487945557,"2330":-2.4602155685424805,"2331":-0.31860730051994324,"2332":-0.4637996554374695,"2333":-2.133856773376465,"2334":9.962382316589355,"2335":-3.198709487915039,"2336":-2.4169487953186035,"2337":-8.483241081237793,"2338":3.719435453414917,"2339":-3.261603355407715,"2340":-0.05240003764629364,"2341":-1.3754324913024902,"2342":-3.661959648132324,"2343":5.805366039276123,"2344":1.3714956045150757,"2345":-7.478021144866943,"2346":-5.620556354522705,"2347":4.6719279289245605,"2348":6.594971179962158,"2349":-3.813559055328369,"2350":-8.494483947753906,"2351":-0.7948707342147827,"2352":-4.365476131439209,"2353":2.20837140083313,"2354":1.1767842769622803,"2355":7.3187994956970215,"2356":6.304437160491943,"2357":-6.942737579345703,"2358":2.588660478591919,"2359":5.049152374267578,"2360":-1.3681275844573975,"2361":-1.7513196468353271,"2362":1.9019075632095337,"2363":-5.463385581970215,"2364":2.980175495147705,"2365":7.521502494812012,"2366":4.642890930175781,"2367":-6.236940383911133,"2368":-1.6978130340576172,"2369":7.249485969543457,"2370":-6.473832607269287,"2371":3.593778610229492,"2372":3.039616584777832,"2373":-1.9479002952575684,"2374":6.2634100914001465,"2375":-0.519977867603302,"2376":-1.4757704734802246,"2377":-4.315356254577637,"2378":0.5158333778381348,"2379":2.8765475749969482,"2380":3.606480836868286,"2381":-3.570220708847046,"2382":4.94480037689209,"2383":-4.597667217254639,"2384":8.283099174499512,"2385":-1.6826605796813965,"2386":0.9574147462844849,"2387":3.2228896617889404,"2388":0.0062299687415361404,"2389":0.39779943227767944,"2390":-6.671136856079102,"2391":-5.167191028594971,"2392":7.353219509124756,"2393":-6.0412397384643555,"2394":-1.0680572986602783,"2395":5.171269416809082,"2396":-0.32841432094573975,"2397":-9.656599998474121,"2398":-2.473296880722046,"2399":7.288201332092285,"2400":3.2738378047943115,"2401":-4.608942985534668,"2402":-7.898842811584473,"2403":-2.331742763519287,"2404":3.9821255207061768,"2405":-3.5526351928710938,"2406":-2.9732468128204346,"2407":-2.9559080600738525,"2408":3.815704345703125,"2409":3.116485118865967,"2410":-1.2545989751815796,"2411":-5.042285919189453,"2412":-1.0911945104599,"2413":-6.7230329513549805,"2414":-2.4585444927215576,"2415":8.770621299743652,"2416":-3.438385486602783,"2417":5.987175464630127,"2418":5.012114524841309,"2419":4.701850414276123,"2420":-9.75233268737793,"2421":4.322340965270996,"2422":-4.932468414306641,"2423":-5.992149353027344,"2424":10.709512710571289,"2425":8.587614059448242,"2426":3.527164936065674,"2427":9.188979148864746,"2428":6.581410884857178,"2429":-4.733227729797363,"2430":5.355744361877441,"2431":1.479007601737976,"2432":-4.2741827964782715,"2433":5.885926246643066,"2434":8.597429275512695,"2435":-0.4055439829826355,"2436":6.801419258117676,"2437":4.238614082336426,"2438":-7.5694074630737305,"2439":4.7676100730896,"2440":-4.131394863128662,"2441":2.91615891456604,"2442":-7.020279884338379,"2443":20.727468490600586,"2444":0.690975546836853,"2445":10.275283813476562,"2446":5.33712911605835,"2447":-0.09728952497243881,"2448":2.773437738418579,"2449":-1.4918612241744995,"2450":-8.108240127563477,"2451":5.0738630294799805,"2452":2.1163265705108643,"2453":-10.013879776000977,"2454":2.5918571949005127,"2455":-2.352179527282715,"2456":-3.0269856452941895,"2457":2.1333060264587402,"2458":4.170422077178955,"2459":-6.165566921234131,"2460":-1.9340214729309082,"2461":-0.12212193757295609,"2462":0.4722614288330078,"2463":-5.156975746154785,"2464":0.9442028403282166,"2465":-6.6831159591674805,"2466":-1.3724299669265747,"2467":-1.1083557605743408,"2468":0.024868540465831757,"2469":3.9277026653289795,"2470":-2.8212077617645264,"2471":-2.556596517562866,"2472":-4.699320316314697,"2473":-0.3765298128128052,"2474":-2.0062012672424316,"2475":0.6385148763656616,"2476":-0.008834718726575375,"2477":-1.7755964994430542,"2478":2.842559814453125,"2479":-1.5077186822891235,"2480":6.711188316345215,"2481":5.012684345245361,"2482":3.7246949672698975,"2483":-2.6723854541778564,"2484":2.7348973751068115,"2485":2.765716314315796,"2486":-2.285364866256714,"2487":-0.490984171628952,"2488":-2.8198165893554688,"2489":3.833280324935913,"2490":5.021681785583496,"2491":2.0941128730773926,"2492":-0.8224307894706726,"2493":-4.3405537605285645,"2494":-7.776742458343506,"2495":1.2600138187408447,"2496":-0.03708849474787712,"2497":2.9114530086517334,"2498":6.127314567565918,"2499":-5.768632888793945,"2500":1.832118034362793,"2501":-0.43269339203834534,"2502":-3.07092547416687,"2503":-3.77494740486145,"2504":2.3541557788848877,"2505":-1.4777512550354004,"2506":3.703920602798462,"2507":-0.7259801030158997,"2508":0.9096514582633972,"2509":5.853036403656006,"2510":6.885534286499023,"2511":-1.356276035308838,"2512":0.6303461194038391,"2513":-0.5270557403564453,"2514":-2.1254544258117676,"2515":1.455729365348816,"2516":-3.5156044960021973,"2517":2.7568790912628174,"2518":-1.2861756086349487,"2519":-4.6431379318237305,"2520":12.355206489562988,"2521":-0.9694221019744873,"2522":-1.5790326595306396,"2523":-0.8008474111557007,"2524":2.3725879192352295,"2525":-0.7403683662414551,"2526":-6.181389808654785,"2527":1.9902981519699097,"2528":1.0765725374221802,"2529":-0.48259037733078003,"2530":3.333739995956421,"2531":8.445341110229492,"2532":1.1259644031524658,"2533":-2.7125093936920166,"2534":2.7983057498931885,"2535":4.05741024017334,"2536":-0.5957663059234619,"2537":1.3758147954940796,"2538":-0.9841657876968384,"2539":-5.885083198547363,"2540":-2.476626396179199,"2541":-0.5969083309173584,"2542":0.7075532078742981,"2543":-1.3469864130020142,"2544":5.616897106170654,"2545":0.25842994451522827,"2546":1.1421139240264893,"2547":0.2943323254585266,"2548":-3.7027502059936523,"2549":-1.3510806560516357,"2550":-0.15083254873752594,"2551":-3.5885579586029053,"2552":0.03154333680868149,"2553":1.5192477703094482,"2554":-4.404509544372559,"2555":-2.4633326530456543,"2556":-1.8762800693511963,"2557":-9.791111946105957,"2558":-1.8874703645706177,"2559":3.5445382595062256,"2560":8.181114196777344,"2561":3.6266531944274902,"2562":-1.9316312074661255,"2563":1.676364541053772,"2564":0.12950757145881653,"2565":0.12695713341236115,"2566":6.014570713043213,"2567":4.298219203948975,"2568":2.151475191116333,"2569":0.9790459275245667,"2570":5.73323392868042,"2571":8.240723609924316,"2572":-0.4190346598625183,"2573":1.869904637336731,"2574":2.2862579822540283,"2575":-2.1351382732391357,"2576":7.356983184814453,"2577":-4.61182165145874,"2578":0.3410811424255371,"2579":-1.5833886861801147,"2580":-3.39292311668396,"2581":2.0945374965667725,"2582":1.9042258262634277,"2583":-0.581723690032959,"2584":5.91502046585083,"2585":8.84403133392334,"2586":6.231919288635254,"2587":7.456692218780518,"2588":-3.196617841720581,"2589":4.799064636230469,"2590":-2.1845524311065674,"2591":10.436640739440918,"2592":-1.5591987371444702,"2593":4.103157997131348,"2594":-2.75553035736084,"2595":-0.8014677166938782,"2596":-7.50372314453125,"2597":5.73656702041626,"2598":6.657189846038818,"2599":-10.880454063415527,"2600":7.881357669830322,"2601":-0.38299381732940674,"2602":2.0600626468658447,"2603":5.686827182769775,"2604":11.224160194396973,"2605":-1.0143972635269165,"2606":-8.535772323608398,"2607":-1.15740966796875,"2608":-3.4185080528259277,"2609":9.03730297088623,"2610":-6.411441326141357,"2611":6.385334491729736,"2612":5.658769130706787,"2613":0.7242649793624878,"2614":-0.29459908604621887,"2615":-8.417234420776367,"2616":-8.843488693237305,"2617":3.3521673679351807,"2618":-0.3387147784233093,"2619":3.41129469871521,"2620":7.46616792678833,"2621":-8.634669303894043,"2622":-0.4184037744998932,"2623":-6.855930805206299,"2624":-4.753250598907471,"2625":12.619376182556152,"2626":-2.8087127208709717,"2627":1.6611076593399048,"2628":2.2513222694396973,"2629":-1.0892506837844849,"2630":-0.4125216007232666,"2631":4.404285907745361,"2632":-0.5348555445671082,"2633":4.129876136779785,"2634":1.3426405191421509,"2635":3.099871873855591,"2636":-3.686384439468384,"2637":-2.337249755859375,"2638":-2.7836854457855225,"2639":3.6324880123138428,"2640":-3.2434494495391846,"2641":-0.5817614197731018,"2642":5.709602355957031,"2643":3.9886603355407715,"2644":1.9778928756713867,"2645":12.306408882141113,"2646":-8.493752479553223,"2647":-16.77524185180664,"2648":4.132453918457031,"2649":-2.6611826419830322,"2650":-2.2572927474975586,"2651":2.553595542907715,"2652":7.7503862380981445,"2653":-6.7364630699157715,"2654":4.26137113571167,"2655":-14.440082550048828,"2656":1.8796725273132324,"2657":-7.338047027587891,"2658":0.9018811583518982,"2659":4.348236083984375,"2660":1.8657209873199463,"2661":0.5411056876182556,"2662":7.766701698303223,"2663":1.4125245809555054,"2664":1.782221794128418,"2665":-5.628162384033203,"2666":2.3653597831726074,"2667":2.8118844032287598,"2668":1.8774657249450684,"2669":-7.701757907867432,"2670":-10.541997909545898,"2671":1.5078997611999512,"2672":-0.5069132447242737,"2673":-8.422896385192871,"2674":12.682500839233398,"2675":8.230010986328125,"2676":2.1001741886138916,"2677":2.567626953125,"2678":-4.429755687713623,"2679":-8.490250587463379,"2680":4.650306701660156,"2681":-2.983621835708618,"2682":7.0030293464660645,"2683":5.692226886749268,"2684":-3.860039472579956,"2685":-6.993151664733887,"2686":-4.879927158355713,"2687":-10.34542179107666,"2688":0.4634752571582794,"2689":0.5136507749557495,"2690":10.047780990600586,"2691":-10.502948760986328,"2692":2.7029521465301514,"2693":0.6555066704750061,"2694":3.360077381134033,"2695":-17.00150489807129,"2696":1.1662343740463257,"2697":-11.64409065246582,"2698":-11.64447021484375,"2699":-9.578434944152832,"2700":-5.901459217071533,"2701":3.001166820526123,"2702":-8.619912147521973,"2703":5.107404708862305,"2704":2.2136268615722656,"2705":0.3977392017841339,"2706":3.476273775100708,"2707":3.070608377456665,"2708":2.5648393630981445,"2709":-7.057007789611816,"2710":-0.9210668802261353,"2711":0.45420292019844055,"2712":9.026141166687012,"2713":9.784093856811523,"2714":-1.6601171493530273,"2715":-0.5245805978775024,"2716":-0.9717310070991516,"2717":-1.026947021484375,"2718":-8.815486907958984,"2719":7.3336501121521,"2720":0.8887770175933838,"2721":7.630789756774902,"2722":-9.24287223815918,"2723":0.9121938347816467,"2724":6.648392677307129,"2725":10.564677238464355,"2726":13.60870361328125,"2727":9.025368690490723,"2728":-7.155113697052002,"2729":6.125492095947266,"2730":9.307281494140625,"2731":4.334441184997559,"2732":-3.486231803894043,"2733":5.706223011016846,"2734":-0.24250024557113647,"2735":-6.266791343688965,"2736":4.48007345199585,"2737":3.0058398246765137,"2738":3.870272636413574,"2739":7.798434257507324,"2740":9.016351699829102,"2741":-0.16844457387924194,"2742":0.983246922492981,"2743":-1.7776507139205933,"2744":-8.318632125854492,"2745":3.9834887981414795,"2746":4.115788459777832,"2747":-7.404946327209473,"2748":-8.741243362426758,"2749":-2.595351219177246,"2750":5.242241859436035,"2751":1.3854695558547974,"2752":-4.1434407234191895,"2753":-2.346609592437744,"2754":-0.4836098551750183,"2755":-3.361586570739746,"2756":5.264548301696777,"2757":4.827171325683594,"2758":-1.3466812372207642,"2759":8.006421089172363,"2760":1.3746627569198608,"2761":-1.3502917289733887,"2762":2.414613962173462,"2763":2.2884271144866943,"2764":5.239100456237793,"2765":4.6998982429504395,"2766":5.792965412139893,"2767":-6.854443073272705,"2768":-1.5090800523757935,"2769":3.1911427974700928,"2770":0.2106659710407257,"2771":-0.19848230481147766,"2772":0.015257271938025951,"2773":-3.6337080001831055,"2774":-3.9789650440216064,"2775":-0.8109307885169983,"2776":1.1646555662155151,"2777":9.094185829162598,"2778":-0.1437578648328781,"2779":-5.230488300323486,"2780":2.8106839656829834,"2781":-2.037827968597412,"2782":2.686204671859741,"2783":-2.247729539871216,"2784":6.407365322113037,"2785":-2.809546709060669,"2786":-0.026324206963181496,"2787":0.9385538697242737,"2788":-0.31996166706085205,"2789":2.001479148864746,"2790":1.1186704635620117,"2791":-3.465555191040039,"2792":3.162768602371216,"2793":-6.60999059677124,"2794":-2.3061625957489014,"2795":-0.08352702111005783,"2796":-8.440837860107422,"2797":1.6603403091430664,"2798":-5.1214704513549805,"2799":-4.057372093200684,"2800":7.363950729370117,"2801":3.4863359928131104,"2802":-4.677584648132324,"2803":1.0366179943084717,"2804":4.396612167358398,"2805":-9.002363204956055,"2806":-1.8923789262771606,"2807":0.7592282891273499,"2808":2.771103858947754,"2809":1.1759226322174072,"2810":1.897619366645813,"2811":1.889807939529419,"2812":-1.940147042274475,"2813":-7.799201488494873,"2814":1.864300012588501,"2815":-2.806065797805786,"2816":8.411293983459473,"2817":-7.403200626373291,"2818":-4.18165922164917,"2819":-7.584117889404297,"2820":-4.696163654327393,"2821":-2.7356231212615967,"2822":-2.115933895111084,"2823":-2.0918962955474854,"2824":-3.703197479248047,"2825":-4.556724548339844,"2826":-0.28651249408721924,"2827":6.1850080490112305,"2828":-2.9802160263061523,"2829":-0.5377843379974365,"2830":2.8480920791625977,"2831":-1.0381916761398315,"2832":-4.443802356719971,"2833":-0.08644986152648926,"2834":-1.322595238685608,"2835":-0.8802829384803772,"2836":-8.363176345825195,"2837":-2.313530921936035,"2838":3.8427512645721436,"2839":8.036752700805664,"2840":7.0129876136779785,"2841":-2.333310604095459,"2842":-0.4008098244667053,"2843":-4.275909423828125,"2844":0.7952324151992798,"2845":7.676589012145996,"2846":-1.7116421461105347,"2847":2.2542333602905273,"2848":-2.7839579582214355,"2849":4.43881368637085,"2850":7.538453102111816,"2851":2.8200507164001465,"2852":2.4206204414367676,"2853":5.542261600494385,"2854":5.0341386795043945,"2855":7.188850402832031,"2856":3.6656806468963623,"2857":5.792740821838379,"2858":-0.6141680479049683,"2859":-2.04062557220459,"2860":-2.8625478744506836,"2861":10.928099632263184,"2862":-3.7910330295562744,"2863":8.407800674438477,"2864":0.6131415367126465,"2865":6.526556491851807,"2866":-3.5091593265533447,"2867":2.713179349899292,"2868":-3.4050228595733643,"2869":-5.266537666320801,"2870":-7.936184883117676,"2871":-4.42287540435791,"2872":-3.4269468784332275,"2873":-3.7105329036712646,"2874":8.44925594329834,"2875":9.20341682434082,"2876":3.156740427017212,"2877":-3.8844120502471924,"2878":-2.486175537109375,"2879":3.451420783996582,"2880":-8.650779724121094,"2881":5.8600544929504395,"2882":2.285189628601074,"2883":8.616081237792969,"2884":-5.598696231842041,"2885":4.486604690551758,"2886":-0.49938490986824036,"2887":5.8559393882751465,"2888":1.5980825424194336,"2889":-5.381917476654053,"2890":5.371719837188721,"2891":-7.238709926605225,"2892":-0.4472372233867645,"2893":-4.025907039642334,"2894":6.8808112144470215,"2895":-2.9850900173187256,"2896":-2.1498987674713135,"2897":4.794618129730225,"2898":0.9187370538711548,"2899":3.3874869346618652,"2900":-6.007690906524658,"2901":-23.467927932739258,"2902":-3.165510654449463,"2903":-7.995666980743408,"2904":7.775435447692871,"2905":0.629278838634491,"2906":-12.064350128173828,"2907":11.775810241699219,"2908":-0.9270054697990417,"2909":5.7474045753479,"2910":-4.542702674865723,"2911":7.027075290679932,"2912":-0.05068482831120491,"2913":1.9570831060409546,"2914":-9.313889503479004,"2915":-21.582082748413086,"2916":2.8961949348449707,"2917":20.632966995239258,"2918":-7.958442687988281,"2919":0.7627235054969788,"2920":5.924558639526367,"2921":8.604942321777344,"2922":-2.549192428588867,"2923":-10.255668640136719,"2924":5.801379680633545,"2925":-3.2071266174316406,"2926":-7.972590923309326,"2927":-12.356492042541504,"2928":4.249966621398926,"2929":-2.006340980529785,"2930":-1.1329588890075684,"2931":5.934828281402588,"2932":-11.219833374023438,"2933":-0.3896028697490692,"2934":-14.515373229980469,"2935":-5.406134128570557,"2936":1.7542526721954346,"2937":5.301876544952393,"2938":1.3940014839172363,"2939":7.723633289337158,"2940":4.029260158538818,"2941":3.356829881668091,"2942":-12.886296272277832,"2943":16.325035095214844,"2944":7.706982135772705,"2945":1.1476540565490723,"2946":4.455327033996582,"2947":-8.400083541870117,"2948":1.1081440448760986,"2949":3.4532310962677,"2950":-5.847211837768555,"2951":2.5850014686584473,"2952":17.841760635375977,"2953":-7.484262466430664,"2954":0.7741324305534363,"2955":-5.342153072357178,"2956":-2.0183558464050293,"2957":13.095382690429688,"2958":-7.910734176635742,"2959":-10.257919311523438,"2960":-1.7961312532424927,"2961":-1.3925200700759888,"2962":0.7102939486503601,"2963":-2.099684953689575,"2964":2.0106892585754395,"2965":5.512007236480713,"2966":-9.875277519226074,"2967":-5.5472412109375,"2968":1.0741448402404785,"2969":-5.447234630584717,"2970":-17.005691528320312,"2971":1.320690631866455,"2972":-2.2628378868103027,"2973":12.394148826599121,"2974":-3.64884090423584,"2975":-3.225537061691284,"2976":-0.9912262558937073,"2977":6.756765842437744,"2978":4.480215549468994,"2979":7.652312278747559,"2980":-0.32627207040786743,"2981":10.196187973022461,"2982":-1.951380968093872,"2983":5.185920715332031,"2984":3.006127119064331,"2985":3.9052469730377197,"2986":0.608561635017395,"2987":-3.9993879795074463,"2988":1.9748972654342651,"2989":-4.667992115020752,"2990":1.2137302160263062,"2991":-3.499056100845337,"2992":0.6742257475852966,"2993":-1.7137248516082764,"2994":-7.906647205352783,"2995":5.76507568359375,"2996":-5.987076759338379,"2997":11.140730857849121,"2998":5.181544303894043,"2999":-4.725002765655518,"3000":-11.741069793701172,"3001":-11.629318237304688,"3002":3.201083183288574,"3003":0.06376570463180542,"3004":-11.879575729370117,"3005":-0.9180452823638916,"3006":-2.7523062229156494,"3007":-3.1388845443725586,"3008":2.04605770111084,"3009":6.880620002746582,"3010":-2.2360377311706543,"3011":10.561635971069336,"3012":-0.5882053971290588,"3013":-10.767870903015137,"3014":-2.7597577571868896,"3015":7.265695571899414,"3016":0.40843456983566284,"3017":5.199459075927734,"3018":2.2468228340148926,"3019":-2.9689505100250244,"3020":-7.769217491149902,"3021":3.712991952896118,"3022":-2.406954288482666,"3023":5.698322296142578,"3024":9.773356437683105,"3025":4.612285137176514,"3026":0.004003758076578379,"3027":-2.1129674911499023,"3028":-5.391326904296875,"3029":-4.404650688171387,"3030":-7.880224227905273,"3031":1.6304686069488525,"3032":-4.819645881652832,"3033":2.2664403915405273,"3034":-4.917093276977539,"3035":6.406607627868652,"3036":3.0941007137298584,"3037":1.4878486394882202,"3038":-3.0355958938598633,"3039":-4.896524906158447,"3040":-3.693460702896118,"3041":-1.2473379373550415,"3042":-4.70579719543457,"3043":-2.5178146362304688,"3044":-12.162839889526367,"3045":-6.473911762237549,"3046":-7.97053337097168,"3047":7.241842746734619,"3048":4.815115928649902,"3049":3.5043091773986816,"3050":-3.3150634765625,"3051":-3.0380959510803223,"3052":-0.750981867313385,"3053":-4.024145126342773,"3054":-5.2942070960998535,"3055":-5.079756259918213,"3056":2.031926393508911,"3057":8.437665939331055,"3058":4.407040119171143,"3059":6.978362560272217,"3060":-5.3326802253723145,"3061":-7.017692565917969,"3062":2.8027184009552,"3063":0.7955524325370789,"3064":2.4763894081115723,"3065":4.589749336242676,"3066":-3.999039888381958,"3067":2.484276533126831,"3068":-7.97666072845459,"3069":9.20181941986084,"3070":-2.9196553230285645,"3071":-1.1646652221679688,"3072":-6.266121864318848,"3073":1.3918967247009277,"3074":-5.674676418304443,"3075":3.6050713062286377,"3076":-1.1465418338775635,"3077":6.927053451538086,"3078":3.1105875968933105,"3079":-2.9889793395996094,"3080":3.9037036895751953,"3081":-6.342076301574707,"3082":2.4951000213623047,"3083":-2.8549177646636963,"3084":-2.065730571746826,"3085":0.6454849243164062,"3086":-0.9990307688713074,"3087":8.924038887023926,"3088":6.9809088706970215,"3089":2.9981939792633057,"3090":3.003272771835327,"3091":1.950535535812378,"3092":-7.667411804199219,"3093":-5.889489650726318,"3094":2.110948085784912,"3095":-4.244819164276123,"3096":5.435833930969238,"3097":-5.15787935256958,"3098":9.113274574279785,"3099":-0.08416219800710678,"3100":-0.33922016620635986,"3101":0.04209966957569122,"3102":-5.723258018493652,"3103":-7.37187385559082,"3104":-7.958264350891113,"3105":-7.355391502380371,"3106":2.1196491718292236,"3107":-8.923723220825195,"3108":-3.024379253387451,"3109":-10.164921760559082,"3110":6.976505756378174,"3111":12.432438850402832,"3112":-0.31731101870536804,"3113":-2.0008022785186768,"3114":-4.102537631988525,"3115":2.2836105823516846,"3116":-6.273237705230713,"3117":-3.5060954093933105,"3118":-8.06491470336914,"3119":2.974632501602173,"3120":8.02468490600586,"3121":0.11263333261013031,"3122":6.673919200897217,"3123":-4.6973981857299805,"3124":-10.869540214538574,"3125":4.61009407043457,"3126":4.022221088409424,"3127":0.9766303896903992,"3128":12.495647430419922,"3129":-7.042705535888672,"3130":5.875389099121094,"3131":-13.292439460754395,"3132":4.73936128616333,"3133":2.2144298553466797,"3134":-2.831918239593506,"3135":-0.35982775688171387,"3136":-2.0681002140045166,"3137":-10.778951644897461,"3138":7.05218505859375,"3139":6.231849193572998,"3140":7.212247848510742,"3141":-1.1314834356307983,"3142":-5.102529525756836,"3143":8.625947952270508,"3144":-9.274079322814941,"3145":9.436429023742676,"3146":0.0752684473991394,"3147":-2.812089681625366,"3148":0.1698334813117981,"3149":-3.499622344970703,"3150":-14.198847770690918,"3151":-3.225858688354492,"3152":-13.885479927062988,"3153":-6.137598514556885,"3154":-13.877424240112305,"3155":-6.466116905212402,"3156":1.9019598960876465,"3157":5.47592306137085,"3158":-9.992740631103516,"3159":-0.8381175994873047,"3160":-20.9686336517334,"3161":-1.9346649646759033,"3162":2.6804583072662354,"3163":3.502676248550415,"3164":-18.3693904876709,"3165":-18.25696563720703,"3166":6.842766284942627,"3167":3.791905641555786,"3168":-13.151396751403809,"3169":-5.965138912200928,"3170":4.872914791107178,"3171":-9.224837303161621,"3172":2.8324368000030518,"3173":-4.521087169647217,"3174":4.205419540405273,"3175":20.38454818725586,"3176":-4.648707866668701,"3177":14.082086563110352,"3178":-7.124885082244873,"3179":2.7681143283843994,"3180":-20.172117233276367,"3181":12.56782054901123,"3182":7.5863776206970215,"3183":3.6533620357513428,"3184":3.7884633541107178,"3185":-4.627309322357178,"3186":-5.952199459075928,"3187":-4.169116497039795,"3188":10.462747573852539,"3189":4.1410298347473145,"3190":-0.012924354523420334,"3191":2.3255481719970703,"3192":-9.950873374938965,"3193":4.872594356536865,"3194":1.1878583431243896,"3195":-2.898097038269043,"3196":-2.9957854747772217,"3197":-18.587894439697266,"3198":-3.85127329826355,"3199":4.375452995300293,"3200":5.519278526306152,"3201":-9.440571784973145,"3202":-2.209462881088257,"3203":-9.957269668579102,"3204":6.728149890899658,"3205":4.992586612701416,"3206":0.8832855820655823,"3207":-6.260515213012695,"3208":-4.952350616455078,"3209":-18.81199073791504,"3210":-3.5988872051239014,"3211":-1.172276496887207,"3212":0.13791510462760925,"3213":-5.020883083343506,"3214":-1.2561577558517456,"3215":1.5657521486282349,"3216":1.3283789157867432,"3217":3.2128093242645264,"3218":6.3818511962890625,"3219":3.9785430431365967,"3220":-4.459931373596191,"3221":1.6794607639312744,"3222":-3.3534841537475586,"3223":4.966414928436279,"3224":-1.5770381689071655,"3225":0.13973848521709442,"3226":-0.4572071135044098,"3227":1.707292914390564,"3228":6.950223445892334,"3229":2.528635025024414,"3230":-0.5065739154815674,"3231":6.548072338104248,"3232":-2.396212577819824,"3233":-0.6415656805038452,"3234":10.001680374145508,"3235":7.692588806152344,"3236":-0.4288251996040344,"3237":0.5809658765792847,"3238":-0.951993465423584,"3239":-0.272297203540802,"3240":-1.3297345638275146,"3241":-0.03452904894948006,"3242":1.0437085628509521,"3243":7.858539581298828,"3244":1.4643864631652832,"3245":-0.3818262219429016,"3246":2.110058546066284,"3247":-2.8900978565216064,"3248":-5.185187339782715,"3249":2.8361003398895264,"3250":4.244994640350342,"3251":-5.585651397705078,"3252":-1.6834882497787476,"3253":0.7058084011077881,"3254":-1.8845840692520142,"3255":-1.8991162776947021,"3256":0.8513453006744385,"3257":1.7765525579452515,"3258":0.2670714557170868,"3259":-0.7782920002937317,"3260":1.6079285144805908,"3261":1.5562160015106201,"3262":1.1135740280151367,"3263":3.803290605545044,"3264":-3.1098477840423584,"3265":-2.44360613822937,"3266":-2.5602338314056396,"3267":0.8884626030921936,"3268":3.4182403087615967,"3269":-6.043214321136475,"3270":7.811202049255371,"3271":-3.253976583480835,"3272":0.06802046298980713,"3273":4.0471696853637695,"3274":-3.658963918685913,"3275":-1.5556833744049072,"3276":7.423610210418701,"3277":9.868471145629883,"3278":-0.7595754861831665,"3279":4.285134315490723,"3280":-1.2110676765441895,"3281":-8.29300308227539,"3282":-5.307903289794922,"3283":6.666376113891602,"3284":-7.077179908752441,"3285":4.001470565795898,"3286":0.8217129707336426,"3287":3.971057653427124,"3288":2.960676670074463,"3289":0.7274719476699829,"3290":-0.9553505778312683,"3291":-3.8846287727355957,"3292":-1.0869107246398926,"3293":0.9553234577178955,"3294":-1.6994898319244385,"3295":-0.9983961582183838,"3296":0.9853538870811462,"3297":-4.038096904754639,"3298":1.3553611040115356,"3299":4.385443210601807,"3300":3.8976359367370605,"3301":-3.86586332321167,"3302":1.599448561668396,"3303":5.494776248931885,"3304":3.7269444465637207,"3305":-1.470168113708496,"3306":-0.17719949781894684,"3307":-2.595888376235962,"3308":-8.110101699829102,"3309":-0.7270106077194214,"3310":5.235905647277832,"3311":-0.2673099637031555,"3312":-2.5155696868896484,"3313":-4.846383094787598,"3314":5.204430103302002,"3315":0.073054738342762,"3316":0.365821897983551,"3317":11.849836349487305,"3318":-2.4428210258483887,"3319":3.3469223976135254,"3320":-6.036093235015869,"3321":2.256868600845337,"3322":1.088997483253479,"3323":-1.524967074394226,"3324":2.344170093536377,"3325":-2.980441093444824,"3326":-7.9682159423828125,"3327":4.161838054656982,"3328":4.2059760093688965,"3329":8.728922843933105,"3330":-2.230238199234009,"3331":-2.8225533962249756,"3332":10.343372344970703,"3333":-6.786154270172119,"3334":2.511305093765259,"3335":-0.40191739797592163,"3336":-9.032310485839844,"3337":0.2453223019838333,"3338":1.5293669700622559,"3339":7.036415100097656,"3340":-1.8386017084121704,"3341":-18.906301498413086,"3342":-9.755361557006836,"3343":-10.923273086547852,"3344":-3.0807344913482666,"3345":1.2187806367874146,"3346":-6.134139537811279,"3347":-0.7016251087188721,"3348":-3.4031219482421875,"3349":-7.957589149475098,"3350":3.4567320346832275,"3351":4.031946659088135,"3352":-1.85627019405365,"3353":-17.417516708374023,"3354":-13.917046546936035,"3355":-4.078646183013916,"3356":-0.879789412021637,"3357":-6.784382343292236,"3358":1.674942970275879,"3359":-12.226720809936523,"3360":-1.7280367612838745,"3361":-19.383852005004883,"3362":4.918065547943115,"3363":-2.7126152515411377,"3364":5.275893688201904,"3365":-21.881591796875,"3366":4.887678623199463,"3367":-16.57701301574707,"3368":-3.603827476501465,"3369":-8.269669532775879,"3370":-3.005098581314087,"3371":13.408031463623047,"3372":7.425200462341309,"3373":4.049922466278076,"3374":10.082624435424805,"3375":0.9135922789573669,"3376":-8.766874313354492,"3377":9.211487770080566,"3378":2.584399700164795,"3379":-2.7441139221191406,"3380":-8.633350372314453,"3381":-3.6763834953308105,"3382":2.2865941524505615,"3383":-0.052290331572294235,"3384":-1.7976802587509155,"3385":-8.692912101745605,"3386":0.6927306056022644,"3387":-11.14330768585205,"3388":4.342365264892578,"3389":2.951812744140625,"3390":-2.67608642578125,"3391":5.27253532409668,"3392":-1.0419694185256958,"3393":17.33091163635254,"3394":-2.2633957862854004,"3395":-2.4645261764526367,"3396":-2.1598336696624756,"3397":-4.633625030517578,"3398":-8.253192901611328,"3399":3.0550801753997803,"3400":-5.2556328773498535,"3401":-17.08810043334961,"3402":-8.254096984863281,"3403":-18.35649871826172,"3404":10.870770454406738,"3405":8.65939998626709,"3406":8.769872665405273,"3407":-3.400576591491699,"3408":13.41408920288086,"3409":-3.0118327140808105,"3410":7.4076619148254395,"3411":-15.00100326538086,"3412":-2.504256248474121,"3413":-3.2363393306732178,"3414":27.11014175415039,"3415":-1.3471922874450684,"3416":16.09021759033203,"3417":4.108409404754639,"3418":17.346071243286133,"3419":16.256929397583008,"3420":-1.7122129201889038,"3421":2.555541515350342,"3422":12.808819770812988,"3423":-1.7390636205673218,"3424":0.24717484414577484,"3425":-11.6766996383667,"3426":0.4665757715702057,"3427":1.8078699111938477,"3428":-1.807360053062439,"3429":-5.716623306274414,"3430":12.484879493713379,"3431":9.817111015319824,"3432":-5.227755546569824,"3433":1.3279694318771362,"3434":-16.991989135742188,"3435":-6.061652660369873,"3436":7.77225399017334,"3437":3.4140350818634033,"3438":0.23759780824184418,"3439":-2.088538408279419,"3440":-9.691744804382324,"3441":-1.7511416673660278,"3442":-10.256169319152832,"3443":-3.716705560684204,"3444":7.718898296356201,"3445":2.336481809616089,"3446":-0.5449977517127991,"3447":-6.481776714324951,"3448":-3.935612201690674,"3449":-6.431466102600098,"3450":6.516167163848877,"3451":-14.022027969360352,"3452":-4.667023658752441,"3453":-10.739190101623535,"3454":-17.55369758605957,"3455":-12.296891212463379,"3456":-4.781361103057861,"3457":4.359029293060303,"3458":1.5280632972717285,"3459":0.04163085296750069,"3460":-1.7235398292541504,"3461":2.851543664932251,"3462":7.724400043487549,"3463":-3.168914556503296,"3464":5.304296493530273,"3465":12.191083908081055,"3466":9.978729248046875,"3467":5.5639729499816895,"3468":9.464911460876465,"3469":-7.643398761749268,"3470":-7.886908054351807,"3471":-4.832086086273193,"3472":8.890074729919434,"3473":5.786996841430664,"3474":-0.8574413657188416,"3475":-12.853951454162598,"3476":12.863801002502441,"3477":-8.713809967041016,"3478":-3.0903515815734863,"3479":-1.9711873531341553,"3480":0.3438342213630676,"3481":-3.1804049015045166,"3482":0.45122429728507996,"3483":-11.117667198181152,"3484":-12.022842407226562,"3485":-2.450636863708496,"3486":-1.7740288972854614,"3487":-1.452988624572754,"3488":-0.9555917382240295,"3489":6.5780229568481445,"3490":8.063870429992676,"3491":8.587095260620117,"3492":5.395553112030029,"3493":3.4411442279815674,"3494":0.36838141083717346,"3495":-3.527764081954956,"3496":-12.394340515136719,"3497":-3.3661110401153564,"3498":-1.4293524026870728,"3499":9.51578140258789,"3500":3.9774632453918457,"3501":1.7131789922714233,"3502":6.519706726074219,"3503":-6.693628787994385,"3504":-9.716728210449219,"3505":10.89574146270752,"3506":6.1628217697143555,"3507":-12.765460968017578,"3508":0.1326185166835785,"3509":-3.391831159591675,"3510":8.839357376098633,"3511":-3.802830934524536,"3512":2.6863062381744385,"3513":-1.4155343770980835,"3514":5.0509562492370605,"3515":2.3612489700317383,"3516":18.922332763671875,"3517":-2.1812798976898193,"3518":18.286163330078125,"3519":-19.546260833740234,"3520":-12.699132919311523,"3521":0.19913066923618317,"3522":-2.72402286529541,"3523":-11.489108085632324,"3524":0.591823935508728,"3525":-1.0835659503936768,"3526":13.457032203674316,"3527":-2.656364679336548,"3528":11.237103462219238,"3529":0.793852686882019,"3530":-3.7367703914642334,"3531":5.6996684074401855,"3532":-5.064002513885498,"3533":-3.4603030681610107,"3534":0.03749938681721687,"3535":2.2847115993499756,"3536":-11.17066478729248,"3537":-7.420816898345947,"3538":-8.807604789733887,"3539":3.1555392742156982,"3540":-16.15602684020996,"3541":8.737105369567871,"3542":-8.474311828613281,"3543":-3.2983639240264893,"3544":-6.201778888702393,"3545":-6.960005760192871,"3546":-8.187905311584473,"3547":-3.209035634994507,"3548":-7.964970588684082,"3549":-9.026151657104492,"3550":-10.550198554992676,"3551":9.475028991699219,"3552":6.820874214172363,"3553":4.603573322296143,"3554":-4.142067909240723,"3555":6.907533645629883,"3556":-7.324641704559326,"3557":-8.362966537475586,"3558":2.2074928283691406,"3559":-4.7358808517456055,"3560":9.008301734924316,"3561":7.922095775604248,"3562":-2.371473550796509,"3563":3.0578689575195312,"3564":-1.896548867225647,"3565":-10.4222412109375,"3566":8.806174278259277,"3567":-1.3010869026184082,"3568":11.663616180419922,"3569":5.879469871520996,"3570":-9.544831275939941,"3571":4.908427715301514,"3572":-5.7971038818359375,"3573":9.983938217163086,"3574":5.308046817779541,"3575":-4.296128749847412,"3576":-6.900042533874512,"3577":8.015157699584961,"3578":-7.64424991607666,"3579":8.918229103088379,"3580":1.3424034118652344,"3581":8.519556999206543,"3582":7.350984573364258,"3583":-4.688027858734131,"3584":4.600521087646484,"3585":-7.22391414642334,"3586":8.299941062927246,"3587":0.8403719663619995,"3588":-0.7748355269432068,"3589":-0.24849088490009308,"3590":-8.19459056854248,"3591":1.7627099752426147,"3592":-0.8849666118621826,"3593":6.137141227722168,"3594":-1.6573936939239502,"3595":8.861942291259766,"3596":-5.754654407501221,"3597":-10.694121360778809,"3598":12.085238456726074,"3599":5.369887351989746,"3600":-14.303712844848633,"3601":2.904541015625,"3602":18.291170120239258,"3603":4.964725971221924,"3604":7.652354717254639,"3605":16.18655014038086,"3606":3.3154094219207764,"3607":14.502812385559082,"3608":14.655457496643066,"3609":-8.713541984558105,"3610":-7.622230529785156,"3611":5.324936866760254,"3612":-0.9096910357475281,"3613":-11.364408493041992,"3614":3.5936081409454346,"3615":3.281163454055786,"3616":2.5149354934692383,"3617":-10.005026817321777,"3618":-17.306913375854492,"3619":19.80586051940918,"3620":-5.718588352203369,"3621":8.544718742370605,"3622":2.937105178833008,"3623":0.31276142597198486,"3624":0.659299910068512,"3625":1.6946496963500977,"3626":1.1989997625350952,"3627":21.895801544189453,"3628":-9.617486000061035,"3629":-3.6960935592651367,"3630":0.23536114394664764,"3631":0.8406128883361816,"3632":5.083986282348633,"3633":4.956204414367676,"3634":-6.139956474304199,"3635":3.2037782669067383,"3636":-8.340970993041992,"3637":-8.346942901611328,"3638":4.372925281524658,"3639":10.397133827209473,"3640":2.1246142387390137,"3641":2.319018840789795,"3642":1.5817151069641113,"3643":-3.130398988723755,"3644":-2.004387140274048,"3645":-5.672654628753662,"3646":3.588048219680786,"3647":12.880221366882324,"3648":-14.05481243133545,"3649":-3.75018048286438,"3650":-9.048952102661133,"3651":-9.684633255004883,"3652":10.632871627807617,"3653":5.220505237579346,"3654":2.547309160232544,"3655":2.5832250118255615,"3656":-2.9754538536071777,"3657":14.538134574890137,"3658":20.604063034057617,"3659":11.745453834533691,"3660":-0.5049422383308411,"3661":-0.9626834392547607,"3662":4.157309532165527,"3663":9.1649751663208,"3664":15.52637767791748,"3665":3.1332876682281494,"3666":-4.902217388153076,"3667":-8.521985054016113,"3668":5.70161771774292,"3669":10.60376262664795,"3670":7.4337615966796875,"3671":12.285941123962402,"3672":20.97068977355957,"3673":-3.3472087383270264,"3674":8.297510147094727,"3675":16.856014251708984,"3676":20.48459243774414,"3677":2.715548515319824,"3678":-3.4077398777008057,"3679":-14.761941909790039,"3680":10.203609466552734,"3681":-6.785146713256836,"3682":-0.24308094382286072,"3683":0.5793944001197815,"3684":11.452804565429688,"3685":-3.4249348640441895,