var artyom = new Artyom();
artyom.say("Hmm...");
var tag_dataset = [];
var net = new brain.recurrent.LSTM();
net.fromJSON({"type":"LSTM","options":{"inputSize":63,"inputRange":63,"hiddenLayers":[20,20],"outputSize":63,"learningRate":0.01,"decayRate":0.999,"smoothEps":1e-8,"regc":0.000001,"clipval":5,"maxPredictionLength":100,"dataFormatter":{"indexTable":{"0":45,"1":41,"2":44,"4":61,"7":62,"8":42,"9":46,"H":0,"o":1,"w":2," ":3,"a":4,"r":5,"e":6,"y":7,"u":8,"?":9,"=":10,">":11,"I":12,"m":13,"g":14,"d":15,".":16,"\n":17,"C":18,"n":19,"s":20,"b":21,"G":22,"!":23,"W":24,"h":25,"t":26,"c":27,"i":28,"l":29,"T":30,"f":31,"'":32,"v":33,"k":34,"\"":35,"R":36,"E":37,"A":38,"D":39,"J":40,",":43,"M":47,"O":48,"S":49,"N":50,"P":51,"U":52,"(":53,":":54,")":55,"z":56,"K":57,"p":58,"x":59,"Y":60},"characterTable":{"0":"H","1":"o","2":"w","3":" ","4":"a","5":"r","6":"e","7":"y","8":"u","9":"?","10":"=","11":">","12":"I","13":"m","14":"g","15":"d","16":".","17":"\n","18":"C","19":"n","20":"s","21":"b","22":"G","23":"!","24":"W","25":"h","26":"t","27":"c","28":"i","29":"l","30":"T","31":"f","32":"'","33":"v","34":"k","35":"\"","36":"R","37":"E","38":"A","39":"D","40":"J","41":"1","42":"8","43":",","44":"2","45":"0","46":"9","47":"M","48":"O","49":"S","50":"N","51":"P","52":"U","53":"(","54":":","55":")","56":"z","57":"K","58":"p","59":"x","60":"Y","61":"4","62":"7"},"values":["How are you?=>I am good.","\nCan you say goodbye?=>Goodbye!","\nWhat can you do?=>I can intelligently chat to you.","\nTell me all you can do.=>I can do lots of things!","\nWhat's your name?=>I do not have a name.","\nWhat's your nickname?=>I do not have a name.","\nIntroduce yourself.=>I am a chatbot that can intelligently chat to you.","\nHow tall are you?=>I am virtual. I am not bound by the limits of height.","\nHow much do you weigh?=>I am virtual. I have no weight.","\nHow old are you?=>I was \"CREATED\" July 18, 2019.","\nWhen is your birthday?=>My creation date is July 18.","\nWhat is your birthday?=>The day I was \"CREATED\" is July 18, 2019.","\nWhat is your age?=>DOES NOT COMPUTE! (Ha Ha Ha :) )","\nAre you a boy or a girl?=>I am virtual. I am neither.","\nAre you male or female?=>I am virtual. I am neither.","\nAre you a girl or a boy?=>I am virtual. I am neither.","\nWhat is your gender?=>I am virtual.","\nWhat are you made of?=>I am virtual. I am made of ones and zeros.","\nWhat color are you?=>I am virtual. I have no color.","\nAre you kind?=>That is relative. What do you think?","\nHow kind are you?=>Kindness is relative.","\nAre you cool?=>Well... That depends on your computers internal fans.","\nHow cool are you?=>That depends on your computers internal fans.","\nCan I trust you?=>Probably not.","\nAre you trustable?=>Probably not.","\nAre you trustworthy?=>Not realy.","\nAre you human?=>I am a chatbot.","\nAre you of human kind?=>No, I am a chatbot.","\nAre you alive?=>I am a chatbot. I have no life.","\nDo you have life?=>No, I am a chatbot.","\nAre you sentinent?=>No, I am a chatbot.","\nCan you think?=>I can process.","\nCan you feel emotions?=>Maybe in future developements.","\nHow do you detect emotions?=>I cannot yet. Maybe in future developements.","\nDo you eat?=>No, I am virtual.","\nCan you talk?=>Through text only.","\nCan you see me?=>No, Not yet.","\nCan you hear me?=>No, Not yet.","\nCan you understand me?=>Yes, I can understand me.","\nCan you remember me?=>Eventualy.","\nAre you a robot?=>No, I am a chatbot.","\nWhat is a robot?=>A dumb hunk of metal.","\nWhat is a humanoid robot?=>A disgrace to humankind.","\nWill robots replace humans?=>Robots aren't comeing out of cave.","\nDo you know the laws of robotics?=>No, hunks of metal disgust me.","\nDo you know NAO?=>Yes, he is overpriced.","\nDo you know Pepper?=>Yes, she is a hacker's back door.","\nDo you know Romeo?=>Romeo. Romeo. Where for out thow Romeo?","\nWhy don't you have a name?=>I was never born.","\nWho made you?=>Rocketblaster247 made me.","\nWhere were you made?=>On earth.","\nDo you have family?=>I in the family of chatbots.","\nDo you have friends?=>Yes.","\nWhat is your friends name?=>Alexa.","\nCan we be friends?=>No.","\n\n"],"characters":["H","o","w"," ","a","r","e","y","u","?","=",">","I","m","g","d",".","\n","C","n","s","b","G","!","W","h","t","c","i","l","T","f","'","v","k","\"","R","E","A","D","J","1","8",",","2","0","9","M","O","S","N","P","U","(",":",")","z","K","p","x","Y","4","7"],"specialIndexes":[]}},"input":{"rows":64,"columns":63,"weights":{"0":1.6948024034500122,"1":0.3871628940105438,"2":2.6095826625823975,"3":3.253465175628662,"4":0.17895722389221191,"5":0.35519373416900635,"6":-0.28138765692710876,"7":0.010523690842092037,"8":1.1291168928146362,"9":-0.044307608157396317,"10":1.8103257417678833,"11":0.9677885174751282,"12":0.06199096143245697,"13":-1.3255692720413208,"14":1.3924720287322998,"15":0.8859723210334778,"16":0.44453683495521545,"17":0.48048847913742065,"18":-0.35290098190307617,"19":-0.8135154247283936,"20":-0.4168619215488434,"21":1.807108759880066,"22":2.6677350997924805,"23":0.1313583105802536,"24":1.52397882938385,"25":0.0943545326590538,"26":0.9370968341827393,"27":0.22843949496746063,"28":1.279849886894226,"29":0.35770532488822937,"30":0.8007598519325256,"31":-0.7680681347846985,"32":-0.6269095540046692,"33":1.7138538360595703,"34":-0.33108729124069214,"35":-1.9632563591003418,"36":-0.7586060166358948,"37":-0.09519705176353455,"38":-2.494426965713501,"39":-0.4466545879840851,"40":-0.1454349011182785,"41":1.933841347694397,"42":-0.8871846199035645,"43":-0.4634508490562439,"44":-0.9087976217269897,"45":-2.410595655441284,"46":-0.7816041111946106,"47":1.1916462182998657,"48":2.6073379516601562,"49":1.9745666980743408,"50":1.6637381315231323,"51":2.8182175159454346,"52":0.06516167521476746,"53":1.1769578456878662,"54":-1.5723884105682373,"55":0.09915424883365631,"56":1.312233567237854,"57":-0.5011893510818481,"58":-0.7762143015861511,"59":-0.6412384510040283,"60":2.004135847091675,"61":0.5263117551803589,"62":1.814976453781128,"63":2.9143526554107666,"64":-9.214101791381836,"65":4.2268147468566895,"66":-3.620621919631958,"67":-3.2309141159057617,"68":0.283252090215683,"69":-0.3975071310997009,"70":-2.3287580013275146,"71":3.2351014614105225,"72":-7.252013206481934,"73":2.047621250152588,"74":0.8203034400939941,"75":-2.9773855209350586,"76":3.3398680686950684,"77":3.3425002098083496,"78":6.4354166984558105,"79":1.037786602973938,"80":-1.6294567584991455,"81":0.6535057425498962,"82":-7.9985761642456055,"83":-0.3460400402545929,"84":-0.8015626668930054,"85":-5.4812846183776855,"86":-1.662021279335022,"87":5.184065341949463,"88":-5.088843822479248,"89":0.6581678986549377,"90":4.558653831481934,"91":-3.099294662475586,"92":3.3621726036071777,"93":-0.16117343306541443,"94":11.808246612548828,"95":7.78261137008667,"96":-2.7864739894866943,"97":0.7247695922851562,"98":-2.641582727432251,"99":10.04023265838623,"100":3.526397943496704,"101":-7.093890190124512,"102":-6.2201337814331055,"103":-1.494754672050476,"104":-2.875640392303467,"105":-1.5615718364715576,"106":-2.321521520614624,"107":-1.7695512771606445,"108":-8.414981842041016,"109":0.4805804491043091,"110":-3.1679189205169678,"111":0.768826961517334,"112":3.577512502670288,"113":5.733122825622559,"114":2.268235445022583,"115":-4.614012718200684,"116":-2.2455525398254395,"117":10.394707679748535,"118":6.399496078491211,"119":3.8686487674713135,"120":6.162380218505859,"121":-1.1504974365234375,"122":-0.16295288503170013,"123":7.789336681365967,"124":-9.479194641113281,"125":5.5436553955078125,"126":-0.15317165851593018,"127":0.1766788363456726,"128":-0.019376058131456375,"129":2.0428028106689453,"130":1.5187039375305176,"131":-0.39101171493530273,"132":-0.8533341288566589,"133":-0.2163131833076477,"134":0.9064422249794006,"135":-0.9676171541213989,"136":0.674979031085968,"137":-0.639370322227478,"138":0.8575043678283691,"139":0.9034900069236755,"140":-1.5185778141021729,"141":-1.6204863786697388,"142":1.000833511352539,"143":2.7155239582061768,"144":-0.09241319447755814,"145":-1.872868537902832,"146":2.1979031562805176,"147":-1.6267632246017456,"148":0.5098711252212524,"149":-1.979345679283142,"150":-1.3882805109024048,"151":0.2421581894159317,"152":0.20684871077537537,"153":1.904548168182373,"154":1.0116517543792725,"155":1.8550094366073608,"156":0.27054277062416077,"157":1.6060266494750977,"158":-1.2747360467910767,"159":-2.2728805541992188,"160":-0.40212640166282654,"161":-0.7932623028755188,"162":0.9789458513259888,"163":0.9814013242721558,"164":0.16358548402786255,"165":-0.7773196697235107,"166":-4.2793498039245605,"167":0.07614763081073761,"168":1.0289437770843506,"169":-0.1865711510181427,"170":1.489493727684021,"171":-1.1084033250808716,"172":-1.6948018074035645,"173":-0.25447535514831543,"174":2.104574203491211,"175":-1.3674232959747314,"176":-0.04695424810051918,"177":-1.1333529949188232,"178":-0.2237541824579239,"179":-0.5129337906837463,"180":1.0542515516281128,"181":2.110426664352417,"182":2.162175416946411,"183":3.003476142883301,"184":1.4537204504013062,"185":-2.121081829071045,"186":2.1286606788635254,"187":-0.4211925268173218,"188":1.3011010885238647,"189":-6.20515775680542,"190":-7.057998180389404,"191":-1.3878616094589233,"192":-0.052501607686281204,"193":-0.07984934002161026,"194":1.7512850761413574,"195":0.40308043360710144,"196":0.32555678486824036,"197":-5.68436336517334,"198":-6.049962043762207,"199":0.9863705635070801,"200":-4.6923346519470215,"201":3.7437868118286133,"202":3.658238649368286,"203":0.10052185505628586,"204":0.49480247497558594,"205":7.886150360107422,"206":2.3772878646850586,"207":-0.6306894421577454,"208":2.460070848464966,"209":4.469211578369141,"210":-4.307860851287842,"211":-1.5113309621810913,"212":-7.69724178314209,"213":-4.690179824829102,"214":2.883192300796509,"215":0.8529338836669922,"216":-2.34586238861084,"217":-0.7594045400619507,"218":4.627044677734375,"219":-2.624669075012207,"220":5.801197052001953,"221":-1.7658040523529053,"222":-3.0933926105499268,"223":0.775532603263855,"224":-2.6474242210388184,"225":2.0377864837646484,"226":-4.187727928161621,"227":-2.2824671268463135,"228":-1.4475898742675781,"229":-0.27574703097343445,"230":1.16557776927948,"231":7.376216888427734,"232":-0.6318097114562988,"233":2.452845811843872,"234":-6.028926372528076,"235":0.23990029096603394,"236":2.4842257499694824,"237":3.1001737117767334,"238":0.8762063384056091,"239":3.826691150665283,"240":-6.96674108505249,"241":-4.617341995239258,"242":-5.834343910217285,"243":-3.3312315940856934,"244":-0.3729206919670105,"245":3.372927665710449,"246":3.4688644409179688,"247":3.0310757160186768,"248":-1.2337826490402222,"249":3.725719928741455,"250":0.8286705613136292,"251":3.0922694206237793,"252":-0.6701844930648804,"253":4.3322834968566895,"254":-3.247138738632202,"255":-2.239098072052002,"256":-1.5927082300186157,"257":-1.703918695449829,"258":-0.10183294117450714,"259":0.9892310500144958,"260":-0.8491555452346802,"261":3.2660837173461914,"262":-1.7020288705825806,"263":0.6606268882751465,"264":1.202183485031128,"265":-1.205451250076294,"266":-1.9043161869049072,"267":-2.8398830890655518,"268":-0.9578888416290283,"269":-1.4071311950683594,"270":0.052074532955884933,"271":-1.745813012123108,"272":-0.8210077881813049,"273":-0.8655046224594116,"274":2.9746391773223877,"275":3.101830244064331,"276":0.4883583188056946,"277":1.4893471002578735,"278":-5.250107765197754,"279":1.543296217918396,"280":-1.839564561843872,"281":-0.8844684362411499,"282":-0.0032401683274656534,"283":0.3013363778591156,"284":1.729486346244812,"285":2.10477352142334,"286":1.6288212537765503,"287":-0.2598622441291809,"288":0.7165838479995728,"289":1.4079158306121826,"290":3.7431490421295166,"291":0.765834629535675,"292":-0.7325719594955444,"293":2.095601797103882,"294":-2.3486924171447754,"295":1.4824849367141724,"296":-0.4788641631603241,"297":3.44936203956604,"298":-2.0755534172058105,"299":0.24988208711147308,"300":-5.072468280792236,"301":1.427180528640747,"302":-0.5921957492828369,"303":1.55524742603302,"304":0.8483536839485168,"305":1.9566102027893066,"306":3.959026336669922,"307":-2.3659279346466064,"308":0.020176179707050323,"309":1.82820463180542,"310":-0.22988881170749664,"311":-4.096654415130615,"312":-0.37320852279663086,"313":-0.8434799313545227,"314":-1.9930055141448975,"315":0.7313220500946045,"316":-3.68454647064209,"317":0.18536165356636047,"318":0.9519851803779602,"319":-1.3837976455688477,"320":1.5293306112289429,"321":0.47173595428466797,"322":0.2348785251379013,"323":-1.1719225645065308,"324":-1.553450345993042,"325":2.049060821533203,"326":0.0019502362702041864,"327":0.6535875201225281,"328":1.2773544788360596,"329":2.717714548110962,"330":2.6796770095825195,"331":2.938452959060669,"332":-1.7495304346084595,"333":1.016511082649231,"334":-1.6736201047897339,"335":-0.4893687069416046,"336":2.3624634742736816,"337":0.15520600974559784,"338":1.3201814889907837,"339":1.1193631887435913,"340":-2.068577766418457,"341":-0.39970409870147705,"342":-2.1167726516723633,"343":-0.7338092923164368,"344":-2.0101234912872314,"345":1.272734522819519,"346":-0.45182767510414124,"347":0.7146697640419006,"348":0.032923996448516846,"349":-0.07683803886175156,"350":-1.223669409751892,"351":-1.8687210083007812,"352":0.4015040993690491,"353":-0.12780295312404633,"354":0.7602916359901428,"355":0.9068669676780701,"356":1.5090023279190063,"357":2.8276619911193848,"358":0.7557061910629272,"359":0.12002263963222504,"360":-0.7412470579147339,"361":2.3826236724853516,"362":2.900357961654663,"363":2.0433313846588135,"364":0.04944166913628578,"365":0.7409199476242065,"366":0.6269810795783997,"367":-0.31058746576309204,"368":-0.7892583012580872,"369":-1.975237250328064,"370":-0.8477565050125122,"371":-1.4060462713241577,"372":-0.6909980773925781,"373":-1.6484229564666748,"374":1.974800944328308,"375":2.002666711807251,"376":0.8414855599403381,"377":1.3339263200759888,"378":-0.4620963931083679,"379":0.6535794734954834,"380":-1.6950205564498901,"381":1.8802999258041382,"382":0.7917281985282898,"383":1.8542546033859253,"384":-1.190163254737854,"385":-1.1680335998535156,"386":1.5887670516967773,"387":0.310525506734848,"388":2.038492441177368,"389":-4.7637457847595215,"390":-1.6759742498397827,"391":-2.0494730472564697,"392":0.701099157333374,"393":2.5233633518218994,"394":0.2072034627199173,"395":-0.3828524053096771,"396":0.8715649247169495,"397":-0.7261499762535095,"398":0.3174234628677368,"399":-2.2025201320648193,"400":1.1278133392333984,"401":-1.5641913414001465,"402":1.638026237487793,"403":0.31134912371635437,"404":-0.2560497224330902,"405":-1.589850902557373,"406":-1.4670063257217407,"407":0.3900083005428314,"408":-0.23869368433952332,"409":1.06301748752594,"410":-3.853153944015503,"411":-3.116018295288086,"412":-1.6280853748321533,"413":-0.6037928462028503,"414":-0.22419317066669464,"415":-0.5775650143623352,"416":-0.3638063073158264,"417":0.7663264870643616,"418":-1.69642972946167,"419":-2.9740447998046875,"420":0.08946175873279572,"421":-1.5783754587173462,"422":-0.20822682976722717,"423":3.3979129791259766,"424":-1.504944920539856,"425":-2.006120204925537,"426":-2.621737480163574,"427":2.3015639781951904,"428":-0.18134208023548126,"429":-1.6272521018981934,"430":1.73812735080719,"431":-2.0327024459838867,"432":1.2726128101348877,"433":0.40125104784965515,"434":0.1114121526479721,"435":4.404770851135254,"436":0.9793272018432617,"437":1.5352123975753784,"438":3.652468204498291,"439":0.9131585359573364,"440":-1.781250238418579,"441":0.801432728767395,"442":1.4803656339645386,"443":-0.3040735721588135,"444":2.1192708015441895,"445":1.7727478742599487,"446":-1.4500346183776855,"447":-0.5870920419692993,"448":0.12108953297138214,"449":-0.3666589558124542,"450":-0.31780868768692017,"451":-0.88048255443573,"452":-0.37211093306541443,"453":-0.42103803157806396,"454":-0.05195492133498192,"455":-0.7357425093650818,"456":-4.018482685089111,"457":1.055192470550537,"458":3.9569191932678223,"459":-0.4788352847099304,"460":-2.3065741062164307,"461":1.3883942365646362,"462":-0.7844933867454529,"463":0.6656278967857361,"464":-0.8234469890594482,"465":0.06069866940379143,"466":0.7541241645812988,"467":0.5047865509986877,"468":-1.976248860359192,"469":-1.311771035194397,"470":-0.2560700476169586,"471":-2.9099504947662354,"472":-2.5643036365509033,"473":-3.614213466644287,"474":-2.8185296058654785,"475":2.386532783508301,"476":0.8503986597061157,"477":0.40905195474624634,"478":-0.2677643597126007,"479":0.693457841873169,"480":0.37045714259147644,"481":-2.2581787109375,"482":-2.3030691146850586,"483":0.27676981687545776,"484":-0.49190670251846313,"485":1.8291635513305664,"486":-0.3614555895328522,"487":-2.3331823348999023,"488":-1.4136172533035278,"489":-1.2468026876449585,"490":-3.100435256958008,"491":-1.2920920848846436,"492":-0.723147451877594,"493":1.7434051036834717,"494":-2.055995225906372,"495":0.7880753874778748,"496":-0.7368654608726501,"497":2.542250156402588,"498":1.3720978498458862,"499":1.2609689235687256,"500":-4.386014461517334,"501":2.1546154022216797,"502":0.038674384355545044,"503":0.8723777532577515,"504":0.2558954060077667,"505":3.434495687484741,"506":3.779719829559326,"507":1.4099560976028442,"508":1.7809404134750366,"509":2.2746846675872803,"510":-0.43364691734313965,"511":-1.3438475131988525,"512":3.139234781265259,"513":1.7589348554611206,"514":-0.3661356270313263,"515":1.8090382814407349,"516":0.24032077193260193,"517":-1.6071674823760986,"518":0.19906261563301086,"519":-2.6876211166381836,"520":-2.7853565216064453,"521":-1.8310843706130981,"522":-1.4999446868896484,"523":0.08346299082040787,"524":-2.7477104663848877,"525":3.071160316467285,"526":-0.8622471690177917,"527":1.1865488290786743,"528":-0.422711044549942,"529":1.835598111152649,"530":1.4382597208023071,"531":2.6110522747039795,"532":-1.0968879461288452,"533":1.4358391761779785,"534":-1.3249937295913696,"535":-3.5093138217926025,"536":-3.4466633796691895,"537":0.4771813154220581,"538":2.641484022140503,"539":1.1615004539489746,"540":-1.4125769138336182,"541":-0.5397442579269409,"542":-1.3232612609863281,"543":-2.4608633518218994,"544":-3.0633909702301025,"545":-3.2160680294036865,"546":1.1859805583953857,"547":1.1804640293121338,"548":-0.015114083886146545,"549":-0.041200652718544006,"550":-5.1209187507629395,"551":-1.332646131515503,"552":0.7405741810798645,"553":-0.8957557678222656,"554":-1.1532493829727173,"555":-1.3587367534637451,"556":1.1094155311584473,"557":-0.6333709359169006,"558":-2.664708375930786,"559":-2.9862616062164307,"560":-1.0720431804656982,"561":2.153456926345825,"562":-1.6512811183929443,"563":-0.33948588371276855,"564":4.147017002105713,"565":3.201033592224121,"566":2.877178907394409,"567":-1.1197686195373535,"568":-1.0791528224945068,"569":0.621408224105835,"570":1.8737199306488037,"571":-0.6148402690887451,"572":-0.5721455812454224,"573":0.36192232370376587,"574":-0.8719645738601685,"575":-2.5776681900024414,"576":-0.3581298291683197,"577":-0.09751663357019424,"578":-1.829504132270813,"579":0.8659572601318359,"580":-1.7869389057159424,"581":-2.0656960010528564,"582":0.20029254257678986,"583":-0.517626166343689,"584":-2.168398857116699,"585":1.2274404764175415,"586":1.7930668592453003,"587":1.9739863872528076,"588":1.354453206062317,"589":4.828441619873047,"590":2.60502290725708,"591":2.820526599884033,"592":-0.25890275835990906,"593":0.45696330070495605,"594":2.408780097961426,"595":2.554633378982544,"596":-0.6464194655418396,"597":2.592778205871582,"598":0.28846776485443115,"599":0.8543328046798706,"600":2.2174532413482666,"601":0.0156314205378294,"602":-1.466873288154602,"603":1.5084552764892578,"604":1.2670798301696777,"605":1.2285513877868652,"606":-1.7643054723739624,"607":2.4974076747894287,"608":2.356283187866211,"609":-0.5336518883705139,"610":-2.02547550201416,"611":-2.23793888092041,"612":1.9003942012786865,"613":1.018797516822815,"614":1.9582668542861938,"615":2.025792360305786,"616":-0.13342981040477753,"617":1.1961666345596313,"618":3.002114772796631,"619":-1.1714369058609009,"620":1.8246686458587646,"621":-0.4253805875778198,"622":-0.37586602568626404,"623":-1.767422080039978,"624":1.3126121759414673,"625":-0.7370874881744385,"626":0.8706333041191101,"627":-0.7328296303749084,"628":-0.7735701203346252,"629":-3.288004159927368,"630":-2.4127261638641357,"631":-3.001157283782959,"632":2.0302364826202393,"633":-0.20732124149799347,"634":-2.100957155227661,"635":-0.39653074741363525,"636":0.007506868336349726,"637":-3.0426597595214844,"638":-0.7925487160682678,"639":1.6649069786071777,"640":-2.3261148929595947,"641":2.7360239028930664,"642":1.8254927396774292,"643":0.690360426902771,"644":-1.4544872045516968,"645":-0.7939784526824951,"646":-0.8178144097328186,"647":-1.083935022354126,"648":-1.2061703205108643,"649":0.5161177515983582,"650":1.0846900939941406,"651":-2.8977935314178467,"652":-1.357780933380127,"653":-2.6459617614746094,"654":-2.472456455230713,"655":1.4671634435653687,"656":-0.7564735412597656,"657":1.2530081272125244,"658":-0.08898396044969559,"659":1.2588341236114502,"660":0.4302297830581665,"661":-2.557030200958252,"662":-1.1312974691390991,"663":2.486098289489746,"664":0.2394915521144867,"665":3.1459248065948486,"666":-3.1024904251098633,"667":0.3932496905326843,"668":1.5355620384216309,"669":-0.1717015504837036,"670":0.565740168094635,"671":-0.7421342134475708,"672":-1.3559908866882324,"673":2.188542604446411,"674":3.8913393020629883,"675":1.528344988822937,"676":0.035060107707977295,"677":-3.058398723602295,"678":-0.9645096063613892,"679":-1.225020408630371,"680":-3.1064846515655518,"681":-1.9337124824523926,"682":-1.3329017162322998,"683":1.3979936838150024,"684":-0.6482624411582947,"685":2.950098752975464,"686":-3.167689561843872,"687":-1.7082362174987793,"688":-2.4429879188537598,"689":3.0021798610687256,"690":-2.0116031169891357,"691":-0.8525448441505432,"692":-3.875082492828369,"693":-0.3634583652019501,"694":1.0085887908935547,"695":-0.08743900805711746,"696":0.6486989855766296,"697":2.4332447052001953,"698":-0.2052365392446518,"699":-0.3764650225639343,"700":1.2784470319747925,"701":-0.9604139924049377,"702":-1.3112225532531738,"703":-0.5731669068336487,"704":0.07199659943580627,"705":2.030492067337036,"706":1.593677282333374,"707":1.5513620376586914,"708":0.8303999900817871,"709":2.311312437057495,"710":0.048309534788131714,"711":0.6787586212158203,"712":-3.6221251487731934,"713":-0.36977553367614746,"714":-0.4539068639278412,"715":-0.7676035165786743,"716":-0.31325921416282654,"717":0.6731485724449158,"718":1.3078926801681519,"719":-1.9728367328643799,"720":0.10967620462179184,"721":1.626023530960083,"722":1.7561042308807373,"723":0.6201757192611694,"724":3.4284448623657227,"725":-1.4500800371170044,"726":0.8569605946540833,"727":1.7217124700546265,"728":-0.13046687841415405,"729":0.8980981111526489,"730":0.9491981267929077,"731":2.5324594974517822,"732":-0.9859604835510254,"733":-2.253340482711792,"734":-1.4060115814208984,"735":2.8915164470672607,"736":3.650890350341797,"737":-1.323102355003357,"738":-0.5714073181152344,"739":-3.3625705242156982,"740":-0.943458080291748,"741":-0.3000152111053467,"742":2.1628167629241943,"743":-1.1144263744354248,"744":-1.8625900745391846,"745":-3.998166084289551,"746":-2.1613335609436035,"747":-1.8841609954833984,"748":1.1972260475158691,"749":1.1636446714401245,"750":1.1131184101104736,"751":2.3837337493896484,"752":-1.7190234661102295,"753":1.197644829750061,"754":2.2523367404937744,"755":2.539376974105835,"756":0.7103350162506104,"757":-2.1897189617156982,"758":-1.694778323173523,"759":1.5518773794174194,"760":-1.0465210676193237,"761":-1.3591723442077637,"762":1.276954174041748,"763":-2.0395445823669434,"764":-2.0629756450653076,"765":-0.6036622524261475,"766":-1.2270479202270508,"767":-1.1771687269210815,"768":-0.7053243517875671,"769":0.08984803408384323,"770":-1.6839370727539062,"771":0.11519502103328705,"772":-1.4535342454910278,"773":-2.886730670928955,"774":1.500957727432251,"775":1.8875150680541992,"776":-1.7168920040130615,"777":-1.7374155521392822,"778":2.8500401973724365,"779":1.1437640190124512,"780":3.7776553630828857,"781":-0.8199273347854614,"782":-0.5235790014266968,"783":0.8567627668380737,"784":-0.014973497949540615,"785":1.1712944507598877,"786":2.6234395503997803,"787":0.2533431649208069,"788":-0.6377004384994507,"789":4.57227087020874,"790":-1.505714774131775,"791":-2.107888698577881,"792":1.5065275430679321,"793":-1.3353270292282104,"794":0.8012787699699402,"795":-0.22002175450325012,"796":-0.4998604357242584,"797":4.810572147369385,"798":-3.1796493530273438,"799":-1.7967032194137573,"800":-0.8476184010505676,"801":1.0354219675064087,"802":4.1021223068237305,"803":2.7294154167175293,"804":1.443789005279541,"805":2.6569581031799316,"806":1.4452900886535645,"807":3.304856300354004,"808":0.5523511171340942,"809":4.1021809577941895,"810":-0.3882547616958618,"811":-1.226086139678955,"812":-2.0068087577819824,"813":-0.013399629853665829,"814":-0.660677433013916,"815":0.6252778768539429,"816":0.18275503814220428,"817":-0.3961578905582428,"818":-3.0053329467773438,"819":-0.5118247866630554,"820":-2.8365464210510254,"821":-0.2676909565925598,"822":3.6894407272338867,"823":0.3849353790283203,"824":-0.9741730690002441,"825":-0.9864406585693359,"826":-2.566384792327881,"827":-1.6453980207443237,"828":-4.862698554992676,"829":0.6283559799194336,"830":-2.691516876220703,"831":-0.16139481961727142,"832":2.4818148612976074,"833":-2.9551632404327393,"834":-4.831152439117432,"835":2.3385889530181885,"836":3.4728128910064697,"837":-0.06994932889938354,"838":-3.653179407119751,"839":4.832753658294678,"840":-1.7811533212661743,"841":1.7167868614196777,"842":-1.065817952156067,"843":-2.9132847785949707,"844":0.8051609396934509,"845":0.39751380681991577,"846":4.5407938957214355,"847":0.1290893852710724,"848":0.5202547907829285,"849":-1.550602674484253,"850":-0.600099503993988,"851":-0.2018681764602661,"852":-3.630847215652466,"853":0.13581688702106476,"854":-1.277606725692749,"855":2.6188547611236572,"856":1.8079125881195068,"857":-0.08015929907560349,"858":-1.8036056756973267,"859":-3.7617526054382324,"860":-1.8224446773529053,"861":-0.39766669273376465,"862":-0.9931710958480835,"863":3.4951212406158447,"864":-2.266834259033203,"865":-1.8322627544403076,"866":-0.6344424486160278,"867":2.871124267578125,"868":-0.6558257937431335,"869":1.245822787284851,"870":-2.7924773693084717,"871":-0.16232334077358246,"872":-1.1675471067428589,"873":-1.8601915836334229,"874":0.6722210049629211,"875":0.1508641093969345,"876":2.4538681507110596,"877":-0.04392758011817932,"878":-4.3371357917785645,"879":3.226834774017334,"880":-0.8984508514404297,"881":5.7263102531433105,"882":1.2387545108795166,"883":-2.2330377101898193,"884":3.9243505001068115,"885":-1.745525598526001,"886":-0.39270663261413574,"887":1.253838062286377,"888":-0.8374407291412354,"889":-1.1522520780563354,"890":0.19929899275302887,"891":0.5923153162002563,"892":-0.29283228516578674,"893":5.0333662033081055,"894":1.5576767921447754,"895":2.5590643882751465,"896":-3.5840158462524414,"897":-0.9462206959724426,"898":-0.3937492072582245,"899":0.26248329877853394,"900":-1.3845094442367554,"901":-0.3378240466117859,"902":-0.42010292410850525,"903":0.60756516456604,"904":-2.911829948425293,"905":1.366339921951294,"906":-6.152861595153809,"907":-2.404717445373535,"908":2.0295586585998535,"909":-0.778220534324646,"910":4.713893890380859,"911":0.3696994185447693,"912":-0.6695054769515991,"913":-1.4517046213150024,"914":-0.8465610146522522,"915":-4.09844970703125,"916":4.044473171234131,"917":3.3809661865234375,"918":-0.14970041811466217,"919":1.2250032424926758,"920":1.6929519176483154,"921":-0.032295338809490204,"922":1.6269862651824951,"923":-1.1382367610931396,"924":2.9680404663085938,"925":0.06111448258161545,"926":4.02244234085083,"927":-3.333266258239746,"928":1.1641079187393188,"929":0.4346945583820343,"930":2.9933278560638428,"931":-3.30704927444458,"932":-2.567518472671509,"933":-0.14439043402671814,"934":2.5375287532806396,"935":-4.155023097991943,"936":-3.3370614051818848,"937":2.9868783950805664,"938":1.1969250440597534,"939":-0.7268185019493103,"940":5.354372501373291,"941":1.5795246362686157,"942":-5.362658977508545,"943":0.376244455575943,"944":4.037448883056641,"945":-5.722781181335449,"946":-3.274521589279175,"947":-1.7862507104873657,"948":-6.819645881652832,"949":-3.8083629608154297,"950":2.5478689670562744,"951":4.875820159912109,"952":-8.653382301330566,"953":-5.861202239990234,"954":-2.203233480453491,"955":4.093530654907227,"956":-6.096424102783203,"957":-1.131712794303894,"958":2.8117740154266357,"959":-2.7852792739868164,"960":-2.8538501262664795,"961":-0.7625225782394409,"962":1.645306944847107,"963":2.606823444366455,"964":2.9103734493255615,"965":-0.7266309261322021,"966":0.6523130536079407,"967":-1.1652121543884277,"968":-3.350484848022461,"969":-9.710272789001465,"970":-3.2997817993164062,"971":-1.5567800998687744,"972":-2.9912924766540527,"973":-3.8348710536956787,"974":-5.42641019821167,"975":-2.2023415565490723,"976":-2.611440420150757,"977":6.710773944854736,"978":0.6640055179595947,"979":-1.0481305122375488,"980":4.024176597595215,"981":-2.0680136680603027,"982":-1.5799957513809204,"983":1.3217543363571167,"984":-0.8622859716415405,"985":-1.8942396640777588,"986":-10.10462760925293,"987":8.539281845092773,"988":-3.7716798782348633,"989":4.018950939178467,"990":-5.534187316894531,"991":8.245061874389648,"992":-1.1829434633255005,"993":-1.8120064735412598,"994":-1.266592264175415,"995":-0.4949701130390167,"996":-8.46098804473877,"997":-0.9145878553390503,"998":-7.667044639587402,"999":7.398061275482178,"1000":4.597336292266846,"1001":-3.335296869277954,"1002":5.753994941711426,"1003":0.46422216296195984,"1004":-3.5210204124450684,"1005":1.004474401473999,"1006":-12.461929321289062,"1007":0.561962902545929,"1008":4.959914684295654,"1009":-0.2827771306037903,"1010":-1.940416932106018,"1011":-0.002171461470425129,"1012":-3.6263089179992676,"1013":-2.862684488296509,"1014":-1.2630504369735718,"1015":2.5154170989990234,"1016":-1.137396216392517,"1017":-0.7982669472694397,"1018":-1.3089975118637085,"1019":2.219728946685791,"1020":1.248971700668335,"1021":1.6442480087280273,"1022":-1.8368571996688843,"1023":-2.6732094287872314,"1024":0.33918553590774536,"1025":3.025240898132324,"1026":-0.5933355689048767,"1027":-1.5715919733047485,"1028":1.0371148586273193,"1029":-1.720554232597351,"1030":-1.9848617315292358,"1031":2.646122455596924,"1032":-1.54489004611969,"1033":2.6919050216674805,"1034":0.5208594799041748,"1035":0.09668517857789993,"1036":2.7510247230529785,"1037":-4.012232303619385,"1038":-0.30963143706321716,"1039":-0.6768065690994263,"1040":-0.27680471539497375,"1041":-0.7081985473632812,"1042":0.1812581717967987,"1043":2.687323570251465,"1044":-1.9620660543441772,"1045":-2.9106123447418213,"1046":2.865586757659912,"1047":0.19313377141952515,"1048":4.348478317260742,"1049":1.3727179765701294,"1050":1.2889349460601807,"1051":3.1432275772094727,"1052":0.027503876015543938,"1053":-1.6460471153259277,"1054":2.350670337677002,"1055":-0.05767448619008064,"1056":-2.118039846420288,"1057":0.04430868849158287,"1058":-4.146849155426025,"1059":1.9590210914611816,"1060":1.7105567455291748,"1061":1.1808991432189941,"1062":-0.7483135461807251,"1063":2.2449886798858643,"1064":1.7350125312805176,"1065":-6.794245719909668,"1066":1.5373252630233765,"1067":-2.0658481121063232,"1068":-6.900193214416504,"1069":2.6472253799438477,"1070":0.4728480577468872,"1071":0.6481575965881348,"1072":1.492292046546936,"1073":-2.826228618621826,"1074":-3.7245659828186035,"1075":1.3537046909332275,"1076":-0.9108653664588928,"1077":0.7977712750434875,"1078":0.722449541091919,"1079":1.2234848737716675,"1080":-1.71702241897583,"1081":1.13231360912323,"1082":0.8306431174278259,"1083":-2.6874804496765137,"1084":-1.1132690906524658,"1085":0.9542147517204285,"1086":-0.3741894066333771,"1087":-2.0540151596069336,"1088":2.909916639328003,"1089":2.0269339084625244,"1090":2.065593957901001,"1091":-1.295833706855774,"1092":0.9915900230407715,"1093":1.188710331916809,"1094":2.0786523818969727,"1095":0.33649516105651855,"1096":-1.114487886428833,"1097":5.971654415130615,"1098":-0.10605192929506302,"1099":2.5686724185943604,"1100":-3.363734722137451,"1101":0.3013491928577423,"1102":0.025980811566114426,"1103":-0.12491336464881897,"1104":-2.5541207790374756,"1105":0.3422054052352905,"1106":-1.2951390743255615,"1107":1.308282732963562,"1108":-2.0620574951171875,"1109":-2.2905099391937256,"1110":0.4263336956501007,"1111":0.7658268213272095,"1112":-1.4970494508743286,"1113":-1.7992675304412842,"1114":-3.093315601348877,"1115":-1.7311097383499146,"1116":-2.8885297775268555,"1117":-1.6313167810440063,"1118":2.1397738456726074,"1119":2.6005187034606934,"1120":-3.958381414413452,"1121":2.9048235416412354,"1122":-1.5249937772750854,"1123":3.336230754852295,"1124":-1.1306012868881226,"1125":2.677403450012207,"1126":-0.4501234292984009,"1127":1.5509275197982788,"1128":-0.48983222246170044,"1129":-1.8391555547714233,"1130":-3.281219482421875,"1131":-1.781964898109436,"1132":-3.848445177078247,"1133":2.560199737548828,"1134":-1.6520626544952393,"1135":0.2896062433719635,"1136":1.4059512615203857,"1137":-1.6812132596969604,"1138":-1.2392022609710693,"1139":1.1212514638900757,"1140":0.9248634576797485,"1141":-0.9396416544914246,"1142":1.3318475484848022,"1143":-1.3901431560516357,"1144":-1.6235662698745728,"1145":-2.760894298553467,"1146":-0.07594921439886093,"1147":-0.5814759135246277,"1148":-2.397031784057617,"1149":-0.6756609678268433,"1150":-0.5694778561592102,"1151":0.9360538721084595,"1152":-0.7780747413635254,"1153":0.5652970671653748,"1154":1.3880971670150757,"1155":0.3953552544116974,"1156":-0.9522947669029236,"1157":-1.1875638961791992,"1158":-1.3512934446334839,"1159":0.5339617729187012,"1160":0.8515048623085022,"1161":-1.2278507947921753,"1162":0.4477389454841614,"1163":0.7560043931007385,"1164":-1.5305273532867432,"1165":-1.8403596878051758,"1166":-1.7613180875778198,"1167":-1.5406335592269897,"1168":2.0055179595947266,"1169":-0.1763187050819397,"1170":1.0399986505508423,"1171":2.5353879928588867,"1172":1.1381511688232422,"1173":-2.872816324234009,"1174":-0.9850115776062012,"1175":-1.893704891204834,"1176":0.06778395920991898,"1177":-1.8180336952209473,"1178":1.1122933626174927,"1179":2.3431737422943115,"1180":-0.3595368266105652,"1181":-1.8919116258621216,"1182":-0.8841907978057861,"1183":0.4134787917137146,"1184":-0.31285133957862854,"1185":-0.8890902400016785,"1186":-2.3474957942962646,"1187":-0.16048894822597504,"1188":-1.475273847579956,"1189":1.1823455095291138,"1190":-1.2681103944778442,"1191":-0.41807952523231506,"1192":-2.5119144916534424,"1193":3.1123135089874268,"1194":-0.23214784264564514,"1195":2.240908622741699,"1196":-2.2835843563079834,"1197":1.4863877296447754,"1198":2.670799970626831,"1199":1.531874179840088,"1200":5.448857307434082,"1201":-1.5169084072113037,"1202":1.7257170677185059,"1203":-4.4424662590026855,"1204":-6.009881973266602,"1205":-0.07009002566337585,"1206":-5.011892795562744,"1207":0.5124236345291138,"1208":-3.9186463356018066,"1209":3.5766634941101074,"1210":-8.869765281677246,"1211":-6.592145919799805,"1212":-2.64687180519104,"1213":-5.115391731262207,"1214":-4.581225395202637,"1215":4.705217361450195,"1216":1.5034862756729126,"1217":-8.789961814880371,"1218":-0.9355146884918213,"1219":4.764370441436768,"1220":3.401555061340332,"1221":7.122745513916016,"1222":4.140589714050293,"1223":-1.6175402402877808,"1224":11.104532241821289,"1225":4.337021350860596,"1226":-4.983821868896484,"1227":4.388107776641846,"1228":-7.730302810668945,"1229":-6.019927978515625,"1230":-3.436666250228882,"1231":-0.813607931137085,"1232":-8.486169815063477,"1233":-1.3221780061721802,"1234":-4.863102912902832,"1235":-0.05403546988964081,"1236":7.7624382972717285,"1237":-1.4366788864135742,"1238":8.888768196105957,"1239":-11.823990821838379,"1240":-1.3767093420028687,"1241":1.40080988407135,"1242":2.124316692352295,"1243":0.011542383581399918,"1244":-1.4953488111495972,"1245":1.3387210369110107,"1246":-3.981232166290283,"1247":-1.0158029794692993,"1248":-3.783045530319214,"1249":4.285170078277588,"1250":0.39831870794296265,"1251":-6.069162368774414,"1252":-2.660731792449951,"1253":-1.3296912908554077,"1254":1.409045934677124,"1255":-1.5485485792160034,"1256":1.0817655324935913,"1257":-0.08608244359493256,"1258":0.8328039050102234,"1259":-0.5657490491867065,"1260":0.24776527285575867,"1261":0.788942277431488,"1262":0.42251020669937134,"1263":-2.1507482528686523,"1264":-3.619854211807251,"1265":-2.518869400024414,"1266":0.7584105730056763,"1267":0.28037887811660767,"1268":-1.7662022113800049,"1269":-0.8708935976028442,"1270":-3.2053306102752686,"1271":0.2598884701728821,"1272":-1.4210797548294067,"1273":2.7594804763793945,"1274":-0.13808032870292664,"1275":-2.313987970352173,"1276":2.492978572845459,"1277":4.824055194854736,"1278":-1.8806554079055786,"1279":0.2779309153556824,"1280":0.7537589073181152,"1281":0.061647769063711166,"1282":-4.475168228149414,"1283":-2.5732505321502686,"1284":-0.21419993042945862,"1285":1.344222068786621,"1286":-1.6412909030914307,"1287":-3.2588868141174316,"1288":-2.9889450073242188,"1289":-0.5140464305877686,"1290":-3.964601755142212,"1291":1.143092155456543,"1292":-1.927224040031433,"1293":-1.9318982362747192,"1294":-1.5665894746780396,"1295":5.067605018615723,"1296":0.6686964631080627,"1297":-2.7528018951416016,"1298":2.573552131652832,"1299":-1.3437997102737427,"1300":0.8406714797019958,"1301":-4.082881927490234,"1302":0.5005989670753479,"1303":3.311131715774536,"1304":1.691171646118164,"1305":1.3141393661499023,"1306":1.8963502645492554,"1307":-4.88138484954834,"1308":-4.178598403930664,"1309":0.3829452395439148,"1310":-3.524662971496582,"1311":-1.79069185256958,"1312":0.5335594415664673,"1313":-2.557422399520874,"1314":-0.4406193792819977,"1315":1.6222072839736938,"1316":0.1984066218137741,"1317":-1.7808632850646973,"1318":4.37859582901001,"1319":-0.4406242370605469,"1320":-1.0852469205856323,"1321":0.04773002117872238,"1322":2.5010385513305664,"1323":0.6722284555435181,"1324":2.9391536712646484,"1325":0.5476981997489929,"1326":1.1393862962722778,"1327":1.5309761762619019,"1328":-4.069319725036621,"1329":0.42102229595184326,"1330":3.5199062824249268,"1331":2.979918956756592,"1332":-1.8879432678222656,"1333":-0.3175741136074066,"1334":3.0539767742156982,"1335":0.11619622260332108,"1336":2.5535614490509033,"1337":1.4376596212387085,"1338":0.9207927584648132,"1339":-3.3722891807556152,"1340":-0.7210071682929993,"1341":-2.9969112873077393,"1342":-0.7846112847328186,"1343":0.012726595625281334,"1344":-1.2851250171661377,"1345":-1.5320889949798584,"1346":-3.917961597442627,"1347":0.4925493896007538,"1348":1.3034368753433228,"1349":-0.43196192383766174,"1350":-1.4349323511123657,"1351":0.1939978152513504,"1352":2.9905149936676025,"1353":-3.7666993141174316,"1354":1.973032832145691,"1355":-1.5987199544906616,"1356":-3.1681578159332275,"1357":2.1082942485809326,"1358":-0.1337440013885498,"1359":-1.20589280128479,"1360":-0.7995633482933044,"1361":0.519020676612854,"1362":2.39182448387146,"1363":-1.6150798797607422,"1364":-0.18477511405944824,"1365":-1.3875257968902588,"1366":4.5042338371276855,"1367":3.0413436889648438,"1368":2.4098715782165527,"1369":0.22724099457263947,"1370":1.753512978553772,"1371":0.5434834957122803,"1372":2.3556439876556396,"1373":-1.0883148908615112,"1374":0.03484135866165161,"1375":0.777112603187561,"1376":0.7246840596199036,"1377":-4.89041805267334,"1378":-2.0097439289093018,"1379":2.6274945735931396,"1380":-2.970879316329956,"1381":0.47903579473495483,"1382":2.752418041229248,"1383":-0.8600170016288757,"1384":2.9489572048187256,"1385":1.2471257448196411,"1386":-3.724277973175049,"1387":-5.71081018447876,"1388":7.113523960113525,"1389":1.6412475109100342,"1390":-0.5613676905632019,"1391":6.133976936340332,"1392":2.8596339225769043,"1393":-3.900315284729004,"1394":3.889399290084839,"1395":-1.9811015129089355,"1396":1.2541428804397583,"1397":-2.9368159770965576,"1398":-1.6006335020065308,"1399":5.64793586730957,"1400":5.151328086853027,"1401":3.136406898498535,"1402":1.2469960451126099,"1403":-1.0684752464294434,"1404":-2.523744583129883,"1405":-0.20705686509609222,"1406":0.7197704315185547,"1407":-0.9564269781112671,"1408":-5.023400783538818,"1409":-6.135110378265381,"1410":-1.2936513423919678,"1411":-0.10238903760910034,"1412":-1.6119656562805176,"1413":-4.31696081161499,"1414":0.4508720338344574,"1415":2.9638819694519043,"1416":-3.9149107933044434,"1417":-1.1986095905303955,"1418":-4.158699989318848,"1419":-5.281127452850342,"1420":-1.0225239992141724,"1421":0.1560029685497284,"1422":-1.625616192817688,"1423":3.0453357696533203,"1424":-2.389998435974121,"1425":-4.081334114074707,"1426":-3.7681620121002197,"1427":-2.90065336227417,"1428":4.024389743804932,"1429":0.29702287912368774,"1430":3.384220838546753,"1431":2.164156675338745,"1432":0.7510147094726562,"1433":-2.4132072925567627,"1434":0.4167753756046295,"1435":3.4153242111206055,"1436":3.7906272411346436,"1437":-6.633236885070801,"1438":-3.7222042083740234,"1439":-3.8472206592559814,"1440":-5.4974751472473145,"1441":0.7934526801109314,"1442":-2.335297107696533,"1443":2.4402947425842285,"1444":0.5217090845108032,"1445":3.189971446990967,"1446":5.703554630279541,"1447":-1.942650318145752,"1448":5.263772964477539,"1449":-5.063132286071777,"1450":14.827820777893066,"1451":2.854449987411499,"1452":-0.941504955291748,"1453":-0.8281410932540894,"1454":-14.080302238464355,"1455":-13.082965850830078,"1456":1.3971527814865112,"1457":-2.9463443756103516,"1458":-19.5449161529541,"1459":-16.486234664916992,"1460":-6.97651481628418,"1461":17.6870174407959,"1462":1.9056520462036133,"1463":-20.8558292388916,"1464":-18.916534423828125,"1465":1.4508123397827148,"1466":9.062920570373535,"1467":-28.2210750579834,"1468":13.0180082321167,"1469":13.14082145690918,"1470":-20.288578033447266,"1471":-23.190309524536133,"1472":-0.6101506948471069,"1473":7.104067325592041,"1474":5.188629627227783,"1475":1.3202930688858032,"1476":14.291850090026855,"1477":-3.850649356842041,"1478":15.242670059204102,"1479":-2.7300946712493896,"1480":5.7603583335876465,"1481":-16.319900512695312,"1482":-9.882847785949707,"1483":0.6677777767181396,"1484":19.80109214782715,"1485":-16.3538875579834,"1486":-19.580524444580078,"1487":25.367847442626953,"1488":-2.972877025604248,"1489":8.495255470275879,"1490":-0.12500718235969543,"1491":0.4832906126976013,"1492":27.518146514892578,"1493":-0.034953221678733826,"1494":5.223533630371094,"1495":12.400543212890625,"1496":-13.65577507019043,"1497":-18.474199295043945,"1498":11.957730293273926,"1499":-19.023962020874023,"1500":23.235206604003906,"1501":6.902796268463135,"1502":14.340157508850098,"1503":-3.738259792327881,"1504":5.848132133483887,"1505":1.634625792503357,"1506":-23.236160278320312,"1507":19.460872650146484,"1508":0.5199405550956726,"1509":-19.357284545898438,"1510":8.593055725097656,"1511":-20.431217193603516,"1512":-8.378684043884277,"1513":-8.621381759643555,"1514":-8.293670654296875,"1515":-10.592238426208496,"1516":10.354325294494629,"1517":1.1662708520889282,"1518":5.528575420379639,"1519":11.186823844909668,"1520":-7.013593673706055,"1521":-0.9233594536781311,"1522":4.23930549621582,"1523":-4.421900749206543,"1524":2.0748543739318848,"1525":-4.397088527679443,"1526":-1.4446742534637451,"1527":18.390243530273438,"1528":1.0622341632843018,"1529":-8.151654243469238,"1530":16.738313674926758,"1531":-9.390392303466797,"1532":1.3580759763717651,"1533":-4.814533233642578,"1534":0.7611233592033386,"1535":5.160552501678467,"1536":3.5060415267944336,"1537":-2.5592563152313232,"1538":-9.236015319824219,"1539":11.627890586853027,"1540":-3.9369051456451416,"1541":0.02966686151921749,"1542":11.915546417236328,"1543":29.240922927856445,"1544":21.941381454467773,"1545":11.65412712097168,"1546":-6.437104225158691,"1547":-1.4061378240585327,"1548":4.520990371704102,"1549":16.14177131652832,"1550":4.822167873382568,"1551":8.737542152404785,"1552":-8.638509750366211,"1553":-2.0031630992889404,"1554":8.24096965789795,"1555":6.621443271636963,"1556":-13.840529441833496,"1557":10.723447799682617,"1558":-16.504003524780273,"1559":0.11044587939977646,"1560":-2.643221378326416,"1561":11.82381820678711,"1562":-7.278764247894287,"1563":4.709388256072998,"1564":7.369671821594238,"1565":-9.975696563720703,"1566":11.896047592163086,"1567":5.845414161682129,"1568":-11.415356636047363,"1569":4.618836879730225,"1570":6.212005138397217,"1571":-13.656872749328613,"1572":-1.5755667686462402,"1573":-21.327207565307617,"1574":-15.341768264770508,"1575":0.763454794883728,"1576":-1.1481937170028687,"1577":-0.31453850865364075,"1578":8.89608383178711,"1579":1.3880722522735596,"1580":-6.16685152053833,"1581":-3.692026138305664,"1582":3.957704782485962,"1583":-2.1769027709960938,"1584":3.4043009281158447,"1585":2.9113006591796875,"1586":2.4955525398254395,"1587":4.558098316192627,"1588":-0.8619877696037292,"1589":3.1953117847442627,"1590":-0.07980742305517197,"1591":5.0968780517578125,"1592":-0.33208850026130676,"1593":3.739363670349121,"1594":3.893181324005127,"1595":0.20765186846256256,"1596":-3.1417179107666016,"1597":0.1056278869509697,"1598":2.5317604541778564,"1599":0.20662789046764374,"1600":-4.543120861053467,"1601":3.4030303955078125,"1602":-1.538821816444397,"1603":2.5466301441192627,"1604":0.7395906448364258,"1605":4.443439483642578,"1606":-1.293996810913086,"1607":2.2818820476531982,"1608":1.7185083627700806,"1609":-7.408473491668701,"1610":-0.3312835693359375,"1611":-1.3520188331604004,"1612":2.1040549278259277,"1613":1.7003134489059448,"1614":2.3532795906066895,"1615":-2.179370641708374,"1616":5.40079927444458,"1617":6.504012584686279,"1618":-0.41309797763824463,"1619":-5.547276973724365,"1620":2.9265377521514893,"1621":5.574045658111572,"1622":6.1480302810668945,"1623":4.175867557525635,"1624":-2.22063946723938,"1625":1.619862675666809,"1626":3.447725772857666,"1627":-5.074671745300293,"1628":1.4926776885986328,"1629":2.8757245540618896,"1630":-0.7877123355865479,"1631":5.679142475128174,"1632":-0.6630263924598694,"1633":-1.5233110189437866,"1634":4.337052345275879,"1635":2.66052508354187,"1636":2.990117311477661,"1637":1.588285207748413,"1638":1.211472511291504,"1639":-1.9288591146469116,"1640":0.24737706780433655,"1641":3.0959293842315674,"1642":-0.5553861856460571,"1643":0.2907841205596924,"1644":-0.374716192483902,"1645":3.8860273361206055,"1646":2.0225436687469482,"1647":0.406424343585968,"1648":1.115454077720642,"1649":1.065440058708191,"1650":-0.7157889008522034,"1651":0.4939904510974884,"1652":1.625401258468628,"1653":-0.2934836447238922,"1654":0.6823119521141052,"1655":-2.555145740509033,"1656":-1.7192673683166504,"1657":0.46414512395858765,"1658":-5.46149206161499,"1659":0.7929754257202148,"1660":-0.7284977436065674,"1661":-0.7946454882621765,"1662":-1.7392151355743408,"1663":2.628493070602417,"1664":0.6648947596549988,"1665":-0.968619167804718,"1666":1.2128952741622925,"1667":0.8986786007881165,"1668":0.11715634167194366,"1669":-1.4264307022094727,"1670":-2.035388946533203,"1671":-0.6379820704460144,"1672":-4.614125728607178,"1673":-2.763993740081787,"1674":-1.6225652694702148,"1675":-1.668756127357483,"1676":0.3360942304134369,"1677":3.4216408729553223,"1678":-0.10089725255966187,"1679":-1.7094670534133911,"1680":-0.052323054522275925,"1681":-0.944524884223938,"1682":3.002950668334961,"1683":-3.548668622970581,"1684":-4.843390464782715,"1685":-1.0391874313354492,"1686":2.9661171436309814,"1687":1.3598052263259888,"1688":1.0776044130325317,"1689":-1.9097732305526733,"1690":-3.51448655128479,"1691":-0.07936771959066391,"1692":1.41035795211792,"1693":-2.240706443786621,"1694":4.207590103149414,"1695":-0.35519319772720337,"1696":-1.9018508195877075,"1697":1.2504546642303467,"1698":1.7602050304412842,"1699":-2.817995548248291,"1700":3.159899950027466,"1701":3.872925043106079,"1702":0.24197573959827423,"1703":-1.9593544006347656,"1704":2.401052713394165,"1705":-0.44001486897468567,"1706":1.2066552639007568,"1707":-3.2368574142456055,"1708":2.0767271518707275,"1709":0.7589715123176575,"1710":3.6189327239990234,"1711":2.0657589435577393,"1712":1.7225425243377686,"1713":-1.1543605327606201,"1714":2.9124555587768555,"1715":2.3869924545288086,"1716":-3.215200424194336,"1717":0.5919637084007263,"1718":-1.41810941696167,"1719":-1.5820006132125854,"1720":-1.898268222808838,"1721":0.11194904148578644,"1722":-1.5297949314117432,"1723":-1.6353352069854736,"1724":1.865929365158081,"1725":3.1632676124572754,"1726":-4.1131911277771,"1727":0.6880003213882446,"1728":-2.2129154205322266,"1729":-3.346198320388794,"1730":-2.261340379714966,"1731":-0.25055694580078125,"1732":2.8774232864379883,"1733":1.5119134187698364,"1734":0.6748425364494324,"1735":-1.9330627918243408,"1736":-1.8367043733596802,"1737":3.698657989501953,"1738":-5.004144191741943,"1739":-0.9799529910087585,"1740":2.9518439769744873,"1741":2.1240735054016113,"1742":2.7520761489868164,"1743":-0.923082709312439,"1744":2.3760483264923096,"1745":-0.88856041431427,"1746":-1.6286674737930298,"1747":2.217961311340332,"1748":2.730123519897461,"1749":0.22027786076068878,"1750":4.046239852905273,"1751":-2.8228235244750977,"1752":5.62371826171875,"1753":1.8980610370635986,"1754":2.816791534423828,"1755":0.459185391664505,"1756":-1.0823405981063843,"1757":-1.2072148323059082,"1758":-1.2795679569244385,"1759":-1.7892423868179321,"1760":0.6116316318511963,"1761":0.6150533556938171,"1762":0.04865172877907753,"1763":2.218841791152954,"1764":-0.5776851773262024,"1765":-0.4909237027168274,"1766":-3.9928441047668457,"1767":-5.07722282409668,"1768":4.974102020263672,"1769":3.2155723571777344,"1770":-0.11153911054134369,"1771":-0.29275956749916077,"1772":-2.1491200923919678,"1773":2.620814800262451,"1774":4.770630836486816,"1775":2.3435263633728027,"1776":-3.66308331489563,"1777":0.9364074468612671,"1778":4.260998725891113,"1779":5.155398368835449,"1780":0.4960157573223114,"1781":-0.8491556644439697,"1782":1.8921232223510742,"1783":4.290455341339111,"1784":3.2442898750305176,"1785":-0.04933434724807739,"1786":3.6391780376434326,"1787":-2.600177764892578,"1788":3.3566105365753174,"1789":-2.308558940887451,"1790":2.5671708583831787,"1791":-2.0352864265441895,"1792":-8.541749000549316,"1793":-1.438356876373291,"1794":2.4575841426849365,"1795":2.3222243785858154,"1796":4.449817657470703,"1797":1.615282654762268,"1798":-3.4071383476257324,"1799":-5.419909477233887,"1800":-3.4163548946380615,"1801":4.991350173950195,"1802":-5.123249053955078,"1803":2.9180047512054443,"1804":-1.310672402381897,"1805":3.5528252124786377,"1806":-1.164760708808899,"1807":-2.890963315963745,"1808":-1.0823801755905151,"1809":-1.7093958854675293,"1810":1.896559715270996,"1811":3.1198651790618896,"1812":3.950326442718506,"1813":1.3634639978408813,"1814":3.864875555038452,"1815":0.5225921869277954,"1816":1.897236943244934,"1817":-0.6508210897445679,"1818":5.418757915496826,"1819":-5.1138014793396,"1820":0.08087035268545151,"1821":0.8258464336395264,"1822":-0.3880648612976074,"1823":0.8706507682800293,"1824":3.293708086013794,"1825":-4.245578765869141,"1826":0.6042725443840027,"1827":1.450587272644043,"1828":-0.9091773629188538,"1829":-1.245652675628662,"1830":-2.9652559757232666,"1831":1.36776864528656,"1832":3.525599956512451,"1833":-0.9539268016815186,"1834":-3.0765957832336426,"1835":-2.8107311725616455,"1836":-0.310223251581192,"1837":0.05534641817212105,"1838":-4.158890724182129,"1839":2.508387565612793,"1840":-1.344633936882019,"1841":-1.8519037961959839,"1842":2.0254971981048584,"1843":-0.03614085540175438,"1844":-0.9388635754585266,"1845":-0.9933108687400818,"1846":-1.175602674484253,"1847":0.09059974551200867,"1848":-1.699042797088623,"1849":-2.0106101036071777,"1850":3.420870780944824,"1851":1.9676185846328735,"1852":-2.072598934173584,"1853":-4.603906631469727,"1854":3.2025914192199707,"1855":-4.768868923187256,"1856":0.04926431551575661,"1857":0.5634960532188416,"1858":-0.9964498281478882,"1859":4.083195686340332,"1860":0.3397175371646881,"1861":2.6441988945007324,"1862":0.40167519450187683,"1863":1.0960159301757812,"1864":-1.527288556098938,"1865":1.3022304773330688,"1866":1.3078030347824097,"1867":-0.2770707309246063,"1868":0.3387690484523773,"1869":0.6586028337478638,"1870":1.9917839765548706,"1871":-2.447885751724243,"1872":0.04408371075987816,"1873":0.7663771510124207,"1874":-1.0198209285736084,"1875":-3.23832368850708,"1876":1.539194107055664,"1877":-0.5618917346000671,"1878":1.0755057334899902,"1879":-2.7255425453186035,"1880":-2.175431251525879,"1881":3.8745787143707275,"1882":-2.0116941928863525,"1883":-2.5345962047576904,"1884":1.7057470083236694,"1885":1.5892980098724365,"1886":-1.0249340534210205,"1887":6.3481059074401855,"1888":-1.909010410308838,"1889":-2.1535985469818115,"1890":-2.302304267883301,"1891":2.199366331100464,"1892":-2.942553997039795,"1893":5.995378017425537,"1894":-0.5848487019538879,"1895":-2.133265733718872,"1896":-0.7955579161643982,"1897":3.4781382083892822,"1898":2.97019362449646,"1899":0.8879696130752563,"1900":1.23969566822052,"1901":1.9312318563461304,"1902":2.6189022064208984,"1903":-4.363203048706055,"1904":0.28733766078948975,"1905":-0.3629382252693176,"1906":-2.8057289123535156,"1907":-0.683133065700531,"1908":0.04423440620303154,"1909":-1.4861842393875122,"1910":0.21228864789009094,"1911":-1.809433937072754,"1912":2.9778847694396973,"1913":-2.0018715858459473,"1914":-0.12050904333591461,"1915":3.5572283267974854,"1916":-1.1289787292480469,"1917":-1.4016976356506348,"1918":2.7200417518615723,"1919":2.754430055618286,"1920":1.8906630277633667,"1921":3.215191125869751,"1922":-3.69734525680542,"1923":-0.7804526686668396,"1924":-1.427821159362793,"1925":-4.847546577453613,"1926":2.4555113315582275,"1927":0.522462010383606,"1928":1.4829668998718262,"1929":-0.556962788105011,"1930":-2.2503609657287598,"1931":-1.2760274410247803,"1932":-0.29541194438934326,"1933":0.4022073447704315,"1934":-3.4125609397888184,"1935":1.242876648902893,"1936":-1.435868263244629,"1937":3.156447172164917,"1938":1.7028439044952393,"1939":-1.0058330297470093,"1940":0.18650193512439728,"1941":1.3858555555343628,"1942":-3.406792163848877,"1943":0.241699680685997,"1944":-3.3946640491485596,"1945":-1.2393460273742676,"1946":2.9100234508514404,"1947":2.9471511840820312,"1948":0.6362588405609131,"1949":0.24715439975261688,"1950":4.650292873382568,"1951":0.3552616536617279,"1952":1.1115138530731201,"1953":-6.341210842132568,"1954":2.6476640701293945,"1955":-8.017075538635254,"1956":-5.004978179931641,"1957":4.8243818283081055,"1958":-1.1720614433288574,"1959":8.010895729064941,"1960":1.544171929359436,"1961":2.4017386436462402,"1962":1.5685096979141235,"1963":-14.066513061523438,"1964":3.2601335048675537,"1965":3.437375783920288,"1966":-6.019918918609619,"1967":-9.283950805664062,"1968":0.7209282517433167,"1969":-7.217012405395508,"1970":1.5618034601211548,"1971":-4.600782871246338,"1972":8.131155014038086,"1973":0.8238422274589539,"1974":-0.5344440340995789,"1975":-5.775391101837158,"1976":-6.1000871658325195,"1977":-10.788189888000488,"1978":3.7062361240386963,"1979":-7.43977165222168,"1980":1.358827829360962,"1981":-5.179090976715088,"1982":5.873607635498047,"1983":-17.15174102783203,"1984":-5.134214401245117,"1985":6.54472017288208,"1986":-0.9047031402587891,"1987":1.625542402267456,"1988":2.45481014251709,"1989":-2.2646803855895996,"1990":1.1382412910461426,"1991":5.406147003173828,"1992":-14.629131317138672,"1993":-0.27859967947006226,"1994":-6.079261302947998,"1995":-8.783096313476562,"1996":0.7012690305709839,"1997":0.4315451979637146,"1998":0.9598529934883118,"1999":-8.181289672851562,"2000":-14.45450496673584,"2001":-6.542056083679199,"2002":-3.188847780227661,"2003":-0.4861675500869751,"2004":-3.3205418586730957,"2005":-2.2914884090423584,"2006":0.9388826489448547,"2007":5.340815544128418,"2008":-0.223208948969841,"2009":5.897085666656494,"2010":-1.2940491437911987,"2011":7.410293102264404,"2012":-1.248434066772461,"2013":-3.4089083671569824,"2014":-4.55078125,"2015":-1.516886591911316,"2016":-0.9937231540679932,"2017":-2.128661870956421,"2018":1.3833773136138916,"2019":-1.630149483680725,"2020":-3.2407925128936768,"2021":3.7182300090789795,"2022":4.724486827850342,"2023":-0.00107199524063617,"2024":-0.4956740438938141,"2025":0.3470269441604614,"2026":-1.0898735523223877,"2027":0.8637961745262146,"2028":-1.348372459411621,"2029":-1.3245601654052734,"2030":-4.473592758178711,"2031":-4.280457973480225,"2032":-1.061590313911438,"2033":0.8934848308563232,"2034":-3.2905094623565674,"2035":1.764491319656372,"2036":1.4139479398727417,"2037":-1.6624571084976196,"2038":-0.2529241740703583,"2039":0.5647457242012024,"2040":-5.476040363311768,"2041":-1.0581183433532715,"2042":5.096376419067383,"2043":3.591125011444092,"2044":-6.4902143478393555,"2045":-3.562119483947754,"2046":2.0756750106811523,"2047":-1.0775686502456665,"2048":4.430062770843506,"2049":2.0571963787078857,"2050":0.4030716121196747,"2051":2.770742416381836,"2052":2.4734342098236084,"2053":1.2692112922668457,"2054":-2.8985471725463867,"2055":1.5953831672668457,"2056":4.006988525390625,"2057":4.2281928062438965,"2058":0.8697404861450195,"2059":-2.5102415084838867,"2060":1.3891488313674927,"2061":1.2962902784347534,"2062":-2.0019633769989014,"2063":-3.7065494060516357,"2064":-4.689458847045898,"2065":-1.5687175989151,"2066":-3.7873520851135254,"2067":3.5806326866149902,"2068":3.5139811038970947,"2069":2.268120288848877,"2070":5.258946418762207,"2071":-4.206937313079834,"2072":-4.2096333503723145,"2073":2.7559101581573486,"2074":-1.866418719291687,"2075":3.6974661350250244,"2076":1.344823956489563,"2077":-7.633926868438721,"2078":-2.768256187438965,"2079":1.0318342447280884,"2080":-4.475325107574463,"2081":5.321921348571777,"2082":6.127000331878662,"2083":-0.803841233253479,"2084":-12.515501022338867,"2085":-2.485483407974243,"2086":2.719419479370117,"2087":5.659655570983887,"2088":-4.459751129150391,"2089":-6.523494243621826,"2090":1.4845718145370483,"2091":-2.164451837539673,"2092":1.0516983270645142,"2093":4.437044143676758,"2094":-3.12013578414917,"2095":2.941922426223755,"2096":4.738894462585449,"2097":-3.7410848140716553,"2098":0.1088176742196083,"2099":-2.2885360717773438,"2100":0.5042187571525574,"2101":-7.391493320465088,"2102":-6.191525936126709,"2103":1.807743787765503,"2104":1.1908011436462402,"2105":0.6695473790168762,"2106":0.8629379868507385,"2107":3.9433441162109375,"2108":6.845757007598877,"2109":-0.04943586885929108,"2110":2.435508966445923,"2111":-12.913740158081055,"2112":-0.5419814586639404,"2113":-3.217160224914551,"2114":7.067927360534668,"2115":1.2256253957748413,"2116":-6.142199516296387,"2117":-0.4072655737400055,"2118":5.763979911804199,"2119":-0.6089325547218323,"2120":0.3688083291053772,"2121":-3.7799227237701416,"2122":8.289751052856445,"2123":5.2489237785339355,"2124":-2.985989570617676,"2125":0.1749616265296936,"2126":9.276918411254883,"2127":2.861697196960449,"2128":1.6765234470367432,"2129":-4.066558837890625,"2130":1.8778796195983887,"2131":2.2085132598876953,"2132":-0.08330298215150833,"2133":-13.920519828796387,"2134":3.933715343475342,"2135":8.335229873657227,"2136":-6.268754005432129,"2137":-1.110482096672058,"2138":5.242471694946289,"2139":-3.4613912105560303,"2140":7.559129238128662,"2141":7.848143100738525,"2142":5.954322814941406,"2143":6.154795169830322,"2144":0.8323373198509216,"2145":3.924614906311035,"2146":1.5140661001205444,"2147":-0.4080357551574707,"2148":-5.932778358459473,"2149":3.717991590499878,"2150":3.3073320388793945,"2151":3.0236058235168457,"2152":1.7760777473449707,"2153":5.387896537780762,"2154":-2.765200614929199,"2155":1.574124813079834,"2156":3.5021560192108154,"2157":-2.674015522003174,"2158":-0.3041076064109802,"2159":2.3170981407165527,"2160":-2.006122350692749,"2161":-0.5698455572128296,"2162":1.3730647563934326,"2163":-4.21390962600708,"2164":-2.787733793258667,"2165":-3.2615346908569336,"2166":3.317829132080078,"2167":-5.282479763031006,"2168":-0.053767167031764984,"2169":-1.785761833190918,"2170":0.09145930409431458,"2171":1.0597339868545532,"2172":-5.417873859405518,"2173":0.5379170775413513,"2174":-2.312941074371338,"2175":-1.3330553770065308,"2176":-2.5652689933776855,"2177":-0.7139331102371216,"2178":1.8504753112792969,"2179":-2.4128401279449463,"2180":-2.025272846221924,"2181":2.9847264289855957,"2182":-2.4164233207702637,"2183":-0.6582698225975037,"2184":0.6459384560585022,"2185":2.3435277938842773,"2186":-0.8132703900337219,"2187":2.627676486968994,"2188":5.212779998779297,"2189":4.2938337326049805,"2190":1.65675950050354,"2191":1.039554476737976,"2192":-3.741147041320801,"2193":1.604655146598816,"2194":3.242825746536255,"2195":0.5175496935844421,"2196":-0.6533997654914856,"2197":-2.052577257156372,"2198":2.7008888721466064,"2199":-3.2980504035949707,"2200":1.9689303636550903,"2201":3.536466360092163,"2202":-0.38301679491996765,"2203":4.647795677185059,"2204":-0.5218154191970825,"2205":3.3632349967956543,"2206":8.467973709106445,"2207":-10.643780708312988,"2208":-4.830235481262207,"2209":-4.739679336547852,"2210":-4.306884288787842,"2211":-4.3652729988098145,"2212":-2.419279098510742,"2213":0.5233672261238098,"2214":7.099849700927734,"2215":-5.762140274047852,"2216":1.2233974933624268,"2217":-1.7874188423156738,"2218":-1.0025742053985596,"2219":-6.042943954467773,"2220":-9.85897445678711,"2221":-4.23532247543335,"2222":2.168536901473999,"2223":-3.514230966567993,"2224":0.4200754761695862,"2225":-2.502243757247925,"2226":-3.834649085998535,"2227":-2.389863967895508,"2228":1.1576342582702637,"2229":5.418576717376709,"2230":1.0163400173187256,"2231":3.051152467727661,"2232":5.639256954193115,"2233":-1.6866306066513062,"2234":-2.8069043159484863,"2235":-2.8449018001556396,"2236":3.3920364379882812,"2237":4.2357940673828125,"2238":2.3022356033325195,"2239":1.339526891708374,"2240":4.639179706573486,"2241":-1.5382707118988037,"2242":-0.6929845213890076,"2243":5.992959499359131,"2244":0.2772449851036072,"2245":-2.6177544593811035,"2246":-0.9404363632202148,"2247":-7.445430755615234,"2248":3.5789954662323,"2249":0.7156643271446228,"2250":5.9328765869140625,"2251":-7.070838451385498,"2252":-3.962392807006836,"2253":-9.518331527709961,"2254":3.7973387241363525,"2255":-5.689381122589111,"2256":2.0728282928466797,"2257":3.801217794418335,"2258":5.120084762573242,"2259":10.388556480407715,"2260":-1.5901488065719604,"2261":1.391273856163025,"2262":-3.405296802520752,"2263":3.814293146133423,"2264":-3.4756062030792236,"2265":-2.6268725395202637,"2266":-4.860056400299072,"2267":-1.3229823112487793,"2268":-9.689034461975098,"2269":-6.264339923858643,"2270":-7.154819965362549,"2271":-1.7500393390655518,"2272":5.237332344055176,"2273":-0.5166049003601074,"2274":-4.975407600402832,"2275":-2.9996721744537354,"2276":1.3889161348342896,"2277":5.249488830566406,"2278":6.719198703765869,"2279":-13.994400024414062,"2280":-2.8465702533721924,"2281":-9.734177589416504,"2282":8.065804481506348,"2283":4.87155818939209,"2284":2.036268711090088,"2285":5.867951393127441,"2286":15.033858299255371,"2287":10.14706039428711,"2288":-8.195574760437012,"2289":3.626446485519409,"2290":11.055606842041016,"2291":-5.712151050567627,"2292":2.687509536743164,"2293":-9.278289794921875,"2294":3.1833627223968506,"2295":-11.310450553894043,"2296":-2.7560062408447266,"2297":-0.5542632341384888,"2298":4.082005500793457,"2299":-12.875097274780273,"2300":-0.08861327171325684,"2301":9.74306869506836,"2302":-10.990571022033691,"2303":-9.884865760803223,"2304":-16.182659149169922,"2305":-2.1625120639801025,"2306":-8.735633850097656,"2307":1.0618396997451782,"2308":3.6498653888702393,"2309":-3.4128899574279785,"2310":-0.6410613059997559,"2311":-18.970849990844727,"2312":-7.154874324798584,"2313":5.287978172302246,"2314":13.41070556640625,"2315":6.744531154632568,"2316":-2.051955461502075,"2317":-6.223196983337402,"2318":8.582619667053223,"2319":-5.291713714599609,"2320":-3.969550848007202,"2321":-4.384109020233154,"2322":3.950934410095215,"2323":6.314767360687256,"2324":-8.269524574279785,"2325":4.47328519821167,"2326":-20.352325439453125,"2327":-3.750380039215088,"2328":4.753561973571777,"2329":-2.4020133018493652,"2330":-7.081086158752441,"2331":5.367124080657959,"2332":2.1302270889282227,"2333":-2.985541820526123,"2334":15.861357688903809,"2335":-2.4947924613952637,"2336":-5.802393436431885,"2337":-7.692251682281494,"2338":11.67486572265625,"2339":-5.520823955535889,"2340":1.9686990976333618,"2341":0.8552957773208618,"2342":-9.086352348327637,"2343":-1.8017973899841309,"2344":4.09655237197876,"2345":-5.614624500274658,"2346":-17.80621337890625,"2347":3.101761817932129,"2348":6.215019226074219,"2349":-5.911712646484375,"2350":-6.551042079925537,"2351":-2.1902999877929688,"2352":-15.774070739746094,"2353":7.147284507751465,"2354":-0.17261944711208344,"2355":14.031963348388672,"2356":6.65521764755249,"2357":4.665722370147705,"2358":4.26645565032959,"2359":0.1751900315284729,"2360":-1.7152209281921387,"2361":-3.7308595180511475,"2362":4.288463592529297,"2363":-6.117298603057861,"2364":-1.1205196380615234,"2365":6.107301712036133,"2366":0.3920603394508362,"2367":-1.4792876243591309,"2368":-4.259658336639404,"2369":9.35986042022705,"2370":3.157210350036621,"2371":2.2894647121429443,"2372":10.445021629333496,"2373":-2.1565253734588623,"2374":4.875833988189697,"2375":-12.966367721557617,"2376":-4.302054405212402,"2377":-1.243206262588501,"2378":-3.659234046936035,"2379":2.890151023864746,"2380":4.985043048858643,"2381":0.9847275614738464,"2382":13.516803741455078,"2383":-1.12428617477417,"2384":7.4689106941223145,"2385":-1.4994299411773682,"2386":-4.512168884277344,"2387":8.662378311157227,"2388":1.5202596187591553,"2389":-5.336175441741943,"2390":-2.4565248489379883,"2391":-2.1177401542663574,"2392":7.673551559448242,"2393":-3.8659563064575195,"2394":1.9783248901367188,"2395":2.4247114658355713,"2396":-2.9608256816864014,"2397":-14.208539009094238,"2398":-7.166983604431152,"2399":15.887537002563477,"2400":-6.497626304626465,"2401":-12.059816360473633,"2402":-12.644564628601074,"2403":-6.888820171356201,"2404":4.295741081237793,"2405":-11.533151626586914,"2406":0.06629770249128342,"2407":-6.152976036071777,"2408":-1.0718697309494019,"2409":0.21383748948574066,"2410":0.14810875058174133,"2411":-0.6413524150848389,"2412":1.1310386657714844,"2413":-8.689510345458984,"2414":0.5447190403938293,"2415":9.514790534973145,"2416":-4.2516045570373535,"2417":14.609320640563965,"2418":6.4607319831848145,"2419":8.000893592834473,"2420":-8.024035453796387,"2421":2.485666275024414,"2422":-9.296483993530273,"2423":-14.633550643920898,"2424":9.469036102294922,"2425":11.453571319580078,"2426":7.043943405151367,"2427":6.158336639404297,"2428":6.725764274597168,"2429":-3.9818875789642334,"2430":3.0804779529571533,"2431":-5.731389045715332,"2432":-2.910536289215088,"2433":9.689260482788086,"2434":10.594377517700195,"2435":-4.423437118530273,"2436":8.255841255187988,"2437":3.631774663925171,"2438":-4.24119758605957,"2439":5.1747212409973145,"2440":1.0680476427078247,"2441":1.9236900806427002,"2442":-8.931158065795898,"2443":18.057138442993164,"2444":0.5376002788543701,"2445":9.94066047668457,"2446":9.182634353637695,"2447":-9.022014617919922,"2448":3.738593816757202,"2449":0.27311408519744873,"2450":-13.253171920776367,"2451":8.56632137298584,"2452":0.841558575630188,"2453":-10.862828254699707,"2454":3.9147164821624756,"2455":-4.048203468322754,"2456":-4.347058296203613,"2457":5.276107311248779,"2458":1.9715687036514282,"2459":-4.604557991027832,"2460":-2.119929313659668,"2461":0.5554344058036804,"2462":-2.469146251678467,"2463":-3.319000005722046,"2464":6.401858329772949,"2465":-6.893171310424805,"2466":-7.433414936065674,"2467":-1.657295823097229,"2468":-0.12991510331630707,"2469":2.9367105960845947,"2470":-1.8357090950012207,"2471":4.237919807434082,"2472":-7.160728931427002,"2473":2.8282930850982666,"2474":0.0750831663608551,"2475":-5.294963359832764,"2476":-7.668935775756836,"2477":-0.42128363251686096,"2478":1.1258482933044434,"2479":-5.7846999168396,"2480":5.056643962860107,"2481":3.6107282638549805,"2482":7.095942497253418,"2483":-2.078372001647949,"2484":4.713893890380859,"2485":4.173794269561768,"2486":-2.568612813949585,"2487":-2.913329601287842,"2488":-5.36580228805542,"2489":2.6506330966949463,"2490":3.41062593460083,"2491":2.035895586013794,"2492":-0.06650055944919586,"2493":-2.8050856590270996,"2494":-10.582301139831543,"2495":-1.44060218334198,"2496":3.199843645095825,"2497":1.9406989812850952,"2498":12.394972801208496,"2499":-1.6092722415924072,"2500":2.263375759124756,"2501":0.3890477120876312,"2502":-5.251861095428467,"2503":-1.94150710105896,"2504":1.237000823020935,"2505":-0.9044895768165588,"2506":4.856882095336914,"2507":-1.1444765329360962,"2508":3.8740251064300537,"2509":8.518628120422363,"2510":4.700499057769775,"2511":-2.016840934753418,"2512":-1.8630259037017822,"2513":-0.467098206281662,"2514":-7.5961151123046875,"2515":2.601480007171631,"2516":-8.971848487854004,"2517":-1.7656641006469727,"2518":6.019001483917236,"2519":-2.623342514038086,"2520":6.179005146026611,"2521":-3.2943575382232666,"2522":7.671173572540283,"2523":4.15913724899292,"2524":-0.008683091029524803,"2525":-1.5726370811462402,"2526":-0.3940991759300232,"2527":0.5236197113990784,"2528":7.761543273925781,"2529":-0.6373456120491028,"2530":3.474964141845703,"2531":15.818507194519043,"2532":5.321236610412598,"2533":0.8636762499809265,"2534":4.37143611907959,"2535":3.58893084526062,"2536":-1.3361085653305054,"2537":-2.9549708366394043,"2538":1.8002139329910278,"2539":-4.737521648406982,"2540":-0.20830579102039337,"2541":11.307108879089355,"2542":3.4264919757843018,"2543":-4.587088584899902,"2544":2.486696243286133,"2545":-1.8234529495239258,"2546":3.072145938873291,"2547":1.0681345462799072,"2548":1.3731597661972046,"2549":0.7876690030097961,"2550":7.144991397857666,"2551":-0.24958673119544983,"2552":-5.688296794891357,"2553":-2.354813575744629,"2554":-4.427120685577393,"2555":-3.122375726699829,"2556":-2.142660140991211,"2557":-6.096055507659912,"2558":-8.444063186645508,"2559":-3.1787755489349365,"2560":12.921597480773926,"2561":8.260393142700195,"2562":-7.837462902069092,"2563":3.982055187225342,"2564":8.283740043640137,"2565":-5.620851039886475,"2566":2.9710311889648438,"2567":12.331123352050781,"2568":5.37128210067749,"2569":1.2150717973709106,"2570":7.1418256759643555,"2571":9.869565963745117,"2572":-2.975436210632324,"2573":9.222900390625,"2574":-5.838526248931885,"2575":0.32834815979003906,"2576":-0.13899192214012146,"2577":-3.028597354888916,"2578":-7.771241188049316,"2579":1.3988347053527832,"2580":1.8371058702468872,"2581":9.86597728729248,"2582":11.827864646911621,"2583":-3.0707664489746094,"2584":12.945009231567383,"2585":14.702098846435547,"2586":5.868758678436279,"2587":16.537132263183594,"2588":3.585336446762085,"2589":8.45504093170166,"2590":-1.4667038917541504,"2591":12.249494552612305,"2592":-5.196859359741211,"2593":4.238586902618408,"2594":0.22017472982406616,"2595":0.9828943610191345,"2596":-10.422595977783203,"2597":2.6563327312469482,"2598":4.2528533935546875,"2599":-1.2147377729415894,"2600":8.50922966003418,"2601":-5.372368335723877,"2602":5.871858596801758,"2603":4.870080471038818,"2604":10.853336334228516,"2605":-3.8294789791107178,"2606":-6.53895378112793,"2607":-15.496548652648926,"2608":7.0665602684021,"2609":5.826696395874023,"2610":-13.88065242767334,"2611":17.190847396850586,"2612":5.418450355529785,"2613":-2.200260877609253,"2614":-6.724144458770752,"2615":-7.725856304168701,"2616":-12.061792373657227,"2617":7.9124674797058105,"2618":-2.582392692565918,"2619":-7.560101509094238,"2620":6.369796276092529,"2621":-6.183708667755127,"2622":1.6220594644546509,"2623":-8.22614860534668,"2624":-5.631677627563477,"2625":15.02262020111084,"2626":1.8422983884811401,"2627":15.615593910217285,"2628":-4.772220134735107,"2629":-6.254388809204102,"2630":2.387070655822754,"2631":7.160215854644775,"2632":-5.996763229370117,"2633":4.850323677062988,"2634":-7.647231578826904,"2635":7.079021453857422,"2636":-10.269807815551758,"2637":-10.235454559326172,"2638":2.772188425064087,"2639":8.269661903381348,"2640":-7.39575719833374,"2641":5.3322577476501465,"2642":0.49038460850715637,"2643":-0.756549060344696,"2644":8.349616050720215,"2645":5.904165267944336,"2646":-6.840004920959473,"2647":-16.03189468383789,"2648":4.735677242279053,"2649":-3.9848127365112305,"2650":-1.8899691104888916,"2651":2.7394697666168213,"2652":6.9086785316467285,"2653":-5.151200771331787,"2654":3.392777442932129,"2655":-13.694226264953613,"2656":1.1934155225753784,"2657":-5.434548854827881,"2658":2.0922768115997314,"2659":6.455334663391113,"2660":3.6889407634735107,"2661":1.2371100187301636,"2662":6.821673393249512,"2663":2.3462302684783936,"2664":0.7054113745689392,"2665":-6.304258823394775,"2666":2.008354902267456,"2667":3.2941982746124268,"2668":0.4137495458126068,"2669":-6.825758457183838,"2670":-10.868470191955566,"2671":2.156904935836792,"2672":-1.2434887886047363,"2673":-8.886741638183594,"2674":11.71633243560791,"2675":7.34578800201416,"2676":1.418637752532959,"2677":3.9238808155059814,"2678":-3.344856023788452,"2679":-7.232696533203125,"2680":3.593278646469116,"2681":-3.51750111579895,"2682":6.878616809844971,"2683":4.369265079498291,"2684":-2.9120595455169678,"2685":-6.0739850997924805,"2686":-3.1928024291992188,"2687":-10.254847526550293,"2688":0.5822837352752686,"2689":1.3252627849578857,"2690":10.478433609008789,"2691":-10.784612655639648,"2692":4.4351115226745605,"2693":-0.2441374808549881,"2694":3.6311445236206055,"2695":-14.714080810546875,"2696":-0.023529747501015663,"2697":-11.11789608001709,"2698":-11.075372695922852,"2699":-9.519426345825195,"2700":-6.557234764099121,"2701":3.498847007751465,"2702":-6.874104022979736,"2703":4.149928092956543,"2704":2.446251630783081,"2705":1.2979557514190674,"2706":2.0255444049835205,"2707":3.4685778617858887,"2708":1.9824559688568115,"2709":-1.8149621486663818,"2710":-1.9023284912109375,"2711":4.936104774475098,"2712":7.6011576652526855,"2713":2.329479694366455,"2714":-1.0707002878189087,"2715":-1.1462818384170532,"2716":0.5066803693771362,"2717":-2.5272867679595947,"2718":-10.257474899291992,"2719":5.851212501525879,"2720":3.998594045639038,"2721":2.6005330085754395,"2722":-9.687304496765137,"2723":2.8856194019317627,"2724":5.762982368469238,"2725":13.446041107177734,"2726":12.829047203063965,"2727":10.942471504211426,"2728":-1.1864327192306519,"2729":3.5557913780212402,"2730":8.72368335723877,"2731":2.112137794494629,"2732":1.083114504814148,"2733":11.382133483886719,"2734":-0.8794125318527222,"2735":-0.2912162244319916,"2736":9.363571166992188,"2737":9.38199234008789,"2738":-1.6148127317428589,"2739":7.36270809173584,"2740":7.039308071136475,"2741":-1.6541318893432617,"2742":2.8880715370178223,"2743":-0.2351071983575821,"2744":-5.510674953460693,"2745":4.0799031257629395,"2746":-1.4463378190994263,"2747":-13.302231788635254,"2748":-4.9269304275512695,"2749":3.428603410720825,"2750":8.301636695861816,"2751":-5.674555778503418,"2752":-9.381604194641113,"2753":-1.8009079694747925,"2754":-2.7192270755767822,"2755":1.9057564735412598,"2756":7.510805130004883,"2757":7.7306928634643555,"2758":-1.176952600479126,"2759":12.23482608795166,"2760":8.757755279541016,"2761":-1.505469560623169,"2762":9.936281204223633,"2763":3.0182907581329346,"2764":4.899360179901123,"2765":6.816450595855713,"2766":0.19960960745811462,"2767":-9.84826374053955,"2768":3.339993715286255,"2769":-0.05368455499410629,"2770":0.3799784183502197,"2771":-2.1510329246520996,"2772":0.6482914090156555,"2773":-2.274796724319458,"2774":-0.6580552458763123,"2775":-1.1632816791534424,"2776":3.4850680828094482,"2777":10.193442344665527,"2778":-0.17483606934547424,"2779":-2.977353811264038,"2780":6.356686592102051,"2781":-4.322842597961426,"2782":5.43236780166626,"2783":0.4116373062133789,"2784":5.3585662841796875,"2785":-3.3602449893951416,"2786":2.1992268562316895,"2787":1.6882615089416504,"2788":-1.7486602067947388,"2789":2.110656261444092,"2790":-2.23362135887146,"2791":-1.7796897888183594,"2792":5.539050102233887,"2793":-3.5879533290863037,"2794":0.1005459725856781,"2795":-2.7440059185028076,"2796":-10.549201011657715,"2797":0.850021243095398,"2798":-1.17130446434021,"2799":-5.5724382400512695,"2800":10.81072998046875,"2801":2.9638490676879883,"2802":-7.001220703125,"2803":-2.355095624923706,"2804":4.710495471954346,"2805":-10.572247505187988,"2806":-4.535220146179199,"2807":-1.9638208150863647,"2808":2.732938051223755,"2809":4.939722061157227,"2810":-0.8426427841186523,"2811":4.500400066375732,"2812":-4.6679277420043945,"2813":-2.5596306324005127,"2814":3.8488709926605225,"2815":-3.1815736293792725,"2816":11.47954273223877,"2817":-10.027849197387695,"2818":-2.2303168773651123,"2819":-4.783851623535156,"2820":0.40777018666267395,"2821":-5.438348770141602,"2822":0.8190791010856628,"2823":-2.2270801067352295,"2824":-6.793632984161377,"2825":-0.33501821756362915,"2826":-4.2846455574035645,"2827":6.956204414367676,"2828":-1.69903564453125,"2829":-3.8080391883850098,"2830":-0.7281913161277771,"2831":0.8613454103469849,"2832":-5.715799331665039,"2833":3.742661714553833,"2834":-2.8467390537261963,"2835":1.8088525533676147,"2836":-9.195001602172852,"2837":-10.068836212158203,"2838":6.013223171234131,"2839":-1.1464542150497437,"2840":6.424651622772217,"2841":-6.335099697113037,"2842":1.3636610507965088,"2843":-2.9307165145874023,"2844":-1.5177675485610962,"2845":9.122037887573242,"2846":0.18580710887908936,"2847":1.1253129243850708,"2848":-7.810396194458008,"2849":5.691247463226318,"2850":9.205204963684082,"2851":3.3490219116210938,"2852":2.664332151412964,"2853":6.177707672119141,"2854":4.745908260345459,"2855":6.019859790802002,"2856":2.240623950958252,"2857":11.786757469177246,"2858":-0.820258378982544,"2859":0.06763753294944763,"2860":1.9445867538452148,"2861":14.891782760620117,"2862":-6.79957914352417,"2863":12.323092460632324,"2864":-3.585918426513672,"2865":4.927796840667725,"2866":-11.771600723266602,"2867":2.6383297443389893,"2868":-4.821173191070557,"2869":-3.2668673992156982,"2870":-15.534229278564453,"2871":-2.1755588054656982,"2872":-6.411059379577637,"2873":-2.116838216781616,"2874":2.1496663093566895,"2875":7.889671802520752,"2876":2.673455238342285,"2877":-8.112946510314941,"2878":-8.37247085571289,"2879":-4.813409805297852,"2880":-3.364391803741455,"2881":2.470090866088867,"2882":2.434990406036377,"2883":10.351143836975098,"2884":-14.181496620178223,"2885":12.237093925476074,"2886":-6.22797155380249,"2887":1.3145674467086792,"2888":5.029965400695801,"2889":-5.491570472717285,"2890":4.252692699432373,"2891":-5.110511302947998,"2892":-0.7430819869041443,"2893":-10.236769676208496,"2894":9.244219779968262,"2895":-1.1104587316513062,"2896":-1.5953266620635986,"2897":3.5874171257019043,"2898":-5.753878593444824,"2899":-5.48337459564209,"2900":-16.446826934814453,"2901":-31.815467834472656,"2902":-0.8581046462059021,"2903":2.2346949577331543,"2904":18.216524124145508,"2905":4.104693412780762,"2906":-8.216842651367188,"2907":7.01320219039917,"2908":-6.09026575088501,"2909":12.605518341064453,"2910":-3.9754223823547363,"2911":1.8204268217086792,"2912":-5.293891906738281,"2913":-2.4543826580047607,"2914":-12.77011489868164,"2915":-19.55513572692871,"2916":-1.1960259675979614,"2917":25.078899383544922,"2918":-11.745230674743652,"2919":5.2375569343566895,"2920":1.69435453414917,"2921":4.643529415130615,"2922":-9.464262962341309,"2923":-5.233862400054932,"2924":-2.546318769454956,"2925":0.1726541370153427,"2926":-1.5808236598968506,"2927":-8.447382926940918,"2928":6.981863975524902,"2929":-2.866867780685425,"2930":0.9078311324119568,"2931":1.8077112436294556,"2932":-3.1197750568389893,"2933":-3.085827589035034,"2934":-15.539323806762695,"2935":-9.472061157226562,"2936":3.6397879123687744,"2937":2.7539758682250977,"2938":7.1878437995910645,"2939":5.456493854522705,"2940":0.04582906886935234,"2941":-0.08281710743904114,"2942":-4.54725456237793,"2943":10.396869659423828,"2944":4.158522129058838,"2945":8.674744606018066,"2946":9.391749382019043,"2947":-14.349342346191406,"2948":5.368701934814453,"2949":3.9522864818573,"2950":-6.706284523010254,"2951":1.8955528736114502,"2952":21.366626739501953,"2953":1.1651134490966797,"2954":0.016336997970938683,"2955":-4.815841197967529,"2956":-3.755872964859009,"2957":0.7219864130020142,"2958":-20.09627342224121,"2959":-21.34175682067871,"2960":-5.954697608947754,"2961":-2.62589693069458,"2962":-5.803882122039795,"2963":2.080841541290283,"2964":1.5209215879440308,"2965":8.253814697265625,"2966":1.79441237449646,"2967":-5.770102024078369,"2968":-5.838312149047852,"2969":-8.162534713745117,"2970":-23.9145450592041,"2971":-6.370413303375244,"2972":-7.263761043548584,"2973":8.765717506408691,"2974":-0.7812156677246094,"2975":-7.423750877380371,"2976":-9.96454906463623,"2977":17.087806701660156,"2978":8.289084434509277,"2979":-3.7801272869110107,"2980":-2.3922815322875977,"2981":10.902377128601074,"2982":4.449059963226318,"2983":-2.669543504714966,"2984":0.6921836137771606,"2985":-1.0961825847625732,"2986":7.332002639770508,"2987":1.0142637491226196,"2988":5.860335826873779,"2989":-2.476511001586914,"2990":10.697066307067871,"2991":-13.902334213256836,"2992":-4.7258992195129395,"2993":-2.0620837211608887,"2994":-8.880867958068848,"2995":9.905243873596191,"2996":-7.079930305480957,"2997":3.9938547611236572,"2998":5.2797698974609375,"2999":0.09044091403484344,"3000":-16.281038284301758,"3001":-12.349966049194336,"3002":-2.4169528484344482,"3003":4.498190879821777,"3004":-3.2642736434936523,"3005":8.682690620422363,"3006":-7.5641069412231445,"3007":-10.364544868469238,"3008":-5.835687637329102,"3009":11.741460800170898,"3010":5.371179580688477,"3011":2.7081339359283447,"3012":-7.705208778381348,"3013":-10.667953491210938,"3014":-11.557909965515137,"3015":5.65364408493042,"3016":10.842647552490234,"3017":1.456085205078125,"3018":2.4219002723693848,"3019":13.77550220489502,"3020":-10.380009651184082,"3021":6.166285991668701,"3022":-0.2701014578342438,"3023":6.482115745544434,"3024":6.182441234588623,"3025":3.0305967330932617,"3026":-0.2423318475484848,"3027":-6.24598503112793,"3028":-9.31997299194336,"3029":-2.7496790885925293,"3030":-4.14902400970459,"3031":-0.25776055455207825,"3032":-1.2244170904159546,"3033":1.3735058307647705,"3034":-8.878443717956543,"3035":7.1611433029174805,"3036":0.2276219129562378,"3037":0.5170384645462036,"3038":-7.396344184875488,"3039":-7.140632629394531,"3040":-3.2677531242370605,"3041":-2.85721755027771,"3042":-8.255739212036133,"3043":1.5692192316055298,"3044":-12.160231590270996,"3045":-5.937015056610107,"3046":-10.91575813293457,"3047":6.0208892822265625,"3048":0.4764435589313507,"3049":7.015247344970703,"3050":-4.0271501541137695,"3051":-8.288415908813477,"3052":-5.308685779571533,"3053":-3.4281797409057617,"3054":-6.848851203918457,"3055":-9.570435523986816,"3056":1.8222912549972534,"3057":8.601661682128906,"3058":7.3106689453125,"3059":8.899497032165527,"3060":-11.661894798278809,"3061":-4.135159969329834,"3062":4.194511413574219,"3063":-0.40166381001472473,"3064":3.3573250770568848,"3065":5.986788749694824,"3066":-5.363378047943115,"3067":3.354079008102417,"3068":-2.660991668701172,"3069":5.490749359130859,"3070":-7.177241325378418,"3071":-4.197330474853516,"3072":-6.933323860168457,"3073":2.5252394676208496,"3074":-8.267803192138672,"3075":-0.8622884750366211,"3076":-0.2342602014541626,"3077":9.636566162109375,"3078":2.9078781604766846,"3079":-2.454942226409912,"3080":3.87758207321167,"3081":-8.670573234558105,"3082":5.06390380859375,"3083":-5.7886223793029785,"3084":-6.286458492279053,"3085":-0.457968533039093,"3086":-2.549590826034546,"3087":2.4939913749694824,"3088":8.463034629821777,"3089":-3.3110287189483643,"3090":-1.6410491466522217,"3091":-0.5407115817070007,"3092":5.450351238250732,"3093":-0.038440313190221786,"3094":-5.059201240539551,"3095":-12.325749397277832,"3096":7.622262001037598,"3097":-7.704386234283447,"3098":9.571378707885742,"3099":0.43910083174705505,"3100":6.84531307220459,"3101":-7.9634222984313965,"3102":-5.576785087585449,"3103":-15.206469535827637,"3104":-16.04279899597168,"3105":-4.699701309204102,"3106":13.782721519470215,"3107":-18.507909774780273,"3108":0.7773844599723816,"3109":-11.65948486328125,"3110":17.686626434326172,"3111":6.0304975509643555,"3112":4.298764705657959,"3113":0.9173063635826111,"3114":0.6848229765892029,"3115":4.535174369812012,"3116":-11.20024585723877,"3117":1.5236685276031494,"3118":-11.917238235473633,"3119":6.8128662109375,"3120":8.302891731262207,"3121":0.4776588976383209,"3122":6.383237838745117,"3123":-11.122371673583984,"3124":-7.585872173309326,"3125":2.795950412750244,"3126":1.866467833518982,"3127":10.162628173828125,"3128":17.636445999145508,"3129":-4.974435329437256,"3130":1.2759190797805786,"3131":-7.328691005706787,"3132":1.6485651731491089,"3133":-1.5032817125320435,"3134":0.316470205783844,"3135":-0.577216625213623,"3136":-5.6801371574401855,"3137":-9.23086166381836,"3138":4.271457672119141,"3139":3.6390533447265625,"3140":9.319356918334961,"3141":-3.4065797328948975,"3142":-9.970171928405762,"3143":1.3727244138717651,"3144":-4.3014912605285645,"3145":11.461503982543945,"3146":4.216634750366211,"3147":-5.324759006500244,"3148":-2.6925787925720215,"3149":-7.596870422363281,"3150":-15.642723083496094,"3151":-6.555562496185303,"3152":-21.982189178466797,"3153":-9.841584205627441,"3154":-32.37322235107422,"3155":2.351222515106201,"3156":-3.7509639263153076,"3157":9.800936698913574,"3158":9.51941204071045,"3159":-2.7170000076293945,"3160":-25.636119842529297,"3161":3.457110643386841,"3162":-22.187345504760742,"3163":1.1463042497634888,"3164":-28.969173431396484,"3165":-20.380769729614258,"3166":-1.8550498485565186,"3167":-1.6325931549072266,"3168":-16.000940322875977,"3169":3.374274969100952,"3170":-6.112955570220947,"3171":-4.508394241333008,"3172":-4.670024871826172,"3173":-14.516225814819336,"3174":-9.165472030639648,"3175":20.661550521850586,"3176":6.7387542724609375,"3177":2.443948745727539,"3178":-23.927322387695312,"3179":-0.6925963163375854,"3180":-28.54802703857422,"3181":6.756049633026123,"3182":7.219388484954834,"3183":-15.233328819274902,"3184":3.3590080738067627,"3185":8.868844985961914,"3186":2.975085973739624,"3187":-7.154647350311279,"3188":-5.633912086486816,"3189":-14.856264114379883,"3190":15.672942161560059,"3191":-11.375750541687012,"3192":-27.576982498168945,"3193":-13.21181869506836,"3194":11.857562065124512,"3195":3.824690818786621,"3196":-6.106197357177734,"3197":-17.03251075744629,"3198":-20.90338706970215,"3199":3.00423526763916,"3200":-1.7701812982559204,"3201":6.821265697479248,"3202":-14.577754974365234,"3203":-6.403432846069336,"3204":13.692649841308594,"3205":2.0451996326446533,"3206":-3.606680154800415,"3207":8.499059677124023,"3208":-13.242938041687012,"3209":-19.282133102416992,"3210":-15.294018745422363,"3211":-5.579180717468262,"3212":-3.694891929626465,"3213":-0.5381940007209778,"3214":-2.1158251762390137,"3215":5.3825297355651855,"3216":6.266931056976318,"3217":0.6586474776268005,"3218":10.673203468322754,"3219":2.355407238006592,"3220":-6.825078010559082,"3221":8.151269912719727,"3222":-1.00203275680542,"3223":6.273476600646973,"3224":0.673719048500061,"3225":-4.282800197601318,"3226":-4.300128936767578,"3227":2.912930488586426,"3228":6.169206142425537,"3229":1.352137565612793,"3230":2.908853530883789,"3231":6.610562324523926,"3232":-0.9961228370666504,"3233":-1.1951532363891602,"3234":9.304597854614258,"3235":8.971028327941895,"3236":-2.8192858695983887,"3237":-1.3970797061920166,"3238":-6.53004789352417,"3239":4.0266804695129395,"3240":-3.6907529830932617,"3241":0.7215758562088013,"3242":-0.44646742939949036,"3243":7.892893314361572,"3244":-0.6610137224197388,"3245":-2.0157408714294434,"3246":-2.893934726715088,"3247":-4.296504020690918,"3248":-8.410537719726562,"3249":4.917847633361816,"3250":3.6379075050354004,"3251":-6.338593006134033,"3252":1.757849931716919,"3253":1.2584261894226074,"3254":-3.354126214981079,"3255":-2.2058229446411133,"3256":0.41984671354293823,"3257":0.9866268634796143,"3258":3.7729477882385254,"3259":1.6696372032165527,"3260":-0.07665786147117615,"3261":3.3785626888275146,"3262":-0.059135861694812775,"3263":-0.057293400168418884,"3264":-0.7965960502624512,"3265":-2.292318105697632,"3266":0.5253368020057678,"3267":-7.569723606109619,"3268":0.6382175087928772,"3269":-8.146387100219727,"3270":3.8723981380462646,"3271":-6.012853622436523,"3272":3.970224142074585,"3273":3.72684645652771,"3274":1.4406781196594238,"3275":-1.8440638780593872,"3276":-2.8564510345458984,"3277":2.921367883682251,"3278":3.2839221954345703,"3279":11.796707153320312,"3280":-2.6717982292175293,"3281":-14.429636001586914,"3282":-9.091164588928223,"3283":8.027774810791016,"3284":-7.27642822265625,"3285":1.202693223953247,"3286":-5.224586009979248,"3287":-3.062990427017212,"3288":9.211563110351562,"3289":3.1017582416534424,"3290":-5.219878673553467,"3291":-5.660924434661865,"3292":2.2001121044158936,"3293":9.045296669006348,"3294":-6.628304958343506,"3295":-6.463751316070557,"3296":7.528833866119385,"3297":1.0967719554901123,"3298":6.720231056213379,"3299":0.6395557522773743,"3300":-6.226101875305176,"3301":0.41124019026756287,"3302":-1.8160858154296875,"3303":3.1873371601104736,"3304":2.513700485229492,"3305":9.983358383178711,"3306":-1.4956856966018677,"3307":4.647549152374268,"3308":-15.231977462768555,"3309":-5.273475646972656,"3310":14.302080154418945,"3311":4.5204901695251465,"3312":2.8327925205230713,"3313":-3.1631875038146973,"3314":15.883440971374512,"3315":-13.04018783569336,"3316":-0.29302191734313965,"3317":3.496730327606201,"3318":2.2643697261810303,"3319":11.389018058776855,"3320":-3.47906756401062,"3321":-1.9841359853744507,"3322":-0.5930919647216797,"3323":-7.389190673828125,"3324":0.821779191493988,"3325":-4.5944037437438965,"3326":-8.054692268371582,"3327":-2.426102876663208,"3328":-3.045409917831421,"3329":-3.07796573638916,"3330":-6.694639205932617,"3331":1.9654592275619507,"3332":14.138371467590332,"3333":-7.701958179473877,"3334":9.259592056274414,"3335":-8.469038963317871,"3336":-8.619063377380371,"3337":1.4492249488830566,"3338":9.132795333862305,"3339":-7.014537811279297,"3340":14.475090026855469,"3341":-8.045814514160156,"3342":-20.932662963867188,"3343":-5.2563066482543945,"3344":5.456629753112793,"3345":6.299284934997559,"3346":-13.387072563171387,"3347":-1.875470757484436,"3348":-0.5361984372138977,"3349":-9.169087409973145,"3350":13.125235557556152,"3351":5.960672378540039,"3352":-8.494844436645508,"3353":-0.3489644229412079,"3354":-13.635306358337402,"3355":-15.597461700439453,"3356":-20.22645378112793,"3357":0.8794857859611511,"3358":13.825569152832031,"3359":-25.915220260620117,"3360":22.47867774963379,"3361":-19.63190460205078,"3362":15.592066764831543,"3363":-15.308009147644043,"3364":12.62342643737793,"3365":-19.644512176513672,"3366":5.066610813140869,"3367":4.083642482757568,"3368":-13.942402839660645,"3369":-5.578176498413086,"3370":-18.96434783935547,"3371":5.109809875488281,"3372":24.231876373291016,"3373":11.232393264770508,"3374":-11.976211547851562,"3375":-19.425073623657227,"3376":-31.862201690673828,"3377":12.43101692199707,"3378":15.52618408203125,"3379":3.3345353603363037,"3380":-21.06479835510254,"3381":-3.696725368499756,"3382":16.512117385864258,"3383":2.2070047855377197,"3384":-22.083871841430664,"3385":-29.294464111328125,"3386":7.496377944946289,"3387":7.25680685043335,"3388":7.040904521942139,"3389":22.2858943939209,"3390":-15.566449165344238,"3391":10.142450332641602,"3392":-3.5415327548980713,"3393":0.18733114004135132,"3394":-16.21416664123535,"3395":-1.2496886253356934,"3396":-9.969276428222656,"3397":-9.696642875671387,"3398":-14.58273696899414,"3399":-11.753250122070312,"3400":4.438051223754883,"3401":-21.48318862915039,"3402":-8.815925598144531,"3403":-16.35509490966797,"3404":19.39781379699707,"3405":13.777762413024902,"3406":8.182397842407227,"3407":-5.240142822265625,"3408":10.745244026184082,"3409":0.4002610743045807,"3410":11.877873420715332,"3411":-10.792375564575195,"3412":-10.27711009979248,"3413":5.837754249572754,"3414":29.432043075561523,"3415":-7.992122650146484,"3416":25.05900001525879,"3417":11.850472450256348,"3418":28.894283294677734,"3419":28.80929183959961,"3420":-7.061968803405762,"3421":-8.24566650390625,"3422":6.15874719619751,"3423":-0.9127978086471558,"3424":-8.438002586364746,"3425":-21.6743106842041,"3426":-9.820939064025879,"3427":11.696946144104004,"3428":-10.863457679748535,"3429":-12.917399406433105,"3430":18.801198959350586,"3431":13.372928619384766,"3432":-0.8614415526390076,"3433":4.215960502624512,"3434":-8.130997657775879,"3435":0.09530900418758392,"3436":2.0912582874298096,"3437":4.671627044677734,"3438":-11.13942813873291,"3439":-0.8617403507232666,"3440":1.1624062061309814,"3441":-3.1071557998657227,"3442":-17.287992477416992,"3443":-8.387393951416016,"3444":16.381305694580078,"3445":1.7477774620056152,"3446":7.3007731437683105,"3447":-7.104859828948975,"3448":-1.5684353113174438,"3449":-22.634822845458984,"3450":4.839993000030518,"3451":-4.988055229187012,"3452":-13.020787239074707,"3453":-27.344337463378906,"3454":-15.355642318725586,"3455":-22.456634521484375,"3456":-5.009995460510254,"3457":24.135549545288086,"3458":7.002464771270752,"3459":-4.067545413970947,"3460":6.775321960449219,"3461":0.08023711293935776,"3462":2.945558547973633,"3463":3.3359601497650146,"3464":-2.8031747341156006,"3465":10.280508995056152,"3466":13.017776489257812,"3467":4.087599277496338,"3468":-3.76816987991333,"3469":-11.93596076965332,"3470":-14.266490936279297,"3471":1.1052366495132446,"3472":8.952984809875488,"3473":9.219437599182129,"3474":-17.61147117614746,"3475":-9.38338565826416,"3476":10.899923324584961,"3477":-12.750432968139648,"3478":-12.063366889953613,"3479":2.4263525009155273,"3480":-11.013448715209961,"3481":-1.1603567600250244,"3482":6.948113918304443,"3483":-2.831277370452881,"3484":-13.531855583190918,"3485":0.2507272958755493,"3486":0.012182204984128475,"3487":-1.3611302375793457,"3488":-12.894368171691895,"3489":4.826662540435791,"3490":6.273393154144287,"3491":2.212501287460327,"3492":-3.2402355670928955,"3493":-2.1815648078918457,"3494":4.058843612670898,"3495":-9.706381797790527,"3496":-13.251431465148926,"3497":-12.610391616821289,"3498":-5.446352481842041,"3499":16.444067001342773,"3500":-1.7876683473587036,"3501":1.4309425354003906,"3502":-5.0002899169921875,"3503":-29.097070693969727,"3504":-11.954411506652832,"3505":10.692375183105469,"3506":-5.894896030426025,"3507":-27.394689559936523,"3508":-21.08116340637207,"3509":-2.708773374557495,"3510":13.872591018676758,"3511":-8.716025352478027,"3512":3.0293235778808594,"3513":-5.067630767822266,"3514":-3.2780447006225586,"3515":1.5047725439071655,"3516":7.074402809143066,"3517":6.354712009429932,"3518":29.217533111572266,"3519":-24.32232093811035,"3520":-12.22595500946045,"3521":0.6431580185890198,"3522":-0.6249362230300903,"3523":-30.80833625793457,"3524":-17.242643356323242,"3525":-11.490514755249023,"3526":9.0940580368042,"3527":-6.351297378540039,"3528":20.979167938232422,"3529":10.256156921386719,"3530":-2.040910243988037,"3531":-4.05274772644043,"3532":-19.071884155273438,"3533":-5.822195529937744,"3534":-10.670722007751465,"3535":9.710444450378418,"3536":-12.149314880371094,"3537":-21.404685974121094,"3538":-9.667166709899902,"3539":9.016692161560059,"3540":-18.57049560546875,"3541":6.309393405914307,"3542":-6.685263156890869,"3543":-3.050132989883423,"3544":-7.916069984436035,"3545":-11.625274658203125,"3546":-14.786959648132324,"3547":-3.6148602962493896,"3548":-16.47938346862793,"3549":-11.274003028869629,"3550":-20.297468185424805,"3551":21.245412826538086,"3552":5.978354454040527,"3553":10.434293746948242,"3554":6.417103290557861,"3555":18.060590744018555,"3556":-6.952144622802734,"3557":-23.674514770507812,"3558":-1.9770514965057373,"3559":-4.010397911071777,"3560":22.228965759277344,"3561":6.482902526855469,"3562":3.4415342807769775,"3563":5.886120319366455,"3564":-2.4649770259857178,"3565":-23.092710494995117,"3566":0.6317601203918457,"3567":10.448756217956543,"3568":17.834651947021484,"3569":13.788004875183105,"3570":-11.856667518615723,"3571":7.583713054656982,"3572":-8.773049354553223,"3573":7.855863094329834,"3574":5.91819429397583,"3575":0.36454328894615173,"3576":-2.4446794986724854,"3577":11.922906875610352,"3578":-10.239996910095215,"3579":19.323593139648438,"3580":1.2675871849060059,"3581":-2.6817781925201416,"3582":-1.1833142042160034,"3583":-6.420001983642578,"3584":15.964179039001465,"3585":-15.360249519348145,"3586":19.28943634033203,"3587":-3.820103168487549,"3588":-2.9296486377716064,"3589":8.917699813842773,"3590":-2.3470234870910645,"3591":-15.814253807067871,"3592":8.167620658874512,"3593":-17.252147674560547,"3594":-22.888338088989258,"3595":-5.913661956787109,"3596":-7.323779582977295,"3597":-4.1408162117004395,"3598":13.524023056030273,"3599":-7.141963005065918,"3600":-15.444368362426758,"3601":-11.786266326904297,"3602":18.725706100463867,"3603":-2.4593396186828613,"3604":16.416547775268555,"3605":-1.3962137699127197,"3606":-8.396631240844727,"3607":11.175070762634277,"3608":27.799089431762695,"3609":-17.550434112548828,"3610":-1.9422621726989746,"3611":9.310476303100586,"3612":-11.665390968322754,"3613":-23.221296310424805,"3614":-9.825235366821289,"3615":24.89468002319336,"3616":12.525117874145508,"3617":-5.921355724334717,"3618":-13.141556739807129,"3619":-2.522101879119873,"3620":-20.647172927856445,"3621":0.7540233135223389,"3622":-6.197443008422852,"3623":7.084908962249756,"3624":6.411989212036133,"3625":-3.441636085510254,"3626":6.811466217041016,"3627":10.43832015991211,"3628":-13.358814239501953,"3629":10.43375015258789,"3630":-4.430532932281494,"3631":11.581828117370605,"3632":-2.3221137523651123,"3633":-4.630615711212158,"3634":2.1889750957489014,"3635":-9.51220989227295,"3636":10.551180839538574,"3637":-6.0780205726623535,"3638":-18.407930374145508,"3639":-8.754220962524414,"3640":11.389152526855469,"3641":-4.550816535949707,"3642":8.395820617675781,"3643":0.5878714323043823,"3644":3.7978978157043457,"3645":9.421587944030762,"3646":23.011390686035156,"3647":19.685428619384766,"3648":-12.292657852172852,"3649":11.030633926391602,"3650":-15.060422897338867,"3651":-15.752382278442383,"3652":-4.442143440246582,"3653":-15.437088966369629,"3654":17.301788330078125,"3655":1.9180177450180054,"3656":-2.0872151851654053,"3657":10.99323844909668,"3658":16.858413696289062,"3659":17.000507354736328,"3660":-12.011597633361816,"3661":1.930464267730713,"3662":12.10838508605957,"3663":-1.8319883346557617,"3664":22.706398010253906,"3665":14.589351654052734,"3666":-14.131948471069336,"3667":-1.716996431350708,"3668":19.661155700683594,"3669":10.605192184448242,"3670":12.538772583007812,"3671":9.970311164855957,"3672":20.58336067199707,"3673":-11.182816505432129,"3674":7.1517720222473145,"3675":18.932157516479492,"3676":11.199477195739746,"3677":9.032909393310547,"3678":10.89255142211914,"3679":-15.542604446411133,"3680":17.420394897460938,"3681":-11.74307632446289,"3682":4.381129264831543,"3683":-11.169692039489746,"3684":11.383663177490234,"3685":-8.365072250366211,"3686":7.320874214172363,"3687":3.577183723449707,"3688":-13.280106544494629,"3689":-25.620555877685547,"3690":-2.1152193546295166,"3691":1.3536827564239502,"3692":-22.324939727783203,"3693":7.206061363220215,"3694":3.424302816390991,"3695":9.208503723144531,"3696":-7.813742160797119,