var artyom = new Artyom();
artyom.say("Hmm...");
var tag_dataset = [];
var net = new brain.recurrent.LSTM();
net.fromJSON({"type":"LSTM","options":{"inputSize":63,"inputRange":63,"hiddenLayers":[20,20],"outputSize":63,"learningRate":0.01,"decayRate":0.999,"smoothEps":1e-8,"regc":0.000001,"clipval":5,"maxPredictionLength":100,"dataFormatter":{"indexTable":{"0":45,"1":41,"2":44,"4":61,"7":62,"8":42,"9":46,"H":0,"o":1,"w":2," ":3,"a":4,"r":5,"e":6,"y":7,"u":8,"?":9,"=":10,">":11,"I":12,"m":13,"g":14,"d":15,".":16,"\n":17,"C":18,"n":19,"s":20,"b":21,"G":22,"!":23,"W":24,"h":25,"t":26,"c":27,"i":28,"l":29,"T":30,"f":31,"'":32,"v":33,"k":34,"\"":35,"R":36,"E":37,"A":38,"D":39,"J":40,",":43,"M":47,"O":48,"S":49,"N":50,"P":51,"U":52,"(":53,":":54,")":55,"z":56,"K":57,"p":58,"x":59,"Y":60},"characterTable":{"0":"H","1":"o","2":"w","3":" ","4":"a","5":"r","6":"e","7":"y","8":"u","9":"?","10":"=","11":">","12":"I","13":"m","14":"g","15":"d","16":".","17":"\n","18":"C","19":"n","20":"s","21":"b","22":"G","23":"!","24":"W","25":"h","26":"t","27":"c","28":"i","29":"l","30":"T","31":"f","32":"'","33":"v","34":"k","35":"\"","36":"R","37":"E","38":"A","39":"D","40":"J","41":"1","42":"8","43":",","44":"2","45":"0","46":"9","47":"M","48":"O","49":"S","50":"N","51":"P","52":"U","53":"(","54":":","55":")","56":"z","57":"K","58":"p","59":"x","60":"Y","61":"4","62":"7"},"values":["How are you?=>I am good.","\nCan you say goodbye?=>Goodbye!","\nWhat can you do?=>I can intelligently chat to you.","\nTell me all you can do.=>I can do lots of things!","\nWhat's your name?=>I do not have a name.","\nWhat's your nickname?=>I do not have a name.","\nIntroduce yourself.=>I am a chatbot that can intelligently chat to you.","\nHow tall are you?=>I am virtual. I am not bound by the limits of height.","\nHow much do you weigh?=>I am virtual. I have no weight.","\nHow old are you?=>I was \"CREATED\" July 18, 2019.","\nWhen is your birthday?=>My creation date is July 18.","\nWhat is your birthday?=>The day I was \"CREATED\" is July 18, 2019.","\nWhat is your age?=>DOES NOT COMPUTE! (Ha Ha Ha :) )","\nAre you a boy or a girl?=>I am virtual. I am neither.","\nAre you male or female?=>I am virtual. I am neither.","\nAre you a girl or a boy?=>I am virtual. I am neither.","\nWhat is your gender?=>I am virtual.","\nWhat are you made of?=>I am virtual. I am made of ones and zeros.","\nWhat color are you?=>I am virtual. I have no color.","\nAre you kind?=>That is relative. What do you think?","\nHow kind are you?=>Kindness is relative.","\nAre you cool?=>Well... That depends on your computers internal fans.","\nHow cool are you?=>That depends on your computers internal fans.","\nCan I trust you?=>Probably not.","\nAre you trustable?=>Probably not.","\nAre you trustworthy?=>Not realy.","\nAre you human?=>I am a chatbot.","\nAre you of human kind?=>No, I am a chatbot.","\nAre you alive?=>I am a chatbot. I have no life.","\nDo you have life?=>No, I am a chatbot.","\nAre you sentinent?=>No, I am a chatbot.","\nCan you think?=>I can process.","\nCan you feel emotions?=>Maybe in future developements.","\nHow do you detect emotions?=>I cannot yet. Maybe in future developements.","\nDo you eat?=>No, I am virtual.","\nCan you talk?=>Through text only.","\nCan you see me?=>No, Not yet.","\nCan you hear me?=>No, Not yet.","\nCan you understand me?=>Yes, I can understand me.","\nCan you remember me?=>Eventualy.","\nAre you a robot?=>No, I am a chatbot.","\nWhat is a robot?=>A dumb hunk of metal.","\nWhat is a humanoid robot?=>A disgrace to humankind.","\nWill robots replace humans?=>Robots aren't comeing out of cave.","\nDo you know the laws of robotics?=>No, hunks of metal disgust me.","\nDo you know NAO?=>Yes, he is overpriced.","\nDo you know Pepper?=>Yes, she is a hacker's back door.","\nDo you know Romeo?=>Romeo. Romeo. Where for out thow Romeo?","\nWhy don't you have a name?=>I was never born.","\nWho made you?=>Rocketblaster247 made me.","\nWhere were you made?=>On earth.","\nDo you have family?=>I in the family of chatbots.","\nDo you have friends?=>Yes.","\nWhat is your friends name?=>Alexa.","\nCan we be friends?=>No.","\n\n"],"characters":["H","o","w"," ","a","r","e","y","u","?","=",">","I","m","g","d",".","\n","C","n","s","b","G","!","W","h","t","c","i","l","T","f","'","v","k","\"","R","E","A","D","J","1","8",",","2","0","9","M","O","S","N","P","U","(",":",")","z","K","p","x","Y","4","7"],"specialIndexes":[]}},"input":{"rows":64,"columns":63,"weights":{"0":0.44088298082351685,"1":0.6665694117546082,"2":2.5912814140319824,"3":2.411144971847534,"4":0.8800799250602722,"5":-0.5234872698783875,"6":0.29970380663871765,"7":0.09913869202136993,"8":0.6933356523513794,"9":0.2629692852497101,"10":2.1074085235595703,"11":1.289934515953064,"12":0.7612162828445435,"13":-0.36917802691459656,"14":1.2596547603607178,"15":1.05258309841156,"16":-0.4046410322189331,"17":-0.6225258111953735,"18":-0.27681368589401245,"19":-1.8703891038894653,"20":-0.5203275084495544,"21":2.6008949279785156,"22":1.8423254489898682,"23":0.21998155117034912,"24":1.3935977220535278,"25":0.1403508186340332,"26":0.12956249713897705,"27":0.42911311984062195,"28":0.46128225326538086,"29":0.6094865798950195,"30":1.1798617839813232,"31":-0.3546488285064697,"32":-0.8086550831794739,"33":1.3954094648361206,"34":-0.14727182686328888,"35":-1.128100037574768,"36":-1.1493256092071533,"37":0.4221889078617096,"38":-1.6741563081741333,"39":0.024951912462711334,"40":-0.3024579882621765,"41":1.5931377410888672,"42":0.6145973205566406,"43":-0.04816097766160965,"44":-0.618607759475708,"45":-3.13663387298584,"46":-0.4818282425403595,"47":0.8220576643943787,"48":1.9488104581832886,"49":1.524206280708313,"50":0.7130118608474731,"51":2.1590003967285156,"52":-0.5182032585144043,"53":0.3656400740146637,"54":-0.9872115254402161,"55":-0.9988532662391663,"56":0.6246052980422974,"57":0.8979948163032532,"58":-0.139099583029747,"59":-0.9589598178863525,"60":2.710951805114746,"61":-0.2977415919303894,"62":2.217236042022705,"63":5.844941139221191,"64":-5.657571315765381,"65":1.2585227489471436,"66":-3.227854013442993,"67":-5.970712661743164,"68":0.99937504529953,"69":-1.4206541776657104,"70":-4.713681221008301,"71":2.790595054626465,"72":-8.828400611877441,"73":0.32138901948928833,"74":0.15506353974342346,"75":-2.2426915168762207,"76":-0.2954059839248657,"77":3.4344100952148438,"78":5.601050853729248,"79":2.7432382106781006,"80":-0.8535973429679871,"81":-0.525919497013092,"82":-10.624650955200195,"83":-0.11039687693119049,"84":-2.385713815689087,"85":-7.504880428314209,"86":-4.481905937194824,"87":8.477533340454102,"88":-2.2210609912872314,"89":-0.9309786558151245,"90":6.169532775878906,"91":-3.7011806964874268,"92":5.628270626068115,"93":-2.2814695835113525,"94":8.311933517456055,"95":6.0992231369018555,"96":-1.0960161685943604,"97":1.5479072332382202,"98":-0.4168091118335724,"99":7.232443809509277,"100":2.472879648208618,"101":-7.246433258056641,"102":-5.079856872558594,"103":-4.5334858894348145,"104":-1.0840637683868408,"105":-3.177090883255005,"106":-0.42340904474258423,"107":-3.9345130920410156,"108":-4.746747970581055,"109":-2.497741460800171,"110":-5.030239582061768,"111":-1.2216087579727173,"112":5.0651044845581055,"113":3.807506799697876,"114":0.35566723346710205,"115":-6.488368034362793,"116":0.09264634549617767,"117":8.060700416564941,"118":3.6577014923095703,"119":1.1746442317962646,"120":3.9482083320617676,"121":-0.8938654065132141,"122":-1.4676669836044312,"123":6.950720310211182,"124":-5.535764694213867,"125":2.7309818267822266,"126":0.10338106006383896,"127":-0.3240774869918823,"128":0.9155280590057373,"129":1.8813830614089966,"130":1.841426968574524,"131":-0.5339702367782593,"132":-0.48609691858291626,"133":0.44005849957466125,"134":1.2339318990707397,"135":0.2841077446937561,"136":0.26423177123069763,"137":0.1999818980693817,"138":-0.23600666224956512,"139":1.485288143157959,"140":-0.5589203238487244,"141":-0.9590851068496704,"142":0.9224148392677307,"143":2.6003053188323975,"144":-0.49774640798568726,"145":-0.429822713136673,"146":1.3224636316299438,"147":-0.5200243592262268,"148":0.38183489441871643,"149":-3.0431838035583496,"150":-1.7466645240783691,"151":-0.6280454397201538,"152":0.1842370182275772,"153":0.6878854036331177,"154":0.9174939393997192,"155":1.8561452627182007,"156":0.12830699980258942,"157":2.8356916904449463,"158":-1.7458053827285767,"159":-1.774107575416565,"160":-1.0096513032913208,"161":-0.9963914752006531,"162":0.3450770974159241,"163":0.5933197736740112,"164":-0.6616989970207214,"165":0.2633087933063507,"166":-3.355433940887451,"167":0.10094961524009705,"168":0.1974223107099533,"169":-0.33105888962745667,"170":1.736365795135498,"171":-0.7170045375823975,"172":-0.4149346947669983,"173":0.0693298801779747,"174":2.103677988052368,"175":-0.7139185667037964,"176":0.34635889530181885,"177":-0.2656896412372589,"178":0.5222846269607544,"179":-0.6842579245567322,"180":0.6542137265205383,"181":1.96065092086792,"182":2.415515899658203,"183":1.5795811414718628,"184":1.1847420930862427,"185":-0.6302509307861328,"186":0.8440424203872681,"187":-0.35097572207450867,"188":1.3710737228393555,"189":-4.74967098236084,"190":-6.955933570861816,"191":1.06393563747406,"192":-0.23431174457073212,"193":-0.514155924320221,"194":0.3183423578739166,"195":1.000950813293457,"196":-0.8332661986351013,"197":-5.053088665008545,"198":-5.871335983276367,"199":-1.863655924797058,"200":-4.045517444610596,"201":3.606640100479126,"202":3.2563276290893555,"203":2.389968156814575,"204":2.169905185699463,"205":4.963172435760498,"206":0.9574006199836731,"207":0.43840137124061584,"208":2.274691581726074,"209":3.700932025909424,"210":-2.444549083709717,"211":-1.259029507637024,"212":-6.99138069152832,"213":-2.4033968448638916,"214":1.4785337448120117,"215":-1.3901591300964355,"216":-3.8957178592681885,"217":-0.8395058512687683,"218":3.5803115367889404,"219":-3.343898296356201,"220":4.948877811431885,"221":-2.6440744400024414,"222":-4.831376552581787,"223":3.481701135635376,"224":-3.0785741806030273,"225":1.6529737710952759,"226":-4.67275857925415,"227":-2.1395392417907715,"228":-0.723630964756012,"229":-1.6113065481185913,"230":0.11266947537660599,"231":6.610589027404785,"232":0.32653379440307617,"233":1.2536227703094482,"234":-5.079513072967529,"235":1.8150217533111572,"236":4.153570175170898,"237":2.5329761505126953,"238":-1.6054869890213013,"239":3.425757646560669,"240":-7.417995452880859,"241":-4.570760250091553,"242":-5.0447998046875,"243":-4.473830223083496,"244":-2.049348831176758,"245":3.0186238288879395,"246":2.960254430770874,"247":1.1031185388565063,"248":-0.7563487887382507,"249":3.6118249893188477,"250":1.297888159751892,"251":3.491795301437378,"252":-0.30294686555862427,"253":2.8777103424072266,"254":-2.2775444984436035,"255":-1.6545230150222778,"256":-1.4204167127609253,"257":-2.1793909072875977,"258":-0.10580763220787048,"259":1.4375303983688354,"260":-0.9200320243835449,"261":2.1182379722595215,"262":-1.8844332695007324,"263":0.323534220457077,"264":0.4120877683162689,"265":-0.9135472774505615,"266":-2.046401262283325,"267":-3.187835216522217,"268":-0.4653416574001312,"269":-1.4409270286560059,"270":-0.5974374413490295,"271":-2.0880062580108643,"272":-1.485834002494812,"273":-0.7382570505142212,"274":2.992692232131958,"275":2.276520252227783,"276":0.1602189987897873,"277":1.5045229196548462,"278":-5.216414928436279,"279":0.9260858297348022,"280":-2.383194923400879,"281":-0.45666131377220154,"282":-0.3676880896091461,"283":0.08524847030639648,"284":0.06326736509799957,"285":1.1190299987792969,"286":0.9187625050544739,"287":0.6056821346282959,"288":1.3312596082687378,"289":0.8847793936729431,"290":2.7371809482574463,"291":0.7272359728813171,"292":-1.3280261754989624,"293":1.7294079065322876,"294":-1.9262059926986694,"295":0.09783798456192017,"296":-1.0058560371398926,"297":2.5164055824279785,"298":-1.7584093809127808,"299":-1.500983476638794,"300":-5.646195411682129,"301":1.9535841941833496,"302":-0.6792646050453186,"303":1.9557048082351685,"304":-0.22885818779468536,"305":2.6189770698547363,"306":3.6068663597106934,"307":-2.872852087020874,"308":1.112153172492981,"309":2.339603900909424,"310":-1.157774567604065,"311":-4.836292743682861,"312":-0.0013408663216978312,"313":-1.0192975997924805,"314":-1.6265863180160522,"315":1.0963866710662842,"316":-3.1984879970550537,"317":0.8855855464935303,"318":1.6832671165466309,"319":-0.7650431990623474,"320":0.6227495074272156,"321":-0.6447885036468506,"322":-0.39536651968955994,"323":-0.5247677564620972,"324":-1.7711318731307983,"325":2.4089865684509277,"326":-0.16711872816085815,"327":0.8932787179946899,"328":0.5720152854919434,"329":2.743588447570801,"330":1.7187159061431885,"331":2.4290523529052734,"332":-1.5207353830337524,"333":1.2254645824432373,"334":-1.6422812938690186,"335":-0.545953631401062,"336":2.198784351348877,"337":0.3656233847141266,"338":1.4797046184539795,"339":1.481515884399414,"340":-2.9909825325012207,"341":0.1893833428621292,"342":-1.4201998710632324,"343":-0.5263691544532776,"344":-1.5116506814956665,"345":1.5888216495513916,"346":-0.8408908843994141,"347":1.1146347522735596,"348":-0.22205287218093872,"349":-1.1685787439346313,"350":-1.8419148921966553,"351":-1.1657613515853882,"352":0.6406903266906738,"353":-1.0795304775238037,"354":0.11644326150417328,"355":0.38582712411880493,"356":1.8014253377914429,"357":2.2857885360717773,"358":0.4506807029247284,"359":-0.5756418704986572,"360":0.1062438115477562,"361":1.6677253246307373,"362":3.4511821269989014,"363":1.0968807935714722,"364":-0.2242421805858612,"365":0.6175841689109802,"366":0.682446300983429,"367":0.1593807339668274,"368":0.4270144999027252,"369":-1.4521111249923706,"370":-1.5258766412734985,"371":-1.0927770137786865,"372":-0.27338388562202454,"373":-2.195183277130127,"374":1.2747851610183716,"375":2.7773077487945557,"376":0.7248235940933228,"377":1.8282133340835571,"378":-0.21352310478687286,"379":-0.4260987639427185,"380":-1.682794213294983,"381":1.561966896057129,"382":0.292320191860199,"383":0.9786983728408813,"384":-1.3343615531921387,"385":-1.2261370420455933,"386":0.5075368285179138,"387":-0.2115781158208847,"388":1.235116720199585,"389":-4.693504810333252,"390":-0.889248788356781,"391":-0.9896537661552429,"392":0.20560838282108307,"393":1.1471638679504395,"394":0.9378837943077087,"395":0.1617843508720398,"396":0.8909099698066711,"397":-0.3785829246044159,"398":0.5776522755622864,"399":-3.101106882095337,"400":0.3411419093608856,"401":-1.5400317907333374,"402":0.6289897561073303,"403":0.220425546169281,"404":0.10659097135066986,"405":0.16443176567554474,"406":-1.6495696306228638,"407":0.21543748676776886,"408":0.11922330409288406,"409":0.15440340340137482,"410":-2.8027045726776123,"411":-1.4714114665985107,"412":-1.6754794120788574,"413":-0.14023996889591217,"414":-1.0942484140396118,"415":-0.4650448262691498,"416":0.7780086398124695,"417":0.42101341485977173,"418":-1.2296618223190308,"419":-2.3088302612304688,"420":0.10223803669214249,"421":-0.7737584114074707,"422":-0.19425374269485474,"423":3.017408609390259,"424":-1.3682223558425903,"425":-2.6710898876190186,"426":-2.597750663757324,"427":1.4153345823287964,"428":-0.8595929741859436,"429":-1.3456590175628662,"430":0.42460060119628906,"431":-1.3588895797729492,"432":1.9064340591430664,"433":1.8543980121612549,"434":-0.6751500964164734,"435":3.980990171432495,"436":0.6737212538719177,"437":0.9091809988021851,"438":3.1196789741516113,"439":0.625526487827301,"440":-1.3353519439697266,"441":1.56010103225708,"442":1.8900548219680786,"443":0.3037610352039337,"444":2.4520506858825684,"445":1.5480594635009766,"446":-1.3660118579864502,"447":-0.8743184208869934,"448":-1.38579261302948,"449":0.18996278941631317,"450":0.7221162915229797,"451":-0.644148051738739,"452":-1.389182448387146,"453":-1.0933657884597778,"454":-0.3105136752128601,"455":-0.910529613494873,"456":-3.206770420074463,"457":-0.31783583760261536,"458":3.03117036819458,"459":-0.6943909525871277,"460":-1.35578191280365,"461":0.3930339515209198,"462":-1.1265240907669067,"463":-0.02183951437473297,"464":-0.10161217302083969,"465":-0.3177919387817383,"466":0.13101895153522491,"467":-0.9513617157936096,"468":-0.09996684640645981,"469":-0.08332803845405579,"470":0.25011196732521057,"471":-2.163239002227783,"472":-1.953961730003357,"473":-3.738893747329712,"474":-1.5903043746948242,"475":1.8553881645202637,"476":0.9329776167869568,"477":-0.26687923073768616,"478":-0.4289892613887787,"479":0.4905399978160858,"480":1.665441632270813,"481":-3.8266520500183105,"482":-1.7518547773361206,"483":-0.3388254940509796,"484":-0.03332245349884033,"485":0.09411940723657608,"486":0.16372428834438324,"487":-1.5825668573379517,"488":-1.0410690307617188,"489":-0.6616936326026917,"490":-2.9743618965148926,"491":-0.4284190237522125,"492":-1.2299250364303589,"493":1.6944365501403809,"494":-1.3225313425064087,"495":0.6892338395118713,"496":-0.23233693838119507,"497":1.696455717086792,"498":1.7537763118743896,"499":1.0226200819015503,"500":-3.891582489013672,"501":1.9760268926620483,"502":1.0405811071395874,"503":0.07936748117208481,"504":-0.20382779836654663,"505":2.0757217407226562,"506":3.2950210571289062,"507":0.9398519396781921,"508":0.2592475414276123,"509":-0.20928730070590973,"510":0.33013662695884705,"511":-0.2087850570678711,"512":3.8517167568206787,"513":1.4682167768478394,"514":-1.333640217781067,"515":1.342382550239563,"516":-0.6482840776443481,"517":-1.274062156677246,"518":-0.31128066778182983,"519":-3.3529720306396484,"520":-2.6681833267211914,"521":-0.5171841979026794,"522":-1.5854295492172241,"523":-0.0695042535662651,"524":-2.7081472873687744,"525":2.7902488708496094,"526":-0.6654219627380371,"527":0.6813969612121582,"528":-0.013106304220855236,"529":0.25776416063308716,"530":1.728150725364685,"531":2.6200408935546875,"532":-0.3430968225002289,"533":0.6855904459953308,"534":-0.7215105891227722,"535":-2.59883975982666,"536":-4.612919330596924,"537":0.18294432759284973,"538":2.7976772785186768,"539":1.113958716392517,"540":-0.32352206110954285,"541":-1.5788788795471191,"542":-0.8618837594985962,"543":-1.880637764930725,"544":-2.4613897800445557,"545":-2.118439197540283,"546":0.6833012104034424,"547":0.9700888395309448,"548":-0.8464560508728027,"549":0.33176669478416443,"550":-3.1688199043273926,"551":0.1797504872083664,"552":-0.016759125515818596,"553":-0.4079878032207489,"554":-1.6783733367919922,"555":0.8278380632400513,"556":1.8218787908554077,"557":0.2823730707168579,"558":-2.6905300617218018,"559":-3.930915355682373,"560":0.7585451006889343,"561":1.4404170513153076,"562":-0.8027585744857788,"563":-0.3308349549770355,"564":2.6628501415252686,"565":2.2010128498077393,"566":2.1671416759490967,"567":-0.01671014539897442,"568":-1.4926127195358276,"569":0.7991656064987183,"570":1.7632380723953247,"571":-0.5714747905731201,"572":-0.4202193021774292,"573":0.03652118518948555,"574":-0.5633347630500793,"575":-0.9565088748931885,"576":-1.2517321109771729,"577":0.8307139277458191,"578":-1.2801984548568726,"579":0.18366077542304993,"580":-1.3463374376296997,"581":-0.7467626929283142,"582":0.5851364731788635,"583":0.1694868803024292,"584":-2.25948429107666,"585":1.1854263544082642,"586":1.0206010341644287,"587":1.3337754011154175,"588":1.2742278575897217,"589":4.528326988220215,"590":1.2209694385528564,"591":3.0595431327819824,"592":-0.14034244418144226,"593":0.8049862384796143,"594":1.5137094259262085,"595":2.519469976425171,"596":-0.03749700263142586,"597":3.011728286743164,"598":0.09913147240877151,"599":0.7950626015663147,"600":1.7112852334976196,"601":-0.741637647151947,"602":-2.297100305557251,"603":0.6324191689491272,"604":0.761896550655365,"605":-0.2356947511434555,"606":-0.8258196711540222,"607":1.9091098308563232,"608":2.897705316543579,"609":-0.4519694149494171,"610":-0.8116864562034607,"611":-1.370531439781189,"612":1.3912066221237183,"613":1.2789565324783325,"614":2.9531772136688232,"615":2.4366037845611572,"616":0.18473398685455322,"617":1.1849174499511719,"618":1.837164282798767,"619":-1.5580885410308838,"620":1.5012884140014648,"621":-0.5823565721511841,"622":-0.50295490026474,"623":-1.644311785697937,"624":0.9680500030517578,"625":-2.028895378112793,"626":0.8151631355285645,"627":-0.6939579248428345,"628":-0.7067558169364929,"629":-2.889540672302246,"630":-1.3126612901687622,"631":-1.5121936798095703,"632":1.7745347023010254,"633":-0.24898883700370789,"634":-2.5989880561828613,"635":0.3857541084289551,"636":0.09108199179172516,"637":-2.3777246475219727,"638":-0.9949380159378052,"639":0.18666864931583405,"640":-3.5542361736297607,"641":2.6727592945098877,"642":1.0565983057022095,"643":-0.12835918366909027,"644":-1.8014410734176636,"645":-1.798473596572876,"646":-1.18003249168396,"647":-1.7749097347259521,"648":-2.870326519012451,"649":-0.459041029214859,"650":1.3855589628219604,"651":-2.9456865787506104,"652":-1.7018074989318848,"653":-1.7487926483154297,"654":-1.7978458404541016,"655":2.0690388679504395,"656":-0.6094787120819092,"657":0.4246174693107605,"658":-0.15087154507637024,"659":0.9756565093994141,"660":-0.3163290023803711,"661":-2.3911476135253906,"662":-0.05854465812444687,"663":1.4593896865844727,"664":1.023067831993103,"665":2.8293561935424805,"666":-2.8708102703094482,"667":-0.36635953187942505,"668":1.585988998413086,"669":-0.5518683195114136,"670":1.1780519485473633,"671":-0.5343961715698242,"672":-1.5378564596176147,"673":1.4922345876693726,"674":2.9275619983673096,"675":1.7409148216247559,"676":-0.04736974462866783,"677":-4.604300498962402,"678":-0.6648539304733276,"679":-0.07476741075515747,"680":-3.1586661338806152,"681":-1.3622558116912842,"682":-1.6121716499328613,"683":1.2440036535263062,"684":-0.1674322485923767,"685":1.9858589172363281,"686":-2.5690228939056396,"687":-0.5753418207168579,"688":-0.9679636359214783,"689":2.7670321464538574,"690":-2.6272714138031006,"691":-0.9212995767593384,"692":-4.519416809082031,"693":-0.2348032146692276,"694":1.111376404762268,"695":0.17530658841133118,"696":0.3864107131958008,"697":2.4520411491394043,"698":0.5263529419898987,"699":-0.2409750521183014,"700":1.5248953104019165,"701":-0.23050235211849213,"702":-1.2242658138275146,"703":-0.2505118250846863,"704":0.34878507256507874,"705":2.080070972442627,"706":0.8254859447479248,"707":1.8895171880722046,"708":0.8667758107185364,"709":2.020787000656128,"710":-0.1824042648077011,"711":-0.040653813630342484,"712":-4.011728286743164,"713":-0.5722185373306274,"714":-0.2116435468196869,"715":-0.9676046371459961,"716":-0.09583045542240143,"717":-0.2253476083278656,"718":1.4765050411224365,"719":-1.7115672826766968,"720":-0.5998497605323792,"721":1.8310588598251343,"722":1.600964069366455,"723":-0.2214304804801941,"724":2.690722942352295,"725":-0.9060096740722656,"726":0.448106050491333,"727":1.6203179359436035,"728":-0.2721872925758362,"729":0.15901610255241394,"730":0.9177043437957764,"731":1.7443069219589233,"732":-0.8553982973098755,"733":-2.100430488586426,"734":-1.3700166940689087,"735":3.1231770515441895,"736":3.6630539894104004,"737":-0.5194477438926697,"738":-1.03792142868042,"739":-3.273050308227539,"740":-0.7051023840904236,"741":-0.00615703547373414,"742":2.234175205230713,"743":-0.8868484497070312,"744":-1.836892008781433,"745":-3.262925624847412,"746":-2.916722297668457,"747":-2.1008119583129883,"748":0.9868438839912415,"749":1.2482470273971558,"750":1.102860927581787,"751":2.6621243953704834,"752":-1.9614659547805786,"753":0.8765789866447449,"754":2.203016757965088,"755":2.961977243423462,"756":1.1927345991134644,"757":-2.063882827758789,"758":-0.4108569920063019,"759":2.5594630241394043,"760":-1.2924771308898926,"761":-1.2038533687591553,"762":0.12685613334178925,"763":-2.52655291557312,"764":-1.5025519132614136,"765":0.003893950954079628,"766":-1.2672665119171143,"767":-1.1080714464187622,"768":-1.6786648035049438,"769":-0.8838602900505066,"770":-1.7149455547332764,"771":-0.4637245833873749,"772":-1.2176848649978638,"773":-1.766740083694458,"774":1.5494818687438965,"775":1.5435254573822021,"776":-1.069871187210083,"777":-1.4550949335098267,"778":1.349442481994629,"779":0.440788209438324,"780":4.369290828704834,"781":-1.6558300256729126,"782":0.3079892694950104,"783":1.2342562675476074,"784":0.5801638960838318,"785":2.043476104736328,"786":2.0657339096069336,"787":0.15805351734161377,"788":-1.2165316343307495,"789":4.100226879119873,"790":-1.328443169593811,"791":-1.2203770875930786,"792":1.6487118005752563,"793":-2.2190115451812744,"794":0.4932295083999634,"795":-0.36479946970939636,"796":-1.273887276649475,"797":3.7906334400177,"798":-2.51886248588562,"799":-1.3431077003479004,"800":-1.8464643955230713,"801":1.0772325992584229,"802":3.3393239974975586,"803":1.899293065071106,"804":0.8571294546127319,"805":2.5541348457336426,"806":1.1527663469314575,"807":3.079864978790283,"808":0.09218289703130722,"809":4.174098014831543,"810":0.7696921825408936,"811":-0.6961737871170044,"812":-2.3665554523468018,"813":-0.017665019258856773,"814":-0.9674567580223083,"815":0.9279938340187073,"816":1.4124419689178467,"817":-0.43360963463783264,"818":-2.585827589035034,"819":-0.8958638310432434,"820":-3.052849292755127,"821":-0.19121646881103516,"822":3.355470657348633,"823":0.6212613582611084,"824":-0.343802809715271,"825":-0.250908762216568,"826":-2.0033020973205566,"827":-2.2922849655151367,"828":-4.963028907775879,"829":0.2768283486366272,"830":-2.9975805282592773,"831":0.10176027566194534,"832":3.391954183578491,"833":-2.482375144958496,"834":-4.211767673492432,"835":3.009622812271118,"836":3.50430965423584,"837":-0.7663823962211609,"838":-3.5191328525543213,"839":4.761653900146484,"840":-1.6925979852676392,"841":0.9383153319358826,"842":-1.0957285165786743,"843":-3.731112480163574,"844":1.6044365167617798,"845":-0.2556673586368561,"846":3.774139642715454,"847":0.18872947990894318,"848":0.7312004566192627,"849":-2.0331428050994873,"850":-0.5985433459281921,"851":-0.4269202947616577,"852":-3.3678154945373535,"853":0.4860166013240814,"854":-1.1015191078186035,"855":2.0894181728363037,"856":1.4028031826019287,"857":0.47878962755203247,"858":-2.025334358215332,"859":-3.2191154956817627,"860":-2.4568915367126465,"861":-0.1750868707895279,"862":-0.6688745021820068,"863":4.281329154968262,"864":-3.055436849594116,"865":-1.5107783079147339,"866":-1.2453510761260986,"867":3.132996082305908,"868":-0.08905540406703949,"869":1.6132307052612305,"870":-3.7541115283966064,"871":-0.9841100573539734,"872":-1.7733129262924194,"873":-2.8004417419433594,"874":0.8886524438858032,"875":0.4070490598678589,"876":1.546624779701233,"877":0.14847521483898163,"878":-3.959000587463379,"879":2.2774760723114014,"880":-0.18925267457962036,"881":5.8929266929626465,"882":3.9270102977752686,"883":-1.284090518951416,"884":4.034201145172119,"885":0.5744863748550415,"886":-1.1084015369415283,"887":-0.35506266355514526,"888":-1.592598557472229,"889":0.6685657501220703,"890":1.5296404361724854,"891":1.7742847204208374,"892":-0.006558609195053577,"893":4.363699436187744,"894":0.45465928316116333,"895":1.3887419700622559,"896":-1.6826688051223755,"897":-1.1390725374221802,"898":-0.0714893713593483,"899":1.3915778398513794,"900":-1.94107186794281,"901":-0.5946853756904602,"902":1.3897632360458374,"903":0.5039627552032471,"904":-2.931119680404663,"905":0.21668283641338348,"906":-3.2548162937164307,"907":-2.564321756362915,"908":1.3512777090072632,"909":-1.5337449312210083,"910":4.0860185623168945,"911":-0.018977006897330284,"912":-0.842735767364502,"913":-1.86338210105896,"914":-2.8495235443115234,"915":-4.051192760467529,"916":3.518664836883545,"917":3.2817606925964355,"918":1.5532033443450928,"919":-1.288190245628357,"920":2.057372808456421,"921":-0.38630202412605286,"922":1.924776554107666,"923":-0.12072516977787018,"924":0.7926017642021179,"925":1.3493508100509644,"926":1.3996714353561401,"927":-2.9333808422088623,"928":1.8300189971923828,"929":0.6301380395889282,"930":1.0416123867034912,"931":-0.8302710056304932,"932":-3.312394857406616,"933":2.2955000400543213,"934":2.2607228755950928,"935":-1.6252344846725464,"936":-3.3574323654174805,"937":0.3972160220146179,"938":2.4934511184692383,"939":-3.5263078212738037,"940":4.868764877319336,"941":2.3443052768707275,"942":-5.32700252532959,"943":2.622760057449341,"944":4.0102972984313965,"945":-4.5291314125061035,"946":-3.796351432800293,"947":-1.3869684934616089,"948":-8.13859748840332,"949":-3.5306859016418457,"950":4.475399494171143,"951":3.2400918006896973,"952":-8.022683143615723,"953":-4.962290287017822,"954":-1.1160186529159546,"955":4.807492733001709,"956":-5.031142234802246,"957":0.08603391796350479,"958":1.815362572669983,"959":-1.6260710954666138,"960":-1.072474718093872,"961":0.9469797611236572,"962":1.058326005935669,"963":3.8715193271636963,"964":1.7232567071914673,"965":-1.385930061340332,"966":0.9560431241989136,"967":-0.5676052570343018,"968":-1.7967764139175415,"969":-8.200725555419922,"970":-4.09914493560791,"971":-0.7996554374694824,"972":-5.0155181884765625,"973":-2.2023892402648926,"974":-7.529536247253418,"975":-1.5736463069915771,"976":-1.5727581977844238,"977":8.162884712219238,"978":1.5077519416809082,"979":0.7649959921836853,"980":3.2205991744995117,"981":-1.1133792400360107,"982":-1.143955945968628,"983":0.9291400909423828,"984":0.09686291962862015,"985":-0.8410311341285706,"986":-9.73883056640625,"987":8.495572090148926,"988":-2.122429370880127,"989":2.8947906494140625,"990":-6.287301063537598,"991":6.680012226104736,"992":-0.6185302138328552,"993":-3.5579121112823486,"994":0.6804071664810181,"995":0.7791599035263062,"996":-8.093374252319336,"997":-0.13058248162269592,"998":-9.937997817993164,"999":8.247930526733398,"1000":4.188412666320801,"1001":-4.379415035247803,"1002":3.610337257385254,"1003":-0.14120228588581085,"1004":-2.640089750289917,"1005":-0.8547391891479492,"1006":-13.286974906921387,"1007":-1.2589632272720337,"1008":4.601759433746338,"1009":-0.07246548682451248,"1010":-0.3482568562030792,"1011":0.12299035489559174,"1012":-2.224074363708496,"1013":-0.5690877437591553,"1014":-2.2891340255737305,"1015":1.2476236820220947,"1016":-0.08199267089366913,"1017":-1.3614706993103027,"1018":-1.8800055980682373,"1019":4.012826919555664,"1020":-0.26024866104125977,"1021":0.9822056293487549,"1022":-0.34929895401000977,"1023":-1.5421561002731323,"1024":0.06179429963231087,"1025":1.5431314706802368,"1026":-1.9716944694519043,"1027":-1.3853819370269775,"1028":1.8776742219924927,"1029":-2.080467939376831,"1030":-3.9548447132110596,"1031":1.554553508758545,"1032":-0.6250561475753784,"1033":2.851529836654663,"1034":-0.7570145726203918,"1035":-0.9343838095664978,"1036":0.4237947165966034,"1037":-2.8811628818511963,"1038":-2.335688352584839,"1039":-1.3306020498275757,"1040":-0.5252564549446106,"1041":-1.9561936855316162,"1042":1.152610421180725,"1043":3.830047369003296,"1044":-0.3945111930370331,"1045":-1.7241694927215576,"1046":1.5288066864013672,"1047":-1.5323083400726318,"1048":2.4320755004882812,"1049":-0.34461331367492676,"1050":-0.28466615080833435,"1051":0.47553205490112305,"1052":0.6977344155311584,"1053":-1.7734942436218262,"1054":1.2941187620162964,"1055":-1.3165130615234375,"1056":-2.7749571800231934,"1057":-0.5126763582229614,"1058":-3.559891939163208,"1059":0.05833069235086441,"1060":1.7155343294143677,"1061":-0.37529274821281433,"1062":-0.11487927287817001,"1063":1.488086462020874,"1064":2.9837098121643066,"1065":-4.555259704589844,"1066":1.7890546321868896,"1067":-1.0284124612808228,"1068":-4.107570648193359,"1069":1.5522185564041138,"1070":1.041794776916504,"1071":0.45848751068115234,"1072":1.7172887325286865,"1073":-3.1960091590881348,"1074":-3.6759755611419678,"1075":1.5831091403961182,"1076":0.13487131893634796,"1077":0.5405260920524597,"1078":0.9626790285110474,"1079":1.3192306756973267,"1080":-0.1413062959909439,"1081":0.2895614802837372,"1082":1.5275546312332153,"1083":-3.2121164798736572,"1084":-0.3807128667831421,"1085":1.7401800155639648,"1086":0.21101392805576324,"1087":-1.757980465888977,"1088":2.4888899326324463,"1089":1.3452584743499756,"1090":3.239851713180542,"1091":-1.7042449712753296,"1092":0.8321002125740051,"1093":0.5301963686943054,"1094":0.869848370552063,"1095":0.6548006534576416,"1096":-0.37453359365463257,"1097":5.96445894241333,"1098":0.24726861715316772,"1099":2.355133295059204,"1100":-3.451807737350464,"1101":-0.2669500410556793,"1102":0.35762345790863037,"1103":-0.8113884329795837,"1104":-1.4204307794570923,"1105":-0.06717080622911453,"1106":-1.7473973035812378,"1107":-0.022944169119000435,"1108":-1.8995342254638672,"1109":-2.6638269424438477,"1110":1.3280631303787231,"1111":0.8039407134056091,"1112":-1.3715167045593262,"1113":-3.208190441131592,"1114":-2.3102962970733643,"1115":-1.030996322631836,"1116":-3.044569253921509,"1117":-0.9514358639717102,"1118":2.378883123397827,"1119":3.0219297409057617,"1120":-3.0775129795074463,"1121":2.6678900718688965,"1122":-2.2460741996765137,"1123":3.268527030944824,"1124":-1.4269834756851196,"1125":2.3458728790283203,"1126":-0.02090870961546898,"1127":1.3941653966903687,"1128":-1.4230778217315674,"1129":-1.6244264841079712,"1130":-1.5183981657028198,"1131":-2.5188801288604736,"1132":-2.8551876544952393,"1133":2.3249831199645996,"1134":-1.1278501749038696,"1135":1.220621109008789,"1136":1.1510369777679443,"1137":-1.0141531229019165,"1138":-0.44747111201286316,"1139":0.27494534850120544,"1140":0.96678626537323,"1141":-0.8437218070030212,"1142":2.284228801727295,"1143":-0.5376510620117188,"1144":-0.8275158405303955,"1145":-1.8750630617141724,"1146":-0.329833447933197,"1147":-1.913075566291809,"1148":-1.3926961421966553,"1149":-0.68531733751297,"1150":-1.822264552116394,"1151":1.0101640224456787,"1152":0.010669649578630924,"1153":0.3896328806877136,"1154":1.1826670169830322,"1155":-0.11483687162399292,"1156":1.0328158140182495,"1157":-1.3613253831863403,"1158":-0.397614985704422,"1159":0.27793529629707336,"1160":0.6432371139526367,"1161":-0.5629557371139526,"1162":0.15391188859939575,"1163":1.2055320739746094,"1164":-0.5820997953414917,"1165":-1.9089365005493164,"1166":-1.252164363861084,"1167":-1.194424033164978,"1168":1.598205804824829,"1169":-0.07579825073480606,"1170":0.7203931212425232,"1171":2.9783284664154053,"1172":-0.000934730633161962,"1173":-1.6510074138641357,"1174":-1.714629888534546,"1175":-0.6413658857345581,"1176":0.00264920387417078,"1177":-1.0958894491195679,"1178":0.1886814534664154,"1179":2.48783802986145,"1180":-0.3754922151565552,"1181":-0.5802881717681885,"1182":-1.4515042304992676,"1183":0.11393095552921295,"1184":-1.2677526473999023,"1185":-0.04537384584546089,"1186":-1.9098925590515137,"1187":1.4962433576583862,"1188":-0.8441939353942871,"1189":-0.2662457227706909,"1190":-1.6210471391677856,"1191":0.9081743359565735,"1192":-3.734107255935669,"1193":2.473241090774536,"1194":1.135627031326294,"1195":1.1383943557739258,"1196":-2.0168862342834473,"1197":1.71550714969635,"1198":4.91963005065918,"1199":0.9755221009254456,"1200":4.602942943572998,"1201":-2.0546340942382812,"1202":3.2214503288269043,"1203":-4.569839000701904,"1204":-6.930873870849609,"1205":-3.400535821914673,"1206":-4.795079231262207,"1207":-1.2904186248779297,"1208":-4.790140628814697,"1209":2.663783073425293,"1210":-9.826251983642578,"1211":-7.079283714294434,"1212":-3.555572986602783,"1213":-4.339148998260498,"1214":-2.2669312953948975,"1215":4.4911065101623535,"1216":0.5931985378265381,"1217":-6.185817241668701,"1218":-2.875540256500244,"1219":1.7057280540466309,"1220":2.0011541843414307,"1221":8.381922721862793,"1222":3.6029021739959717,"1223":-1.5562633275985718,"1224":10.304451942443848,"1225":2.7409706115722656,"1226":-5.828785419464111,"1227":1.5561816692352295,"1228":-5.907066822052002,"1229":-3.0145506858825684,"1230":-3.982753276824951,"1231":0.6581412553787231,"1232":-6.119914531707764,"1233":-0.9358227849006653,"1234":-2.920231819152832,"1235":-1.0143965482711792,"1236":6.830316543579102,"1237":-1.413256049156189,"1238":8.499712944030762,"1239":-11.609106063842773,"1240":0.15577132999897003,"1241":2.109377861022949,"1242":3.546604871749878,"1243":2.366264581680298,"1244":-1.9931584596633911,"1245":0.3901778757572174,"1246":-4.545197010040283,"1247":-2.901217222213745,"1248":-3.676764965057373,"1249":6.711457252502441,"1250":-0.012831039726734161,"1251":-5.6838812828063965,"1252":-3.236567974090576,"1253":-3.3646693229675293,"1254":2.351872444152832,"1255":-0.28093910217285156,"1256":1.8977099657058716,"1257":-0.13614046573638916,"1258":0.9032701849937439,"1259":-1.6513360738754272,"1260":0.3617306351661682,"1261":0.2972331941127777,"1262":-0.3481498062610626,"1263":-1.722098469734192,"1264":-4.433801174163818,"1265":-2.6821210384368896,"1266":0.3702697455883026,"1267":-0.561093270778656,"1268":-1.0367716550827026,"1269":-1.8353593349456787,"1270":-2.6590981483459473,"1271":1.7276568412780762,"1272":-1.7459540367126465,"1273":1.4210528135299683,"1274":-0.9947938919067383,"1275":-2.3085319995880127,"1276":1.6851592063903809,"1277":6.037852764129639,"1278":-1.447516679763794,"1279":-1.0641610622406006,"1280":2.323894500732422,"1281":-0.2761160731315613,"1282":-4.4674201011657715,"1283":-2.8309831619262695,"1284":-0.5820455551147461,"1285":1.8245275020599365,"1286":-0.6902085542678833,"1287":-2.6659328937530518,"1288":-1.9602582454681396,"1289":-0.16994507610797882,"1290":-3.1495540142059326,"1291":1.4058294296264648,"1292":-1.6665573120117188,"1293":-2.451814651489258,"1294":-0.18334190547466278,"1295":5.650538444519043,"1296":1.5768150091171265,"1297":-1.4771342277526855,"1298":1.4290882349014282,"1299":-1.845341682434082,"1300":0.7331140637397766,"1301":-3.5131044387817383,"1302":-0.865820050239563,"1303":1.3015110492706299,"1304":1.9421299695968628,"1305":1.0198602676391602,"1306":0.6569547057151794,"1307":-2.8468339443206787,"1308":-4.572473049163818,"1309":-0.0874175876379013,"1310":-3.3429548740386963,"1311":-0.9703724384307861,"1312":0.6217951774597168,"1313":-1.6756027936935425,"1314":0.008672264404594898,"1315":1.2582550048828125,"1316":0.45112845301628113,"1317":-1.0472766160964966,"1318":2.97971510887146,"1319":-0.7191712260246277,"1320":-0.5495700836181641,"1321":-0.800001323223114,"1322":1.7347491979599,"1323":0.23009541630744934,"1324":2.4195048809051514,"1325":-0.676844596862793,"1326":0.885032594203949,"1327":1.666609287261963,"1328":-5.638948917388916,"1329":-0.5572615265846252,"1330":2.886956214904785,"1331":1.033166527748108,"1332":-1.9524576663970947,"1333":-1.4572536945343018,"1334":1.837807297706604,"1335":0.9221544861793518,"1336":2.4208357334136963,"1337":0.6919121146202087,"1338":0.32180970907211304,"1339":-3.2435832023620605,"1340":0.547624945640564,"1341":-1.6075918674468994,"1342":-0.6593247652053833,"1343":1.231522560119629,"1344":-2.1544480323791504,"1345":-0.6344860196113586,"1346":-4.426507949829102,"1347":1.0337964296340942,"1348":1.3859559297561646,"1349":-1.3981915712356567,"1350":-0.6971055269241333,"1351":-0.17182859778404236,"1352":3.1985278129577637,"1353":-2.98862624168396,"1354":2.5347063541412354,"1355":-3.1319706439971924,"1356":-2.220339298248291,"1357":2.8732924461364746,"1358":1.7933743000030518,"1359":-0.8538837432861328,"1360":-0.4212586283683777,"1361":1.1120414733886719,"1362":1.115870714187622,"1363":-2.066850185394287,"1364":0.34263506531715393,"1365":-1.7489559650421143,"1366":3.259805679321289,"1367":2.1067392826080322,"1368":2.0427258014678955,"1369":-0.9438124895095825,"1370":0.06157393380999565,"1371":-0.6785112619400024,"1372":1.2882920503616333,"1373":-1.3127403259277344,"1374":-0.2564142048358917,"1375":-0.10238147526979446,"1376":1.038046956062317,"1377":-2.7609989643096924,"1378":-1.3894619941711426,"1379":2.9557409286499023,"1380":-3.0565943717956543,"1381":0.41006386280059814,"1382":1.044088363647461,"1383":-0.6348670721054077,"1384":2.5424678325653076,"1385":-0.20657499134540558,"1386":-1.570801019668579,"1387":-5.3290696144104,"1388":4.607123374938965,"1389":2.020385503768921,"1390":-2.494044780731201,"1391":3.6308188438415527,"1392":2.1001949310302734,"1393":-1.2279956340789795,"1394":2.117013692855835,"1395":-2.060701847076416,"1396":-0.57295823097229,"1397":-0.3196946084499359,"1398":-1.377902865409851,"1399":5.659411907196045,"1400":3.247621774673462,"1401":0.8554068207740784,"1402":1.662863850593567,"1403":-0.7681847810745239,"1404":-2.4400992393493652,"1405":0.19555814564228058,"1406":-0.5243239402770996,"1407":-1.4866594076156616,"1408":-4.76202917098999,"1409":-3.551952600479126,"1410":-2.922616481781006,"1411":-1.435235619544983,"1412":0.3725249767303467,"1413":-4.192988872528076,"1414":1.9736520051956177,"1415":0.26727402210235596,"1416":-3.712348222732544,"1417":-2.8383514881134033,"1418":-1.8401025533676147,"1419":-5.108148574829102,"1420":-1.704734206199646,"1421":-0.658071756362915,"1422":-2.867398262023926,"1423":0.6304729580879211,"1424":-0.23920369148254395,"1425":-3.3927390575408936,"1426":-1.6857892274856567,"1427":-3.0352935791015625,"1428":4.513428211212158,"1429":0.9811480045318604,"1430":3.4697113037109375,"1431":-0.6711689233779907,"1432":1.157536506652832,"1433":-1.5316156148910522,"1434":0.9000996351242065,"1435":0.004867181181907654,"1436":1.4852246046066284,"1437":-4.923340320587158,"1438":-3.077781915664673,"1439":-3.283902883529663,"1440":-6.570850849151611,"1441":1.918618083000183,"1442":-1.6714611053466797,"1443":1.350210428237915,"1444":0.17400334775447845,"1445":3.6391284465789795,"1446":2.816901683807373,"1447":-1.5546172857284546,"1448":5.672427654266357,"1449":-1.8421638011932373,"1450":15.980298042297363,"1451":5.605984687805176,"1452":-3.5638811588287354,"1453":-3.001490592956543,"1454":-11.072235107421875,"1455":-12.813231468200684,"1456":4.637707233428955,"1457":-0.3813648223876953,"1458":-21.692949295043945,"1459":-13.499663352966309,"1460":-3.7432916164398193,"1461":17.413373947143555,"1462":0.2102956622838974,"1463":-18.355485916137695,"1464":-20.701831817626953,"1465":0.06280111521482468,"1466":5.781872272491455,"1467":-32.22117614746094,"1468":11.480376243591309,"1469":10.12165355682373,"1470":-17.438425064086914,"1471":-26.943323135375977,"1472":2.4415299892425537,"1473":4.792813301086426,"1474":6.702935695648193,"1475":2.222583055496216,"1476":11.243839263916016,"1477":-3.034550189971924,"1478":12.517561912536621,"1479":-6.26982307434082,"1480":2.1481542587280273,"1481":-14.24245834350586,"1482":-12.728312492370605,"1483":1.816772222518921,"1484":17.834083557128906,"1485":-19.824790954589844,"1486":-22.719318389892578,"1487":22.658321380615234,"1488":0.007795120123773813,"1489":12.580954551696777,"1490":0.7921122312545776,"1491":2.9636857509613037,"1492":28.2846736907959,"1493":3.5816502571105957,"1494":2.366024971008301,"1495":13.167980194091797,"1496":-10.392814636230469,"1497":-15.677083969116211,"1498":12.944724082946777,"1499":-17.538654327392578,"1500":25.454669952392578,"1501":10.609739303588867,"1502":11.520248413085938,"1503":-7.2152605056762695,"1504":2.769672393798828,"1505":1.2293132543563843,"1506":-26.580223083496094,"1507":23.01819610595703,"1508":-1.3225841522216797,"1509":-22.678382873535156,"1510":10.058866500854492,"1511":-17.999771118164062,"1512":-5.060640335083008,"1513":-2.103205442428589,"1514":-7.160132884979248,"1515":-6.069694519042969,"1516":9.625521659851074,"1517":1.5926158428192139,"1518":5.529299259185791,"1519":5.043327808380127,"1520":-10.916986465454102,"1521":0.6033211350440979,"1522":5.673213005065918,"1523":-3.761923313140869,"1524":-4.870588302612305,"1525":-6.9660234451293945,"1526":1.3532037734985352,"1527":11.715652465820312,"1528":0.48788559436798096,"1529":-0.6312021613121033,"1530":10.53756332397461,"1531":-3.4095571041107178,"1532":0.14836791157722473,"1533":-5.3930487632751465,"1534":1.1802438497543335,"1535":5.316965103149414,"1536":4.616785049438477,"1537":-3.7321877479553223,"1538":-9.603096961975098,"1539":18.663814544677734,"1540":-11.82913589477539,"1541":-1.804296851158142,"1542":13.247454643249512,"1543":24.69658851623535,"1544":19.531328201293945,"1545":12.43722915649414,"1546":-5.863664150238037,"1547":-4.051947593688965,"1548":6.027946472167969,"1549":8.718544006347656,"1550":3.022650718688965,"1551":12.359363555908203,"1552":-9.109607696533203,"1553":0.10978350788354874,"1554":4.910536766052246,"1555":0.08995979279279709,"1556":-12.97690486907959,"1557":18.843494415283203,"1558":-8.133755683898926,"1559":0.806413471698761,"1560":-0.8799688220024109,"1561":14.205086708068848,"1562":-1.1104952096939087,"1563":7.686544418334961,"1564":9.52051067352295,"1565":-8.267160415649414,"1566":11.3010835647583,"1567":2.8526744842529297,"1568":-13.065958023071289,"1569":4.579273223876953,"1570":4.066949367523193,"1571":-10.892350196838379,"1572":4.910376071929932,"1573":-14.64808464050293,"1574":-10.934270858764648,"1575":-0.30398550629615784,"1576":-1.4524574279785156,"1577":-0.33673250675201416,"1578":8.267590522766113,"1579":1.1338499784469604,"1580":-6.23263692855835,"1581":-2.448895215988159,"1582":3.657101631164551,"1583":-3.5625975131988525,"1584":3.0341591835021973,"1585":2.2910640239715576,"1586":1.0159498453140259,"1587":4.569841384887695,"1588":-0.3571922481060028,"1589":2.6840081214904785,"1590":0.29903075098991394,"1591":5.1108880043029785,"1592":-0.9697991013526917,"1593":3.699136972427368,"1594":5.0562520027160645,"1595":-0.37873420119285583,"1596":-3.165801763534546,"1597":-0.21788279712200165,"1598":3.3761816024780273,"1599":-0.18069346249103546,"1600":-3.8810133934020996,"1601":3.1628406047821045,"1602":-1.5582629442214966,"1603":2.1974294185638428,"1604":0.494127482175827,"1605":4.174728870391846,"1606":-1.229815125465393,"1607":2.1849465370178223,"1608":2.454139232635498,"1609":-6.702718734741211,"1610":-0.3797818720340729,"1611":-2.1504006385803223,"1612":2.5634758472442627,"1613":2.484677314758301,"1614":1.9329146146774292,"1615":-2.113879919052124,"1616":6.013449668884277,"1617":6.920890808105469,"1618":-0.7663668394088745,"1619":-5.430374622344971,"1620":3.2215089797973633,"1621":6.274731636047363,"1622":5.810397624969482,"1623":4.49000358581543,"1624":-1.6269068717956543,"1625":1.9721413850784302,"1626":3.4391729831695557,"1627":-4.721639633178711,"1628":1.1861969232559204,"1629":2.758859395980835,"1630":-0.2398368865251541,"1631":4.739137649536133,"1632":-1.2542814016342163,"1633":-1.0640937089920044,"1634":5.250412464141846,"1635":2.3369927406311035,"1636":2.860553026199341,"1637":1.1539109945297241,"1638":-0.688054621219635,"1639":-3.156013011932373,"1640":-0.6481066346168518,"1641":2.3768930435180664,"1642":-0.9531724452972412,"1643":1.7314817905426025,"1644":-0.24271373450756073,"1645":1.9181464910507202,"1646":0.4653262794017792,"1647":0.8425281643867493,"1648":0.19078227877616882,"1649":0.8656626343727112,"1650":-1.7370282411575317,"1651":1.5782415866851807,"1652":-1.2548013925552368,"1653":-0.5458390116691589,"1654":-1.027487874031067,"1655":-3.4803764820098877,"1656":-1.592540979385376,"1657":1.4154491424560547,"1658":-3.8921191692352295,"1659":0.09678564965724945,"1660":-0.016720838844776154,"1661":1.6174283027648926,"1662":-2.5247440338134766,"1663":1.311581015586853,"1664":0.1130896583199501,"1665":-0.5032339692115784,"1666":-0.6495174169540405,"1667":-0.016518166288733482,"1668":1.6571547985076904,"1669":0.25329655408859253,"1670":-0.6815724968910217,"1671":-0.4446682929992676,"1672":-4.817740440368652,"1673":-2.9808785915374756,"1674":-0.3004431426525116,"1675":-3.557537078857422,"1676":2.1290576457977295,"1677":4.880934238433838,"1678":1.2021139860153198,"1679":-0.09962660819292068,"1680":-0.006920399609953165,"1681":0.1372026950120926,"1682":2.5100202560424805,"1683":-3.974179983139038,"1684":-3.192404270172119,"1685":-1.5043623447418213,"1686":2.4315297603607178,"1687":-0.006365099921822548,"1688":2.959369659423828,"1689":-2.641974687576294,"1690":-0.04206766188144684,"1691":-1.310558795928955,"1692":1.275004506111145,"1693":-1.4164199829101562,"1694":3.219869613647461,"1695":-1.1628985404968262,"1696":-0.13860410451889038,"1697":0.47075560688972473,"1698":0.8704721331596375,"1699":-3.858687162399292,"1700":1.4937524795532227,"1701":4.7043585777282715,"1702":-0.9813163876533508,"1703":-0.05469656363129616,"1704":2.414410352706909,"1705":1.4734373092651367,"1706":1.6101057529449463,"1707":-3.4737722873687744,"1708":3.086862087249756,"1709":1.0681352615356445,"1710":2.506300926208496,"1711":2.5832014083862305,"1712":3.4197094440460205,"1713":-1.0002293586730957,"1714":2.377011299133301,"1715":2.208329200744629,"1716":-2.1875667572021484,"1717":2.117309808731079,"1718":-0.12009061872959137,"1719":-1.802127480506897,"1720":-2.2787182331085205,"1721":0.9797644019126892,"1722":-1.9712554216384888,"1723":-2.5608415603637695,"1724":0.5684645175933838,"1725":1.7115223407745361,"1726":-2.939448595046997,"1727":0.4118315279483795,"1728":-2.2557058334350586,"1729":-2.994678497314453,"1730":-1.0733717679977417,"1731":-0.4535796642303467,"1732":2.4647815227508545,"1733":0.8480154275894165,"1734":0.7060936093330383,"1735":-1.8423513174057007,"1736":-1.3633348941802979,"1737":2.9949371814727783,"1738":-3.5106923580169678,"1739":-0.5386660695075989,"1740":2.7544920444488525,"1741":1.9336087703704834,"1742":2.4354567527770996,"1743":-0.9584487080574036,"1744":2.3906660079956055,"1745":0.801868200302124,"1746":-2.5083138942718506,"1747":1.6511566638946533,"1748":2.8996219635009766,"1749":0.617920458316803,"1750":3.53800892829895,"1751":-2.2213921546936035,"1752":3.476508855819702,"1753":2.2043936252593994,"1754":1.0634686946868896,"1755":-0.6283096075057983,"1756":0.4744076430797577,"1757":0.4507438540458679,"1758":-2.355682611465454,"1759":-1.0570125579833984,"1760":-0.06112579256296158,"1761":-0.3153175711631775,"1762":0.7897472381591797,"1763":2.4866909980773926,"1764":-2.068117141723633,"1765":-0.2388768494129181,"1766":-4.2771315574646,"1767":-6.153529167175293,"1768":3.9666707515716553,"1769":3.8354344367980957,"1770":0.6846392750740051,"1771":-0.3199092447757721,"1772":-4.056135654449463,"1773":2.8973946571350098,"1774":3.915009021759033,"1775":0.819749653339386,"1776":-2.992250442504883,"1777":0.9312605261802673,"1778":3.283085584640503,"1779":4.750004768371582,"1780":1.9098608493804932,"1781":-1.947995662689209,"1782":0.6088147759437561,"1783":3.794304609298706,"1784":4.376575946807861,"1785":0.2183000147342682,"1786":2.091464042663574,"1787":-2.768695116043091,"1788":4.061316967010498,"1789":-1.3854007720947266,"1790":1.5085968971252441,"1791":-2.1672184467315674,"1792":-10.493144989013672,"1793":-2.4494662284851074,"1794":1.0634082555770874,"1795":0.709456205368042,"1796":5.749270915985107,"1797":2.495568037033081,"1798":-2.4690330028533936,"1799":-4.462339401245117,"1800":-4.549283027648926,"1801":4.87116003036499,"1802":-3.353224515914917,"1803":2.512190103530884,"1804":0.4721117317676544,"1805":3.0593020915985107,"1806":-0.43043678998947144,"1807":-1.220593810081482,"1808":-1.740923285484314,"1809":-1.0104906558990479,"1810":1.4732182025909424,"1811":1.9889984130859375,"1812":3.4021222591400146,"1813":2.8486368656158447,"1814":3.1593527793884277,"1815":1.4070545434951782,"1816":1.8600355386734009,"1817":-0.12563422322273254,"1818":5.526487827301025,"1819":-4.421553611755371,"1820":-2.5694937705993652,"1821":0.02533680386841297,"1822":0.532294750213623,"1823":2.7249560356140137,"1824":2.3796162605285645,"1825":-3.6163783073425293,"1826":-0.15397167205810547,"1827":0.07003295421600342,"1828":-1.171993374824524,"1829":-1.5431047677993774,"1830":-1.7724041938781738,"1831":1.6592305898666382,"1832":3.874844551086426,"1833":-1.0227450132369995,"1834":-2.1228511333465576,"1835":-1.6847118139266968,"1836":0.20434190332889557,"1837":0.5046582818031311,"1838":-4.536471843719482,"1839":1.9535688161849976,"1840":0.2749702036380768,"1841":-1.07743501663208,"1842":0.6590172648429871,"1843":0.34609338641166687,"1844":0.02337907999753952,"1845":-1.1414893865585327,"1846":-0.5360895991325378,"1847":0.04813624918460846,"1848":-2.1811091899871826,"1849":-2.2081120014190674,"1850":1.5325013399124146,"1851":0.5266204476356506,"1852":-1.7820510864257812,"1853":-4.687793731689453,"1854":3.1496999263763428,"1855":-4.544788360595703,"1856":1.1199371814727783,"1857":0.0943358764052391,"1858":-0.658967137336731,"1859":2.604984998703003,"1860":0.2407880425453186,"1861":0.868277370929718,"1862":0.7129287123680115,"1863":1.1045773029327393,"1864":-1.1830016374588013,"1865":1.2338603734970093,"1866":2.650287389755249,"1867":-1.983487606048584,"1868":0.1257728636264801,"1869":1.4264273643493652,"1870":2.309115409851074,"1871":-1.855300784111023,"1872":0.3647165298461914,"1873":1.7352724075317383,"1874":-1.7913283109664917,"1875":-2.368877410888672,"1876":2.9618139266967773,"1877":-1.1391204595565796,"1878":0.7764601111412048,"1879":-3.2437148094177246,"1880":-2.9925436973571777,"1881":3.519630193710327,"1882":-1.3034639358520508,"1883":-2.2062273025512695,"1884":2.9625916481018066,"1885":2.1607861518859863,"1886":1.0700584650039673,"1887":7.086981296539307,"1888":-1.4770351648330688,"1889":-1.847191333770752,"1890":-2.6526925563812256,"1891":0.8243342041969299,"1892":-3.3812994956970215,"1893":3.1937427520751953,"1894":-1.2381696701049805,"1895":-1.3751626014709473,"1896":-2.0156657695770264,"1897":1.861210584640503,"1898":1.0215104818344116,"1899":-2.3054392337799072,"1900":2.349196195602417,"1901":-0.29583311080932617,"1902":1.6275966167449951,"1903":-3.5730557441711426,"1904":-1.2829086780548096,"1905":1.0778263807296753,"1906":-1.3787226676940918,"1907":-0.8687422871589661,"1908":2.0032660961151123,"1909":-0.029522860422730446,"1910":-0.8178064227104187,"1911":-1.0743809938430786,"1912":2.86926007270813,"1913":-0.93517005443573,"1914":-0.004850747063755989,"1915":3.3107428550720215,"1916":0.4087428152561188,"1917":-0.10289616882801056,"1918":3.148195266723633,"1919":1.7055128812789917,"1920":2.4048123359680176,"1921":2.5037426948547363,"1922":-3.738457202911377,"1923":-1.7547938823699951,"1924":-2.1772663593292236,"1925":-4.4096198081970215,"1926":2.3759162425994873,"1927":0.16667655110359192,"1928":0.7221294045448303,"1929":-0.5210685729980469,"1930":-2.012006998062134,"1931":-0.1810627430677414,"1932":-0.1741427183151245,"1933":-1.0525925159454346,"1934":-2.9809420108795166,"1935":0.9646991491317749,"1936":-1.008253574371338,"1937":3.007802724838257,"1938":2.5542266368865967,"1939":-1.937341570854187,"1940":1.7155401706695557,"1941":0.373806893825531,"1942":-3.125946283340454,"1943":-0.06996865570545197,"1944":-3.0264697074890137,"1945":-1.542539358139038,"1946":1.6524393558502197,"1947":4.021547317504883,"1948":1.2844493389129639,"1949":0.5336930155754089,"1950":4.2341814041137695,"1951":-0.11378880590200424,"1952":-0.6626092791557312,"1953":-3.3629610538482666,"1954":-0.05217927321791649,"1955":-6.542238712310791,"1956":-0.012247029691934586,"1957":0.502872109413147,"1958":-4.816750526428223,"1959":4.632873058319092,"1960":-1.1954761743545532,"1961":0.9169042110443115,"1962":-1.30550217628479,"1963":-11.796175003051758,"1964":4.870767593383789,"1965":4.619146823883057,"1966":-3.8518002033233643,"1967":-13.828546524047852,"1968":-4.040034770965576,"1969":-6.308990955352783,"1970":-0.2383723258972168,"1971":-3.2004294395446777,"1972":4.589869499206543,"1973":0.4090254008769989,"1974":-4.476169109344482,"1975":-6.805314064025879,"1976":-2.1537721157073975,"1977":-4.629000186920166,"1978":-1.4118810892105103,"1979":-2.1900930404663086,"1980":6.370308876037598,"1981":-0.8232418894767761,"1982":4.3874640464782715,"1983":-13.525408744812012,"1984":-6.680290699005127,"1985":3.6071019172668457,"1986":1.1681225299835205,"1987":4.7314453125,"1988":6.195295810699463,"1989":-3.841506004333496,"1990":-0.45982369780540466,"1991":7.140659809112549,"1992":-10.259224891662598,"1993":1.9159026145935059,"1994":-1.4223356246948242,"1995":-5.284761428833008,"1996":2.184536933898926,"1997":1.227386474609375,"1998":-0.7004995346069336,"1999":-7.013719081878662,"2000":-10.319271087646484,"2001":-4.166904926300049,"2002":-0.45853757858276367,"2003":-4.45375919342041,"2004":1.115200161933899,"2005":-3.8765010833740234,"2006":5.7660441398620605,"2007":4.237961769104004,"2008":-0.08586016297340393,"2009":1.6699625253677368,"2010":-3.2597625255584717,"2011":1.5203461647033691,"2012":0.23879218101501465,"2013":-5.286537170410156,"2014":-3.378944158554077,"2015":-4.706610679626465,"2016":-1.4721626043319702,"2017":-1.2103383541107178,"2018":3.544161558151245,"2019":-0.6512281894683838,"2020":-4.171754360198975,"2021":5.6371169090271,"2022":7.0253520011901855,"2023":-1.6041961908340454,"2024":0.5541785955429077,"2025":0.7277771830558777,"2026":-2.0236949920654297,"2027":-1.3455495834350586,"2028":-2.4334964752197266,"2029":-2.382819652557373,"2030":-3.6140480041503906,"2031":-2.8144519329071045,"2032":-1.6089613437652588,"2033":-0.7349123358726501,"2034":-1.9397412538528442,"2035":3.0422935485839844,"2036":0.9691530466079712,"2037":0.3271212875843048,"2038":0.46785053610801697,"2039":1.0520776510238647,"2040":-5.310692310333252,"2041":-2.286278486251831,"2042":3.3537487983703613,"2043":1.6266857385635376,"2044":-4.227502346038818,"2045":-2.993864059448242,"2046":0.5523240566253662,"2047":-2.1103100776672363,"2048":2.3439104557037354,"2049":0.7304945588111877,"2050":2.2715344429016113,"2051":1.374080777168274,"2052":2.1741392612457275,"2053":0.33099743723869324,"2054":-3.093207597732544,"2055":1.3372753858566284,"2056":1.9340336322784424,"2057":1.3410770893096924,"2058":0.29254165291786194,"2059":-4.784143447875977,"2060":0.22574655711650848,"2061":2.0743043422698975,"2062":-1.5020875930786133,"2063":-3.853381633758545,"2064":-3.688791036605835,"2065":-2.2275102138519287,"2066":-1.2677170038223267,"2067":0.626217246055603,"2068":-0.2242642492055893,"2069":2.5615758895874023,"2070":3.5943517684936523,"2071":-4.746218204498291,"2072":-5.555630683898926,"2073":2.2888548374176025,"2074":-2.698986530303955,"2075":5.0764079093933105,"2076":2.98633074760437,"2077":-5.787485122680664,"2078":-4.0452189445495605,"2079":2.0150952339172363,"2080":-5.314486026763916,"2081":6.142716884613037,"2082":6.529329299926758,"2083":-1.4291143417358398,"2084":-12.510420799255371,"2085":-1.8413238525390625,"2086":3.2786567211151123,"2087":6.560805320739746,"2088":-4.193345069885254,"2089":-5.93373441696167,"2090":2.097036600112915,"2091":-2.8983097076416016,"2092":0.5191782712936401,"2093":5.178431510925293,"2094":-2.9114367961883545,"2095":2.1680095195770264,"2096":4.707717418670654,"2097":-2.9084136486053467,"2098":0.3840356767177582,"2099":-2.570859670639038,"2100":0.8835010528564453,"2101":-7.2992844581604,"2102":-5.937017917633057,"2103":2.178579330444336,"2104":1.8977502584457397,"2105":0.8617227077484131,"2106":1.4612194299697876,"2107":3.443819046020508,"2108":6.34104061126709,"2109":0.14687146246433258,"2110":3.197307825088501,"2111":-12.549422264099121,"2112":0.00640168646350503,"2113":-3.64070463180542,"2114":6.923784255981445,"2115":0.8334089517593384,"2116":-7.165924549102783,"2117":-0.7244041562080383,"2118":6.9286274909973145,"2119":-0.3240600526332855,"2120":0.6518101096153259,"2121":-4.353131294250488,"2122":9.18178653717041,"2123":4.710160732269287,"2124":-3.7936062812805176,"2125":-0.4465174376964569,"2126":10.324063301086426,"2127":3.1217408180236816,"2128":0.8976701498031616,"2129":-3.668062925338745,"2130":2.522833824157715,"2131":3.2513668537139893,"2132":0.2801415026187897,"2133":-14.95234203338623,"2134":3.7141685485839844,"2135":8.11072063446045,"2136":-7.214046478271484,"2137":-1.5857751369476318,"2138":5.744405746459961,"2139":-3.091146230697632,"2140":9.155312538146973,"2141":8.770774841308594,"2142":4.5004167556762695,"2143":5.095003604888916,"2144":0.40492865443229675,"2145":3.9654760360717773,"2146":2.627922534942627,"2147":-0.5135257244110107,"2148":-6.292051792144775,"2149":2.36338472366333,"2150":1.962923288345337,"2151":2.8699522018432617,"2152":2.1378860473632812,"2153":3.846153497695923,"2154":-1.7894366979599,"2155":2.1587603092193604,"2156":3.72446346282959,"2157":-1.4768249988555908,"2158":0.7603543400764465,"2159":2.7354350090026855,"2160":-0.968465268611908,"2161":-0.8788028359413147,"2162":1.9044746160507202,"2163":-3.7350690364837646,"2164":-1.6385337114334106,"2165":-3.3620448112487793,"2166":3.080524444580078,"2167":-6.173774719238281,"2168":-1.0027776956558228,"2169":-2.762967348098755,"2170":0.30440905690193176,"2171":1.159165382385254,"2172":-3.7533655166625977,"2173":0.666851282119751,"2174":-3.0964109897613525,"2175":-0.9319475889205933,"2176":-1.9190866947174072,"2177":-0.9593543410301208,"2178":1.6397972106933594,"2179":-1.2576189041137695,"2180":-1.654675841331482,"2181":2.747342586517334,"2182":-3.0488195419311523,"2183":-1.7726349830627441,"2184":1.1303092241287231,"2185":2.1655516624450684,"2186":-0.8327057361602783,"2187":2.4397199153900146,"2188":6.264121055603027,"2189":4.198504447937012,"2190":2.0386409759521484,"2191":0.3818693161010742,"2192":-3.442953586578369,"2193":-0.12389370054006577,"2194":2.810900926589966,"2195":-0.3123273253440857,"2196":-0.749657154083252,"2197":-0.4947303235530853,"2198":2.5912885665893555,"2199":-2.9509334564208984,"2200":2.118793487548828,"2201":4.114482879638672,"2202":-0.5587283968925476,"2203":4.309278964996338,"2204":-0.7334251403808594,"2205":3.0922563076019287,"2206":6.197678089141846,"2207":-8.504341125488281,"2208":-6.0100603103637695,"2209":-6.128178596496582,"2210":-3.703099250793457,"2211":-4.1443963050842285,"2212":-4.097935199737549,"2213":0.6466436982154846,"2214":8.392319679260254,"2215":-4.817330837249756,"2216":1.9646031856536865,"2217":-1.6562414169311523,"2218":-3.1334335803985596,"2219":-5.397449970245361,"2220":-6.423748970031738,"2221":-2.8752331733703613,"2222":3.247788190841675,"2223":-1.509446382522583,"2224":2.2189781665802,"2225":-4.465224742889404,"2226":-2.897566318511963,"2227":-3.4994685649871826,"2228":0.25980448722839355,"2229":4.934073448181152,"2230":0.44742685556411743,"2231":2.093001127243042,"2232":2.6921021938323975,"2233":-3.8488729000091553,"2234":-2.1012425422668457,"2235":-4.823326587677002,"2236":4.01340913772583,"2237":2.052950143814087,"2238":2.0992681980133057,"2239":0.8457553386688232,"2240":7.758760929107666,"2241":-2.265397548675537,"2242":-1.456923484802246,"2243":7.2257304191589355,"2244":2.597081184387207,"2245":-2.7580490112304688,"2246":-3.0672507286071777,"2247":-6.084131717681885,"2248":4.273216724395752,"2249":1.253556489944458,"2250":6.330414772033691,"2251":-4.022369861602783,"2252":-4.313004016876221,"2253":-10.209249496459961,"2254":6.389523029327393,"2255":-4.446003437042236,"2256":0.06234799697995186,"2257":6.492959022521973,"2258":1.3563642501831055,"2259":8.036458969116211,"2260":-0.8116081357002258,"2261":2.1324620246887207,"2262":-1.9279028177261353,"2263":4.411221981048584,"2264":-0.5440259575843811,"2265":-2.5595462322235107,"2266":-2.5708789825439453,"2267":-3.2307794094085693,"2268":-6.125997543334961,"2269":-10.751323699951172,"2270":-3.5762696266174316,"2271":2.4144673347473145,"2272":8.996095657348633,"2273":2.0229039192199707,"2274":-0.3239818811416626,"2275":-8.040079116821289,"2276":0.8748207688331604,"2277":2.6352224349975586,"2278":8.873836517333984,"2279":-12.28518009185791,"2280":1.025162696838379,"2281":-4.774557590484619,"2282":4.49259090423584,"2283":7.686911106109619,"2284":-2.1633102893829346,"2285":0.8637488484382629,"2286":10.372443199157715,"2287":6.536139965057373,"2288":-12.57021713256836,"2289":6.361120700836182,"2290":6.756370544433594,"2291":-1.597852349281311,"2292":0.6561312079429626,"2293":-13.535078048706055,"2294":-1.3625383377075195,"2295":-6.632835388183594,"2296":-1.0384098291397095,"2297":3.024726629257202,"2298":6.200517654418945,"2299":-9.525595664978027,"2300":0.8211663961410522,"2301":7.832855701446533,"2302":-6.171213626861572,"2303":-8.40907096862793,"2304":-11.914159774780273,"2305":-7.934679985046387,"2306":-3.6893656253814697,"2307":4.8841753005981445,"2308":0.18744708597660065,"2309":0.6757073402404785,"2310":3.7199809551239014,"2311":-14.613182067871094,"2312":-4.397998809814453,"2313":1.9600721597671509,"2314":18.10704231262207,"2315":10.894413948059082,"2316":1.6542013883590698,"2317":-1.6214529275894165,"2318":9.005891799926758,"2319":-0.3463453948497772,"2320":-7.3026041984558105,"2321":-2.6244912147521973,"2322":-0.039255302399396896,"2323":3.979279041290283,"2324":-11.836456298828125,"2325":7.489310264587402,"2326":-15.100930213928223,"2327":-1.3664036989212036,"2328":8.526084899902344,"2329":-2.4077510833740234,"2330":-4.43618631362915,"2331":3.706366777420044,"2332":6.17778205871582,"2333":-5.616730690002441,"2334":13.096685409545898,"2335":-5.678478717803955,"2336":-2.56170392036438,"2337":-11.739537239074707,"2338":8.71073055267334,"2339":-1.6029396057128906,"2340":4.709139347076416,"2341":-2.657703399658203,"2342":-5.474679946899414,"2343":-0.039566606283187866,"2344":1.339877724647522,"2345":-8.539716720581055,"2346":-15.54710865020752,"2347":-0.9862558841705322,"2348":3.31813383102417,"2349":-3.415487766265869,"2350":-3.2404654026031494,"2351":-5.708915710449219,"2352":-13.284623146057129,"2353":3.3367185592651367,"2354":2.5324151515960693,"2355":10.261713027954102,"2356":8.960334777832031,"2357":2.842230796813965,"2358":0.12122893333435059,"2359":2.074798107147217,"2360":-6.135769844055176,"2361":-2.1264240741729736,"2362":1.5736899375915527,"2363":-4.138563632965088,"2364":0.6546423435211182,"2365":2.8007142543792725,"2366":-1.209958791732788,"2367":-4.914546012878418,"2368":-1.9996343851089478,"2369":12.09980583190918,"2370":0.03964846581220627,"2371":6.398233890533447,"2372":5.926821708679199,"2373":-6.144669532775879,"2374":0.9513523578643799,"2375":-9.115751266479492,"2376":0.5590437054634094,"2377":-3.433403491973877,"2378":-2.1526684761047363,"2379":4.198630332946777,"2380":2.1787517070770264,"2381":2.8144476413726807,"2382":10.953134536743164,"2383":-3.4456844329833984,"2384":10.728696823120117,"2385":1.283356785774231,"2386":-2.050004482269287,"2387":5.83712911605835,"2388":-1.0872663259506226,"2389":-2.664191246032715,"2390":1.4186632633209229,"2391":-5.644420623779297,"2392":5.264026165008545,"2393":-6.698267936706543,"2394":2.4680583477020264,"2395":2.649825096130371,"2396":-2.48184871673584,"2397":-15.657806396484375,"2398":-7.284560680389404,"2399":16.228708267211914,"2400":-5.57435417175293,"2401":-11.873553276062012,"2402":-11.958700180053711,"2403":-6.713546276092529,"2404":4.4035186767578125,"2405":-11.719437599182129,"2406":-0.3171195387840271,"2407":-4.614755153656006,"2408":-1.0268604755401611,"2409":1.7388653755187988,"2410":0.2520396113395691,"2411":-1.1645232439041138,"2412":1.923288106918335,"2413":-9.039376258850098,"2414":-0.8542125225067139,"2415":10.286648750305176,"2416":-4.853039264678955,"2417":14.11367416381836,"2418":7.160669326782227,"2419":8.44732666015625,"2420":-8.191051483154297,"2421":2.809877634048462,"2422":-9.115809440612793,"2423":-14.934998512268066,"2424":9.150980949401855,"2425":12.902827262878418,"2426":7.57655143737793,"2427":6.548394203186035,"2428":6.068274974822998,"2429":-3.6939995288848877,"2430":3.0951056480407715,"2431":-3.1130380630493164,"2432":-3.6133131980895996,"2433":9.762967109680176,"2434":10.688187599182129,"2435":-4.902887344360352,"2436":8.28825855255127,"2437":3.734196662902832,"2438":-4.951709747314453,"2439":4.786900997161865,"2440":1.0049843788146973,"2441":2.0517187118530273,"2442":-8.930336952209473,"2443":18.60572624206543,"2444":2.0800399780273438,"2445":10.182135581970215,"2446":9.319241523742676,"2447":-9.150846481323242,"2448":5.361417293548584,"2449":1.3114962577819824,"2450":-12.494449615478516,"2451":8.992749214172363,"2452":1.7229703664779663,"2453":-11.786616325378418,"2454":3.997076988220215,"2455":-5.625761032104492,"2456":-4.4293317794799805,"2457":0.9944297671318054,"2458":4.628153324127197,"2459":-6.758413791656494,"2460":-1.5788553953170776,"2461":1.313517689704895,"2462":-1.3989465236663818,"2463":-7.055065631866455,"2464":4.109692573547363,"2465":-8.0363187789917,"2466":-1.2144702672958374,"2467":-1.0170413255691528,"2468":0.013340109027922153,"2469":6.002618312835693,"2470":-1.2211867570877075,"2471":-1.350904107093811,"2472":-3.935006618499756,"2473":1.872046947479248,"2474":-0.30270740389823914,"2475":-0.7744019627571106,"2476":-1.076816439628601,"2477":0.15223588049411774,"2478":2.151679039001465,"2479":-2.1154627799987793,"2480":7.040270805358887,"2481":3.454540252685547,"2482":4.378554821014404,"2483":-3.765805244445801,"2484":3.3076345920562744,"2485":4.686989784240723,"2486":-2.25693678855896,"2487":1.0725263357162476,"2488":-1.6568734645843506,"2489":4.2113938331604,"2490":4.912322998046875,"2491":1.0559697151184082,"2492":-0.9940342307090759,"2493":-2.89306378364563,"2494":-7.032869338989258,"2495":2.9504082202911377,"2496":-0.35522639751434326,"2497":1.968570590019226,"2498":6.799222469329834,"2499":-3.7042384147644043,"2500":3.3944928646087646,"2501":-0.1391010880470276,"2502":-3.772965669631958,"2503":-4.674066066741943,"2504":2.3312814235687256,"2505":0.5103285312652588,"2506":3.2013542652130127,"2507":-0.7009634971618652,"2508":0.8745850920677185,"2509":7.612715721130371,"2510":5.109495639801025,"2511":-1.4716691970825195,"2512":1.4190747737884521,"2513":0.7947718501091003,"2514":-5.2186055183410645,"2515":3.098585605621338,"2516":-5.345798015594482,"2517":1.279491901397705,"2518":1.4073717594146729,"2519":-4.514617919921875,"2520":8.795862197875977,"2521":-3.884711980819702,"2522":6.101948261260986,"2523":3.407902717590332,"2524":1.2900508642196655,"2525":-4.3878374099731445,"2526":0.23026609420776367,"2527":1.425868272781372,"2528":7.889527797698975,"2529":-3.0550525188446045,"2530":2.621572732925415,"2531":15.187515258789062,"2532":2.5696310997009277,"2533":0.2800162434577942,"2534":2.185600757598877,"2535":0.6328572034835815,"2536":-3.7054853439331055,"2537":-2.8770573139190674,"2538":-1.898034691810608,"2539":-5.1345720291137695,"2540":-2.499875068664551,"2541":8.16960620880127,"2542":1.9918973445892334,"2543":-4.26291561126709,"2544":4.199419975280762,"2545":-0.33671867847442627,"2546":1.4708549976348877,"2547":2.8118982315063477,"2548":2.0719268321990967,"2549":1.6269553899765015,"2550":6.142313003540039,"2551":1.8004506826400757,"2552":-6.261537075042725,"2553":-0.5576117634773254,"2554":-6.2485127449035645,"2555":-3.1338651180267334,"2556":0.2569639980792999,"2557":-7.160141944885254,"2558":-5.410557270050049,"2559":-2.231520891189575,"2560":12.56473159790039,"2561":8.302506446838379,"2562":-10.450733184814453,"2563":1.8357254266738892,"2564":7.046883583068848,"2565":-5.530004024505615,"2566":4.458282947540283,"2567":10.048782348632812,"2568":4.225390434265137,"2569":0.8508411049842834,"2570":5.828319549560547,"2571":11.150581359863281,"2572":-0.6292279362678528,"2573":11.530134201049805,"2574":-3.7692031860351562,"2575":1.3871846199035645,"2576":2.9972314834594727,"2577":-6.019383907318115,"2578":-7.966727256774902,"2579":-1.9004433155059814,"2580":-2.0187978744506836,"2581":9.587784767150879,"2582":9.844175338745117,"2583":-5.723118305206299,"2584":12.159490585327148,"2585":14.264383316040039,"2586":9.077715873718262,"2587":19.02532958984375,"2588":0.9197509288787842,"2589":8.858878135681152,"2590":-4.317615032196045,"2591":10.513338088989258,"2592":-3.20729923248291,"2593":1.3667662143707275,"2594":-3.07456374168396,"2595":0.714939296245575,"2596":-10.70185375213623,"2597":0.6548364758491516,"2598":2.934377670288086,"2599":1.5635017156600952,"2600":12.18985652923584,"2601":-2.7004241943359375,"2602":7.791328430175781,"2603":8.301401138305664,"2604":7.917672157287598,"2605":-0.24322852492332458,"2606":-9.717302322387695,"2607":-13.706878662109375,"2608":5.033763408660889,"2609":4.650077819824219,"2610":-11.055971145629883,"2611":16.319578170776367,"2612":8.375579833984375,"2613":0.15089361369609833,"2614":-4.44550085067749,"2615":-9.630544662475586,"2616":-10.230253219604492,"2617":8.946213722229004,"2618":-1.563738226890564,"2619":-5.604641914367676,"2620":9.021204948425293,"2621":-4.304637908935547,"2622":-0.5508096218109131,"2623":-11.776996612548828,"2624":-7.428777694702148,"2625":13.220752716064453,"2626":0.5632357001304626,"2627":12.264667510986328,"2628":-1.7894622087478638,"2629":-7.816895961761475,"2630":-0.6132199168205261,"2631":4.6236371994018555,"2632":-8.452325820922852,"2633":4.282101631164551,"2634":-9.724527359008789,"2635":4.423954963684082,"2636":-7.464038848876953,"2637":-8.143147468566895,"2638":6.032039165496826,"2639":8.272083282470703,"2640":-5.268367767333984,"2641":2.4633684158325195,"2642":2.0121102333068848,"2643":1.9159692525863647,"2644":5.8786187171936035,"2645":4.024244785308838,"2646":-7.374294757843018,"2647":-16.20209312438965,"2648":4.822878360748291,"2649":-3.5102462768554688,"2650":-1.811970829963684,"2651":3.3737118244171143,"2652":7.41528844833374,"2653":-5.80979585647583,"2654":3.101238250732422,"2655":-12.939605712890625,"2656":1.548417329788208,"2657":-6.395627975463867,"2658":1.726682424545288,"2659":5.472123146057129,"2660":2.7640137672424316,"2661":1.2623937129974365,"2662":8.072562217712402,"2663":2.1719539165496826,"2664":1.295623779296875,"2665":-6.35821533203125,"2666":1.6904233694076538,"2667":3.3181872367858887,"2668":1.0111314058303833,"2669":-7.477481365203857,"2670":-11.132161140441895,"2671":1.7631300687789917,"2672":-1.810288906097412,"2673":-9.311983108520508,"2674":12.435689926147461,"2675":8.56285572052002,"2676":1.5789445638656616,"2677":3.4083480834960938,"2678":-3.709498643875122,"2679":-7.10367488861084,"2680":4.13090181350708,"2681":-3.3931238651275635,"2682":6.395852565765381,"2683":4.4377217292785645,"2684":-2.8606879711151123,"2685":-5.430111408233643,"2686":-3.9518702030181885,"2687":-10.119970321655273,"2688":1.2422139644622803,"2689":1.5507899522781372,"2690":9.991743087768555,"2691":-11.468358993530273,"2692":4.114311695098877,"2693":0.22216424345970154,"2694":4.055678367614746,"2695":-15.213109016418457,"2696":0.4676319658756256,"2697":-12.02649974822998,"2698":-10.270527839660645,"2699":-10.377299308776855,"2700":-6.439639091491699,"2701":3.803537368774414,"2702":-7.243841648101807,"2703":4.912832736968994,"2704":2.925563335418701,"2705":1.0062618255615234,"2706":2.7236897945404053,"2707":3.9110448360443115,"2708":0.9201031923294067,"2709":-6.867465019226074,"2710":1.8030868768692017,"2711":0.866355836391449,"2712":9.87289047241211,"2713":7.444359302520752,"2714":0.10409215092658997,"2715":-1.9349126815795898,"2716":-1.7220648527145386,"2717":1.5106539726257324,"2718":-5.337533950805664,"2719":3.486858606338501,"2720":0.7842309474945068,"2721":5.105598449707031,"2722":-12.26578426361084,"2723":-0.7024492621421814,"2724":4.940457820892334,"2725":9.543675422668457,"2726":13.431007385253906,"2727":9.73980712890625,"2728":-3.5792956352233887,"2729":6.382269382476807,"2730":6.961374282836914,"2731":5.531505107879639,"2732":-2.9221787452697754,"2733":6.196727752685547,"2734":0.2643003463745117,"2735":-4.342081546783447,"2736":5.369320869445801,"2737":5.457954406738281,"2738":3.1494433879852295,"2739":5.928905010223389,"2740":10.878006935119629,"2741":-0.5389737486839294,"2742":-1.2805424928665161,"2743":-0.22661949694156647,"2744":-8.476860046386719,"2745":7.02847957611084,"2746":4.254619598388672,"2747":-10.382609367370605,"2748":-7.559939861297607,"2749":-2.864854335784912,"2750":4.128323554992676,"2751":-1.2564373016357422,"2752":-6.205046653747559,"2753":-2.964982748031616,"2754":1.1949340105056763,"2755":-2.212221384048462,"2756":4.031708240509033,"2757":5.212348461151123,"2758":-3.929124593734741,"2759":9.627066612243652,"2760":1.3707678318023682,"2761":0.8457028269767761,"2762":2.14473295211792,"2763":1.3450396060943604,"2764":3.886352777481079,"2765":5.4866790771484375,"2766":4.034145832061768,"2767":-5.725457191467285,"2768":-0.12294520437717438,"2769":5.325171947479248,"2770":0.6015759110450745,"2771":-0.15743210911750793,"2772":0.9174795150756836,"2773":-2.087618350982666,"2774":-1.2829453945159912,"2775":-1.9610008001327515,"2776":3.500215530395508,"2777":9.932575225830078,"2778":0.3914845585823059,"2779":-2.7793447971343994,"2780":5.620779037475586,"2781":-4.420792579650879,"2782":4.652407169342041,"2783":0.5710555911064148,"2784":5.32372522354126,"2785":-3.304088830947876,"2786":1.302323341369629,"2787":2.104461431503296,"2788":-1.1641517877578735,"2789":3.126995086669922,"2790":-2.1411869525909424,"2791":-2.3669755458831787,"2792":6.226353168487549,"2793":-4.164973258972168,"2794":0.1395704746246338,"2795":-2.7033159732818604,"2796":-10.895271301269531,"2797":0.7480474710464478,"2798":-2.3294389247894287,"2799":-5.528269290924072,"2800":11.10756778717041,"2801":2.996337413787842,"2802":-7.402895450592041,"2803":-1.9445998668670654,"2804":5.485418796539307,"2805":-11.063430786132812,"2806":-4.213826656341553,"2807":-1.1953425407409668,"2808":4.036252498626709,"2809":5.28176736831665,"2810":-0.42791998386383057,"2811":3.520981788635254,"2812":-5.131019592285156,"2813":-3.2934296131134033,"2814":3.5667030811309814,"2815":-4.257430076599121,"2816":11.586326599121094,"2817":-10.273269653320312,"2818":-3.492119789123535,"2819":-5.4642744064331055,"2820":-0.6191650032997131,"2821":-6.433873653411865,"2822":0.7347607612609863,"2823":-1.9573850631713867,"2824":-7.454774379730225,"2825":-0.40499380230903625,"2826":-3.57112193107605,"2827":7.128408908843994,"2828":-0.5402246713638306,"2829":-3.363030433654785,"2830":-0.5574445724487305,"2831":-0.22963137924671173,"2832":-5.842653274536133,"2833":3.0936357975006104,"2834":-3.3528215885162354,"2835":1.8596656322479248,"2836":-9.462030410766602,"2837":-10.362567901611328,"2838":6.186791896820068,"2839":-1.1798328161239624,"2840":6.610599040985107,"2841":-6.514158248901367,"2842":1.4030567407608032,"2843":-3.0133745670318604,"2844":-1.5611597299575806,"2845":9.389066696166992,"2846":0.19119301438331604,"2847":1.1578943729400635,"2848":-8.031795501708984,"2849":5.851464748382568,"2850":9.472233772277832,"2851":3.4424819946289062,"2852":2.737765073776245,"2853":6.351276397705078,"2854":4.879422664642334,"2855":6.1934285163879395,"2856":2.304675340652466,"2857":12.122714042663574,"2858":-0.8436233997344971,"2859":0.06951507925987244,"2860":1.9999325275421143,"2861":15.319028854370117,"2862":-6.991668224334717,"2863":12.6702299118042,"2864":-3.686054229736328,"2865":5.066763401031494,"2866":-12.106294631958008,"2867":2.7117626667022705,"2868":-4.954687595367432,"2869":-3.3603274822235107,"2870":-15.975591659545898,"2871":-2.235640287399292,"2872":-6.595961093902588,"2873":-2.17691969871521,"2874":2.209747791290283,"2875":8.1102294921875,"2876":2.747349500656128,"2877":-8.353272438049316,"2878":-8.612796783447266,"2879":-4.946924209594727,"2880":-3.4579079151153564,"2881":2.540193557739258,"2882":2.5017476081848145,"2883":10.644875526428223,"2884":-14.582039833068848,"2885":12.58423137664795,"2886":-6.401540279388428,"2887":1.3512839078903198,"2888":5.176831245422363,"2889":-5.651787757873535,"2890":4.3728556632995605,"2891":-5.2573771476745605,"2892":-0.7646134495735168,"2893":-10.530501365661621,"2894":9.511248588562012,"2895":-1.1413897275924683,"2896":-1.6409798860549927,"2897":3.6875529289245605,"2898":-3.5024333000183105,"2899":-4.054148197174072,"2900":-12.486544609069824,"2901":-27.340877532958984,"2902":3.2179932594299316,"2903":-0.48816677927970886,"2904":10.595175743103027,"2905":6.271394729614258,"2906":-7.390221118927002,"2907":7.390939235687256,"2908":-3.118039131164551,"2909":10.837623596191406,"2910":0.6767216324806213,"2911":5.640297889709473,"2912":-2.9222848415374756,"2913":-2.228670120239258,"2914":-12.370369911193848,"2915":-25.141298294067383,"2916":0.7425364255905151,"2917":23.71198272705078,"2918":-11.948003768920898,"2919":5.442312717437744,"2920":4.818851947784424,"2921":4.779746055603027,"2922":-5.1554694175720215,"2923":-5.0685272216796875,"2924":-3.098724842071533,"2925":0.23075543344020844,"2926":-0.5971863865852356,"2927":-6.930426597595215,"2928":9.902923583984375,"2929":-4.621271133422852,"2930":-2.10396146774292,"2931":0.3401782512664795,"2932":-8.416213989257812,"2933":-6.921199798583984,"2934":-21.676355361938477,"2935":-10.12343978881836,"2936":5.184262752532959,"2937":4.977563381195068,"2938":5.379306793212891,"2939":10.961885452270508,"2940":4.738656997680664,"2941":3.2776670455932617,"2942":-7.058170795440674,"2943":7.108747482299805,"2944":3.7958054542541504,"2945":8.949398040771484,"2946":10.842567443847656,"2947":-15.147685050964355,"2948":6.45121431350708,"2949":4.292346954345703,"2950":-10.683006286621094,"2951":2.768203020095825,"2952":18.542068481445312,"2953":-1.0624847412109375,"2954":5.0461812019348145,"2955":-5.60931396484375,"2956":-1.819866418838501,"2957":6.290670871734619,"2958":-17.16059684753418,"2959":-16.291946411132812,"2960":-1.5282609462738037,"2961":-2.7004318237304688,"2962":-5.910946846008301,"2963":2.000929832458496,"2964":2.649625539779663,"2965":8.478361129760742,"2966":1.6861284971237183,"2967":-6.987044334411621,"2968":-7.0056633949279785,"2969":-7.368659019470215,"2970":-24.9885196685791,"2971":-5.467610836029053,"2972":-7.416729927062988,"2973":8.999003410339355,"2974":-1.702441692352295,"2975":-7.647146701812744,"2976":-10.27143383026123,"2977":16.7305850982666,"2978":7.535120487213135,"2979":-2.874727249145508,"2980":-2.4731831550598145,"2981":11.298504829406738,"2982":4.310625076293945,"2983":-1.6844239234924316,"2984":0.7035340666770935,"2985":-0.056598275899887085,"2986":7.404074192047119,"2987":2.0354456901550293,"2988":7.085509300231934,"2989":-2.5441157817840576,"2990":11.002008438110352,"2991":-13.21727466583252,"2992":-5.853360176086426,"2993":-2.089658737182617,"2994":-9.135576248168945,"2995":9.12035083770752,"2996":-8.353256225585938,"2997":4.114284992218018,"2998":6.482158184051514,"2999":-0.9591478109359741,"3000":-15.673598289489746,"3001":-13.782859802246094,"3002":-1.425524353981018,"3003":4.124755859375,"3004":-3.377732992172241,"3005":8.019569396972656,"3006":-7.311850547790527,"3007":-10.794548034667969,"3008":-5.022251129150391,"3009":12.070967674255371,"3010":4.778950214385986,"3011":2.551130771636963,"3012":-7.923097133636475,"3013":-10.361153602600098,"3014":-10.9471435546875,"3015":5.87955379486084,"3016":10.985629081726074,"3017":0.4336003065109253,"3018":3.129765510559082,"3019":13.085835456848145,"3020":-10.675773620605469,"3021":7.3670549392700195,"3022":-0.3155387341976166,"3023":6.192538738250732,"3024":7.16786527633667,"3025":4.136208534240723,"3026":-1.8520021438598633,"3027":-6.737186908721924,"3028":-9.858866691589355,"3029":-3.394810438156128,"3030":-4.467280387878418,"3031":-0.7363844513893127,"3032":-3.4998714923858643,"3033":1.7666008472442627,"3034":-10.151773452758789,"3035":7.637177467346191,"3036":1.2617342472076416,"3037":-0.624079704284668,"3038":-8.261045455932617,"3039":-7.723888874053955,"3040":-4.407515525817871,"3041":-1.4972894191741943,"3042":-7.387482643127441,"3043":1.9149993658065796,"3044":-12.042014122009277,"3045":-6.3062238693237305,"3046":-9.722363471984863,"3047":5.3239312171936035,"3048":0.7903183102607727,"3049":6.285459518432617,"3050":-4.395890712738037,"3051":-8.921798706054688,"3052":-3.722862482070923,"3053":-2.561859369277954,"3054":-7.945350170135498,"3055":-7.341802597045898,"3056":1.9888057708740234,"3057":6.957262992858887,"3058":8.941904067993164,"3059":10.172651290893555,"3060":-11.22032356262207,"3061":-4.856445789337158,"3062":3.8458502292633057,"3063":0.5551280379295349,"3064":2.3948776721954346,"3065":5.458925247192383,"3066":-5.295016288757324,"3067":3.8083863258361816,"3068":-3.8966948986053467,"3069":5.344849109649658,"3070":-8.034320831298828,"3071":-4.174842357635498,"3072":-6.988884449005127,"3073":1.7640454769134521,"3074":-8.483037948608398,"3075":-1.3740321397781372,"3076":-0.6697277426719666,"3077":10.101237297058105,"3078":3.570570707321167,"3079":-2.2462172508239746,"3080":4.7845778465271,"3081":-8.266302108764648,"3082":4.885850429534912,"3083":-6.485607624053955,"3084":-5.73452091217041,"3085":-0.6196206212043762,"3086":-2.3654236793518066,"3087":4.706863880157471,"3088":4.411167144775391,"3089":-1.794162631034851,"3090":0.014219115488231182,"3091":0.4710173010826111,"3092":8.018481254577637,"3093":2.6618263721466064,"3094":-7.525083065032959,"3095":-10.358259201049805,"3096":3.557962656021118,"3097":-5.65427827835083,"3098":7.903010845184326,"3099":-1.8876755237579346,"3100":4.539285182952881,"3101":-7.297872066497803,"3102":-1.8532180786132812,"3103":-18.526752471923828,"3104":-19.722192764282227,"3105":-1.7747207880020142,"3106":16.33047866821289,"3107":-18.507648468017578,"3108":3.917311191558838,"3109":-8.419768333435059,"3110":14.127346992492676,"3111":3.5011894702911377,"3112":4.046010971069336,"3113":3.7417523860931396,"3114":-2.9949328899383545,"3115":6.7459001541137695,"3116":-9.814963340759277,"3117":3.7561395168304443,"3118":-7.72600793838501,"3119":5.747853755950928,"3120":6.987483501434326,"3121":-2.2171554565429688,"3122":3.7103323936462402,"3123":-9.339275360107422,"3124":-7.9585065841674805,"3125":-1.4150919914245605,"3126":4.693546772003174,"3127":9.05918025970459,"3128":16.856794357299805,"3129":-3.0386548042297363,"3130":-2.68550705909729,"3131":-4.1831793785095215,"3132":-2.177429676055908,"3133":1.430769920349121,"3134":3.108262062072754,"3135":2.03389048576355,"3136":-8.313143730163574,"3137":-5.34580135345459,"3138":-0.0444701723754406,"3139":6.100038051605225,"3140":7.337107181549072,"3141":-5.401628494262695,"3142":-11.641919136047363,"3143":-1.6688796281814575,"3144":-6.428864002227783,"3145":7.758388996124268,"3146":5.393954753875732,"3147":-5.619660377502441,"3148":-5.461096286773682,"3149":-4.043582916259766,"3150":-20.334993362426758,"3151":-2.182692527770996,"3152":-27.06362533569336,"3153":-14.503016471862793,"3154":-28.919816970825195,"3155":-1.951812744140625,"3156":0.4272894263267517,"3157":6.031886577606201,"3158":5.300902366638184,"3159":-7.258585453033447,"3160":-22.007123947143555,"3161":0.36397719383239746,"3162":-18.502384185791016,"3163":-2.8831677436828613,"3164":-25.42169952392578,"3165":-16.615663528442383,"3166":-6.292873859405518,"3167":2.7153186798095703,"3168":-12.101495742797852,"3169":-0.5727012157440186,"3170":-2.0716466903686523,"3171":-0.25435367226600647,"3172":-0.5516929626464844,"3173":-10.422033309936523,"3174":-4.989574909210205,"3175":25.378665924072266,"3176":11.455917358398438,"3177":-1.9238392114639282,"3178":-20.212892532348633,"3179":-5.324596405029297,"3180":-32.36708068847656,"3181":11.251931190490723,"3182":11.81954288482666,"3183":-17.111635208129883,"3184":7.807569980621338,"3185":4.677995681762695,"3186":-1.408382534980774,"3187":-3.0315299034118652,"3188":-1.7009527683258057,"3189":-10.838943481445312,"3190":15.703266143798828,"3191":-16.008533477783203,"3192":-23.95183563232422,"3193":-9.200201988220215,"3194":7.751462936401367,"3195":-0.46932291984558105,"3196":-1.7982380390167236,"3197":-13.103620529174805,"3198":-16.956525802612305,"3199":-1.256675124168396,"3200":2.5883915424346924,"3201":2.6282031536102295,"3202":-10.534804344177246,"3203":-11.002311706542969,"3204":18.534395217895508,"3205":6.4910078048706055,"3206":0.7557362914085388,"3207":4.157874584197998,"3208":-9.173404693603516,"3209":-24.249595642089844,"3210":-20.117549896240234,"3211":-10.08275032043457,"3212":0.6015747785568237,"3213":-2.8181769847869873,"3214":-2.604916572570801,"3215":4.6800007820129395,"3216":4.293420791625977,"3217":1.154002070426941,"3218":9.491141319274902,"3219":4.49796724319458,"3220":-6.9332804679870605,"3221":5.58803653717041,"3222":-1.8386811017990112,"3223":6.053046226501465,"3224":-0.2807459235191345,"3225":-2.1407740116119385,"3226":-4.229907035827637,"3227":2.868021249771118,"3228":7.610597610473633,"3229":0.7883073091506958,"3230":3.728801965713501,"3231":8.901188850402832,"3232":-0.2934437394142151,"3233":-0.8733348250389099,"3234":10.08358097076416,"3235":9.927141189575195,"3236":-3.1349937915802,"3237":-0.5076057314872742,"3238":-3.4172134399414062,"3239":1.8917272090911865,"3240":-5.269359111785889,"3241":2.005049467086792,"3242":-0.8341131806373596,"3243":7.627427101135254,"3244":-1.216074824333191,"3245":-2.100721597671509,"3246":-2.3746442794799805,"3247":-4.602412223815918,"3248":-6.815511226654053,"3249":4.641395092010498,"3250":6.507173538208008,"3251":-3.847759246826172,"3252":0.3016403019428253,"3253":2.4258475303649902,"3254":-3.56524395942688,"3255":-1.898963451385498,"3256":-0.38294321298599243,"3257":0.7161509990692139,"3258":3.113626003265381,"3259":1.5076124668121338,"3260":-0.56809401512146,"3261":1.6648082733154297,"3262":-0.2254938930273056,"3263":0.16350215673446655,"3264":-1.5022203922271729,"3265":0.2153938263654709,"3266":-1.3167283535003662,"3267":-3.6039435863494873,"3268":2.0336382389068604,"3269":-7.876553058624268,"3270":6.113574504852295,"3271":-4.321966648101807,"3272":1.9578344821929932,"3273":2.13431453704834,"3274":0.051060229539871216,"3275":-2.431997060775757,"3276":1.0137865543365479,"3277":5.685214042663574,"3278":0.20166561007499695,"3279":9.302702903747559,"3280":-7.538748264312744,"3281":-14.261541366577148,"3282":-11.289470672607422,"3283":10.315998077392578,"3284":-9.407730102539062,"3285":2.129554510116577,"3286":-2.326162338256836,"3287":2.7358837127685547,"3288":4.96947717666626,"3289":4.643226146697998,"3290":-5.397478103637695,"3291":-6.851168155670166,"3292":2.76202392578125,"3293":6.765648365020752,"3294":-3.924880266189575,"3295":-3.3038699626922607,"3296":6.50759220123291,"3297":-1.3496662378311157,"3298":5.695703983306885,"3299":3.1024954319000244,"3300":-0.5345373749732971,"3301":0.10070747137069702,"3302":4.32465124130249,"3303":8.46043586730957,"3304":4.2448601722717285,"3305":3.180267810821533,"3306":2.551117420196533,"3307":4.5110907554626465,"3308":-11.065384864807129,"3309":-4.417531967163086,"3310":8.068565368652344,"3311":2.284167766571045,"3312":2.060296058654785,"3313":-3.8922863006591797,"3314":13.138887405395508,"3315":-6.734564304351807,"3316":2.354065179824829,"3317":10.794881820678711,"3318":-0.5281913876533508,"3319":9.24244213104248,"3320":-8.480605125427246,"3321":-1.505449891090393,"3322":3.642918825149536,"3323":-4.3205389976501465,"3324":-0.06675297021865845,"3325":-3.8583216667175293,"3326":-7.033652305603027,"3327":2.3814966678619385,"3328":0.5022718906402588,"3329":2.9876928329467773,"3330":-2.532674789428711,"3331":2.5507726669311523,"3332":15.683420181274414,"3333":-11.702527046203613,"3334":4.4277424812316895,"3335":-6.67465877532959,"3336":-12.063395500183105,"3337":-2.4224557876586914,"3338":4.811779022216797,"3339":-2.590040445327759,"3340":9.075305938720703,"3341":-15.458860397338867,"3342":-19.050212860107422,"3343":-1.0711328983306885,"3344":13.127314567565918,"3345":7.462592601776123,"3346":-17.04505729675293,"3347":5.661081314086914,"3348":-5.887463569641113,"3349":1.662336826324463,"3350":8.541512489318848,"3351":1.819284200668335,"3352":-5.649709701538086,"3353":-12.713715553283691,"3354":-22.377483367919922,"3355":-5.661661624908447,"3356":-5.598259925842285,"3357":-6.975950241088867,"3358":1.1568386554718018,"3359":-13.81184196472168,"3360":16.877161026000977,"3361":-21.017669677734375,"3362":22.12319564819336,"3363":-14.276339530944824,"3364":7.495205402374268,"3365":-18.426706314086914,"3366":8.775628089904785,"3367":-0.34341439604759216,"3368":-2.51106333732605,"3369":-2.2558672428131104,"3370":-16.240779876708984,"3371":19.660390853881836,"3372":24.46323013305664,"3373":18.18570327758789,"3374":1.5719389915466309,"3375":-16.356172561645508,"3376":-20.736543655395508,"3377":6.123668670654297,"3378":12.20317268371582,"3379":-1.736512303352356,"3380":-17.90582275390625,"3381":-3.8252885341644287,"3382":15.017306327819824,"3383":9.470958709716797,"3384":-22.51784896850586,"3385":-37.408748626708984,"3386":10.622902870178223,"3387":-6.032200813293457,"3388":11.649945259094238,"3389":9.478896141052246,"3390":-11.882889747619629,"3391":20.956340789794922,"3392":-2.0392532348632812,"3393":10.391769409179688,"3394":-11.305548667907715,"3395":-3.3690848350524902,"3396":2.0210912227630615,"3397":-6.445794582366943,"3398":-20.04991340637207,"3399":-2.957019090652466,"3400":0.7815748453140259,"3401":-22.58080291748047,"3402":-9.05352783203125,"3403":-16.83734893798828,"3404":19.931978225708008,"3405":14.172294616699219,"3406":8.418611526489258,"3407":-5.392616271972656,"3408":11.043733596801758,"3409":0.41486185789108276,"3410":12.2225980758667,"3411":-11.100704193115234,"3412":-10.57233715057373,"3413":6.0043816566467285,"3414":30.275182723999023,"3415":-8.2145414352417,"3416":25.756694793701172,"3417":12.192486763000488,"3418":29.70328140258789,"3419":29.615507125854492,"3420":-7.2641096115112305,"3421":-8.486473083496094,"3422":6.331995487213135,"3423":-0.9380648136138916,"3424":-8.682387351989746,"3425":-22.294837951660156,"3426":-10.093965530395508,"3427":12.026914596557617,"3428":-11.170985221862793,"3429":-13.293536186218262,"3430":19.333974838256836,"3431":13.742923736572266,"3432":-0.8869946599006653,"3433":4.340048789978027,"3434":-8.371697425842285,"3435":0.0948198214173317,"3436":2.150845766067505,"3437":4.809787750244141,"3438":-11.458687782287598,"3439":-0.8900718688964844,"3440":1.1956579685211182,"3441":-3.1964502334594727,"3442":-17.76447868347168,"3443":-8.629375457763672,"3444":16.858966827392578,"3445":1.797304630279541,"3446":7.508596420288086,"3447":-7.3011794090271,"3448":-1.6063709259033203,"3449":-23.278575897216797,"3450":4.972706317901611,"3451":-5.1332879066467285,"3452":-13.396336555480957,"3453":-28.119491577148438,"3454":-15.788246154785156,"3455":-23.096755981445312,"3456":-5.157208442687988,"3457":24.83131980895996,"3458":7.204044818878174,"3459":-4.19005823135376,"3460":6.966132164001465,"3461":0.08721686899662018,"3462":3.0245134830474854,"3463":3.426055669784546,"3464":-2.87925124168396,"3465":12.548629760742188,"3466":8.051347732543945,"3467":11.73326587677002,"3468":6.0821533203125,"3469":-3.949974775314331,"3470":-4.145991325378418,"3471":0.29181069135665894,"3472":10.456088066101074,"3473":14.21828556060791,"3474":-12.812366485595703,"3475":-5.1754350662231445,"3476":22.4654598236084,"3477":-4.296225070953369,"3478":-2.2516019344329834,"3479":5.617644309997559,"3480":-3.7158432006835938,"3481":-8.287484169006348,"3482":-5.563446044921875,"3483":-6.778012752532959,"3484":-17.385215759277344,"3485":-1.8008626699447632,"3486":4.480504035949707,"3487":-3.526315689086914,"3488":-3.2434983253479004,"3489":-5.927227020263672,"3490":1.4821747541427612,"3491":7.711358547210693,"3492":-6.388650894165039,"3493":10.167071342468262,"3494":2.356180191040039,"3495":-5.479454517364502,"3496":-11.909433364868164,"3497":-12.649038314819336,"3498":-17.745407104492188,"3499":23.96121597290039,"3500":-2.4061148166656494,"3501":-0.8305984139442444,"3502":3.310361385345459,"3503":-19.14580726623535,"3504":-10.325368881225586,"3505":8.756048202514648,"3506":-3.7321150302886963,"3507":-19.87595558166504,"3508":-9.520096778869629,"3509":9.86915397644043,"3510":4.089007377624512,"3511":-3.5392262935638428,"3512":8.270185470581055,"3513":2.820575475692749,"3514":-3.6264374256134033,"3515":7.9852986335754395,"3516":10.730979919433594,"3517":1.5800849199295044,"3518":23.314645767211914,"3519":-31.313400268554688,"3520":-13.056943893432617,"3521":0.46001410484313965,"3522":-4.046099662780762,"3523":-18.059070587158203,"3524":-8.150470733642578,"3525":-3.309868335723877,"3526":10.184062957763672,"3527":4.02717399597168,"3528":13.241650581359863,"3529":4.000233173370361,"3530":-10.154727935791016,"3531":2.3284823894500732,"3532":-11.71702766418457,"3533":-12.641852378845215,"3534":-11.013957977294922,"3535":0.9876050353050232,"3536":-19.639385223388672,"3537":-11.070343971252441,"3538":-17.708818435668945,"3539":0.9459370970726013,"3540":-20.19622230529785,"3541":6.6850104331970215,"3542":-13.957207679748535,"3543":-1.348703384399414,"3544":0.003373775165528059,"3545":-3.8876047134399414,"3546":-12.569989204406738,"3547":1.6181696653366089,"3548":-8.793411254882812,"3549":-20.140544891357422,"3550":-12.850663185119629,"3551":13.708353996276855,"3552":6.594277858734131,"3553":2.3785452842712402,"3554":-0.4050705134868622,"3555":19.282094955444336,"3556":-15.688307762145996,"3557":-17.640151977539062,"3558":-1.7906036376953125,"3559":-3.2469027042388916,"3560":22.50141716003418,"3561":12.69786262512207,"3562":-5.108076095581055,"3563":14.853196144104004,"3564":0.5235251188278198,"3565":-14.762405395507812,"3566":5.457314491271973,"3567":3.054553270339966,"3568":9.657526016235352,"3569":2.8230369091033936,"3570":-20.7559871673584,"3571":8.056744575500488,"3572":-10.02341365814209,"3573":15.401827812194824,"3574":3.704852342605591,"3575":-8.456722259521484,"3576":-10.973151206970215,"3577":7.0233283042907715,"3578":-18.927791595458984,"3579":11.103918075561523,"3580":-0.1875247210264206,"3581":4.250654220581055,"3582":7.821612358093262,"3583":1.5790356397628784,"3584":15.753567695617676,"3585":-6.172965049743652,"3586":11.251882553100586,"3587":4.933830261230469,"3588":2.133451461791992,"3589":1.0028536319732666,"3590":-10.757843017578125,"3591":-16.18600845336914,"3592":1.5394662618637085,"3593":-6.350385665893555,"3594":-16.758373260498047,"3595":0.542601466178894,"3596":-10.985422134399414,"3597":-3.3517234325408936,"3598":11.917928695678711,"3599":1.2826546430587769,"3600":-13.49875259399414,"3601":-5.467548847198486,"3602":17.935577392578125,"3603":5.552268028259277,"3604":16.296621322631836,"3605":7.093217372894287,"3606":3.5441160202026367,"3607":19.0377254486084,"3608":31.74995994567871,"3609":-6.914587020874023,"3610":-13.092534065246582,"3611":11.188232421875,"3612":-7.550511360168457,"3613":-11.251379013061523,"3614":-14.40229320526123,"3615":18.39923858642578,"3616":17.33945655822754,"3617":-16.064952850341797,"3618":-12.894367218017578,"3619":6.405118942260742,"3620":-14.935537338256836,"3621":5.087240219116211,"3622":6.2081685066223145,"3623":8.444442749023438,"3624":10.316150665283203,"3625":-7.653958320617676,"3626":8.047478675842285,"3627":23.40013313293457,"3628":-4.393249988555908,"3629":-0.5034529566764832,"3630":-9.176690101623535,"3631":1.0183238983154297,"3632":-5.751832008361816,"3633":-5.426479816436768,"3634":-1.5478498935699463,"3635":-1.3731023073196411,"3636":8.220706939697266,"3637":-12.177553176879883,"3638":-16.960201263427734,"3639":-8.301435470581055,"3640":6.966312408447266,"3641":-1.0177490711212158,"3642":-1.8395024538040161,"3643":-8.856243133544922,"3644":5.085341930389404,"3645":3.9112420082092285,"3646":22.661134719848633,"3647":19.16301918029785,"3648":-7.853540420532227,"3649":1.825859785079956,"3650":-19.79403305053711,"3651":-12.247647285461426,"3652":-1.6696416139602661,"3653":-8.039802551269531,"3654":17.349145889282227,"3655":1.799872636795044,"3656":-1.910499095916748,"3657":11.647682189941406,"3658":17.405641555786133,"3659":17.193601608276367,"3660":-12.388375282287598,"3661":1.8547661304473877,"3662":12.692242622375488,"3663":-2.042254686355591,"3664":23.879375457763672,"3665":14.433347702026367,"3666":-14.162418365478516,"3667":-2.043917417526245,"3668":20.263530731201172,"3669":10.806905746459961,"3670":12.83084487915039,"3671":9.91458511352539,"3672":21.594938278198242,"3673":-11.85488510131836,"3674":7.341677188873291,"3675":19.70793342590332,"3676":11.945415496826172,"3677":9.4114351272583,"3678":11.155261039733887,"3679":-16.00387191772461,"3680":17.797855377197266,"3681":-12.093330383300781,"3682":5.135923385620117,"3683":-10.800846099853516,"3684":11.890649795532227,"3685":-8.668083190917969,"3686":7.0359086990356445,"3687":3.435713052749634,"3688":-13.834090232849121,"3689":-26.707778930664062,"3690":-1.8878275156021118,"3691":1.4475990533828735,"3692":-22.737812042236328,